{"learner":{"attributes":{"scikit_learn":"{\"_estimator_type\": \"regressor\"}"},"feature_names":["mes","año","lag_1","lag_12","media_movil_3"],"feature_types":["int","int","float","float","float"],"gradient_booster":{"model":{"gbtree_model_param":{"num_parallel_tree":"1","num_trees":"1000"},"iteration_indptr":[0,1,2,3,4,5,6,7,8,9,10,11,12,13,14,15,16,17,18,19,20,21,22,23,24,25,26,27,28,29,30,31,32,33,34,35,36,37,38,39,40,41,42,43,44,45,46,47,48,49,50,51,52,53,54,55,56,57,58,59,60,61,62,63,64,65,66,67,68,69,70,71,72,73,74,75,76,77,78,79,80,81,82,83,84,85,86,87,88,89,90,91,92,93,94,95,96,97,98,99,100,101,102,103,104,105,106,107,108,109,110,111,112,113,114,115,116,117,118,119,120,121,122,123,124,125,126,127,128,129,130,131,132,133,134,135,136,137,138,139,140,141,142,143,144,145,146,147,148,149,150,151,152,153,154,155,156,157,158,159,160,161,162,163,164,165,166,167,168,169,170,171,172,173,174,175,176,177,178,179,180,181,182,183,184,185,186,187,188,189,190,191,192,193,194,195,196,197,198,199,200,201,202,203,204,205,206,207,208,209,210,211,212,213,214,215,216,217,218,219,220,221,222,223,224,225,226,227,228,229,230,231,232,233,234,235,236,237,238,239,240,241,242,243,244,245,246,247,248,249,250,251,252,253,254,255,256,257,258,259,260,261,262,263,264,265,266,267,268,269,270,271,272,273,274,275,276,277,278,279,280,281,282,283,284,285,286,287,288,289,290,291,292,293,294,295,296,297,298,299,300,301,302,303,304,305,306,307,308,309,310,311,312,313,314,315,316,317,318,319,320,321,322,323,324,325,326,327,328,329,330,331,332,333,334,335,336,337,338,339,340,341,342,343,344,345,346,347,348,349,350,351,352,353,354,355,356,357,358,359,360,361,362,363,364,365,366,367,368,369,370,371,372,373,374,375,376,377,378,379,380,381,382,383,384,385,386,387,388,389,390,391,392,393,394,395,396,397,398,399,400,401,402,403,404,405,406,407,408,409,410,411,412,413,414,415,416,417,418,419,420,421,422,423,424,425,426,427,428,429,430,431,432,433,434,435,436,437,438,439,440,441,442,443,444,445,446,447,448,449,450,451,452,453,454,455,456,457,458,459,460,461,462,463,464,465,466,467,468,469,470,471,472,473,474,475,476,477,478,479,480,481,482,483,484,485,486,487,488,489,490,491,492,493,494,495,496,497,498,499,500,501,502,503,504,505,506,507,508,509,510,511,512,513,514,515,516,517,518,519,520,521,522,523,524,525,526,527,528,529,530,531,532,533,534,535,536,537,538,539,540,541,542,543,544,545,546,547,548,549,550,551,552,553,554,555,556,557,558,559,560,561,562,563,564,565,566,567,568,569,570,571,572,573,574,575,576,577,578,579,580,581,582,583,584,585,586,587,588,589,590,591,592,593,594,595,596,597,598,599,600,601,602,603,604,605,606,607,608,609,610,611,612,613,614,615,616,617,618,619,620,621,622,623,624,625,626,627,628,629,630,631,632,633,634,635,636,637,638,639,640,641,642,643,644,645,646,647,648,649,650,651,652,653,654,655,656,657,658,659,660,661,662,663,664,665,666,667,668,669,670,671,672,673,674,675,676,677,678,679,680,681,682,683,684,685,686,687,688,689,690,691,692,693,694,695,696,697,698,699,700,701,702,703,704,705,706,707,708,709,710,711,712,713,714,715,716,717,718,719,720,721,722,723,724,725,726,727,728,729,730,731,732,733,734,735,736,737,738,739,740,741,742,743,744,745,746,747,748,749,750,751,752,753,754,755,756,757,758,759,760,761,762,763,764,765,766,767,768,769,770,771,772,773,774,775,776,777,778,779,780,781,782,783,784,785,786,787,788,789,790,791,792,793,794,795,796,797,798,799,800,801,802,803,804,805,806,807,808,809,810,811,812,813,814,815,816,817,818,819,820,821,822,823,824,825,826,827,828,829,830,831,832,833,834,835,836,837,838,839,840,841,842,843,844,845,846,847,848,849,850,851,852,853,854,855,856,857,858,859,860,861,862,863,864,865,866,867,868,869,870,871,872,873,874,875,876,877,878,879,880,881,882,883,884,885,886,887,888,889,890,891,892,893,894,895,896,897,898,899,900,901,902,903,904,905,906,907,908,909,910,911,912,913,914,915,916,917,918,919,920,921,922,923,924,925,926,927,928,929,930,931,932,933,934,935,936,937,938,939,940,941,942,943,944,945,946,947,948,949,950,951,952,953,954,955,956,957,958,959,960,961,962,963,964,965,966,967,968,969,970,971,972,973,974,975,976,977,978,979,980,981,982,983,984,985,986,987,988,989,990,991,992,993,994,995,996,997,998,999,1000],"tree_info":[0,0,0,0,0,0,0,0,0,0,0,0,0,0,0,0,0,0,0,0,0,0,0,0,0,0,0,0,0,0,0,0,0,0,0,0,0,0,0,0,0,0,0,0,0,0,0,0,0,0,0,0,0,0,0,0,0,0,0,0,0,0,0,0,0,0,0,0,0,0,0,0,0,0,0,0,0,0,0,0,0,0,0,0,0,0,0,0,0,0,0,0,0,0,0,0,0,0,0,0,0,0,0,0,0,0,0,0,0,0,0,0,0,0,0,0,0,0,0,0,0,0,0,0,0,0,0,0,0,0,0,0,0,0,0,0,0,0,0,0,0,0,0,0,0,0,0,0,0,0,0,0,0,0,0,0,0,0,0,0,0,0,0,0,0,0,0,0,0,0,0,0,0,0,0,0,0,0,0,0,0,0,0,0,0,0,0,0,0,0,0,0,0,0,0,0,0,0,0,0,0,0,0,0,0,0,0,0,0,0,0,0,0,0,0,0,0,0,0,0,0,0,0,0,0,0,0,0,0,0,0,0,0,0,0,0,0,0,0,0,0,0,0,0,0,0,0,0,0,0,0,0,0,0,0,0,0,0,0,0,0,0,0,0,0,0,0,0,0,0,0,0,0,0,0,0,0,0,0,0,0,0,0,0,0,0,0,0,0,0,0,0,0,0,0,0,0,0,0,0,0,0,0,0,0,0,0,0,0,0,0,0,0,0,0,0,0,0,0,0,0,0,0,0,0,0,0,0,0,0,0,0,0,0,0,0,0,0,0,0,0,0,0,0,0,0,0,0,0,0,0,0,0,0,0,0,0,0,0,0,0,0,0,0,0,0,0,0,0,0,0,0,0,0,0,0,0,0,0,0,0,0,0,0,0,0,0,0,0,0,0,0,0,0,0,0,0,0,0,0,0,0,0,0,0,0,0,0,0,0,0,0,0,0,0,0,0,0,0,0,0,0,0,0,0,0,0,0,0,0,0,0,0,0,0,0,0,0,0,0,0,0,0,0,0,0,0,0,0,0,0,0,0,0,0,0,0,0,0,0,0,0,0,0,0,0,0,0,0,0,0,0,0,0,0,0,0,0,0,0,0,0,0,0,0,0,0,0,0,0,0,0,0,0,0,0,0,0,0,0,0,0,0,0,0,0,0,0,0,0,0,0,0,0,0,0,0,0,0,0,0,0,0,0,0,0,0,0,0,0,0,0,0,0,0,0,0,0,0,0,0,0,0,0,0,0,0,0,0,0,0,0,0,0,0,0,0,0,0,0,0,0,0,0,0,0,0,0,0,0,0,0,0,0,0,0,0,0,0,0,0,0,0,0,0,0,0,0,0,0,0,0,0,0,0,0,0,0,0,0,0,0,0,0,0,0,0,0,0,0,0,0,0,0,0,0,0,0,0,0,0,0,0,0,0,0,0,0,0,0,0,0,0,0,0,0,0,0,0,0,0,0,0,0,0,0,0,0,0,0,0,0,0,0,0,0,0,0,0,0,0,0,0,0,0,0,0,0,0,0,0,0,0,0,0,0,0,0,0,0,0,0,0,0,0,0,0,0,0,0,0,0,0,0,0,0,0,0,0,0,0,0,0,0,0,0,0,0,0,0,0,0,0,0,0,0,0,0,0,0,0,0,0,0,0,0,0,0,0,0,0,0,0,0,0,0,0,0,0,0,0,0,0,0,0,0,0,0,0,0,0,0,0,0,0,0,0,0,0,0,0,0,0,0,0,0,0,0,0,0,0,0,0,0,0,0,0,0,0,0,0,0,0,0,0,0,0,0,0,0,0,0,0,0,0,0,0,0,0,0,0,0,0,0,0,0,0,0,0,0,0,0,0,0,0,0,0,0,0,0,0,0,0,0,0,0,0,0,0,0,0,0,0,0,0,0,0,0,0,0,0,0,0,0,0,0,0,0,0,0,0,0,0,0,0,0,0,0,0,0,0,0,0,0,0,0,0,0,0,0,0,0,0,0,0,0,0,0,0,0,0,0,0,0,0,0,0,0,0,0,0,0,0,0,0,0,0,0,0,0,0,0,0,0,0,0,0,0,0,0,0,0,0,0,0,0,0,0,0,0,0,0,0,0,0,0,0,0,0,0,0,0,0,0,0,0,0,0,0,0,0,0,0,0,0,0,0,0,0,0,0,0,0,0,0,0,0,0,0,0,0,0,0,0,0,0,0,0,0,0,0,0,0,0,0,0,0,0,0,0,0,0,0,0,0,0,0,0,0,0,0,0,0,0,0,0,0,0,0,0],"trees":[{"base_weights":[3.494379E-5,1.3352867E2,-1.1378141E2,2.9731177E2,8.993996E1,-1.6054077E2,-5.2598396E1,2.1326642E0,4.230294E0,7.440923E1,1.5396875E2,-1.8407309E2,-9.421836E1,-7.3032455E1,4.033241E1,3.6207783E1,9.2132E1,1.9540405E-2,1.6279584E2,-1.9192038E2,-8.4076595E-1,-1.3408618E2,-2.705429E0,-1.2980183E2,-3.3495296E1,2.4310608E0,5.2696073E-1,-3.7483723E0,5.322871E1,6.0870243E1,1.13362656E2,7.893106E1,1.7512894E0,-1.9848584E0,-1.0740993E0,-1.0545959E-1,-1.4161912E0,9.5605385E-1,-5.140993E1,-1.3653732E2,2.4540404E-2,-3.930292E1,5.7264647E0,-9.045959E-2,9.272054E0,7.7954036E-1,-2.3705429E-1,-1.2394612E-1,6.167819E-1,7.3817223E-1,-2.2318938E-1,1.1774447E0,-9.045959E-2,1.245404E-1,9.693872E-1,-6.1279297E-4,-7.7068937E-1,-2.2545959E-1,-1.4135023E0,-4.6218356E-1,-6.2432654E-2,2.6272056E-1,-1.6727945E-1,1.245404E-1,1.4540405E-2],"categories":[],"categories_nodes":[],"categories_segments":[],"categories_sizes":[],"default_left":[0,0,0,0,0,0,0,0,0,0,0,0,0,0,0,0,0,0,0,0,0,0,0,0,0,0,0,0,0,0,0,0,0,0,0,0,0,0,0,0,0,0,0,0,0,0,0,0,0,0,0,0,0,0,0,0,0,0,0,0,0,0,0,0,0],"id":0,"left_children":[1,3,5,7,9,11,13,-1,-1,15,17,19,21,23,25,27,29,-1,31,33,-1,35,37,39,41,43,-1,45,47,49,51,53,-1,-1,-1,-1,-1,-1,55,57,-1,59,61,-1,63,-1,-1,-1,-1,-1,-1,-1,-1,-1,-1,-1,-1,-1,-1,-1,-1,-1,-1,-1,-1],"loss_changes":[3.9957805E6,8.3709025E5,3.9780075E5,1.739315E5,8.500144E4,1.075145E5,1.2257966E5,0E0,0E0,5.082697E4,2.3835156E4,2.9376625E4,8.355091E4,1.1236625E5,5.495086E3,1.8561973E4,2.8939781E4,0E0,3.7601875E3,8.08775E3,0E0,1.33964375E4,4.32205E4,1.9042031E4,7.5141953E3,3.979315E2,0E0,1.6522791E4,1.1299656E4,2.749668E4,1.7692656E4,3.5811035E3,0E0,0E0,0E0,0E0,0E0,0E0,7.9006113E3,7.7857188E3,0E0,6.1128594E3,2.7461729E3,0E0,5.652173E1,0E0,0E0,0E0,0E0,0E0,0E0,0E0,0E0,0E0,0E0,0E0,0E0,0E0,0E0,0E0,0E0,0E0,0E0,0E0,0E0],"parents":[2147483647,0,0,1,1,2,2,3,3,4,4,5,5,6,6,9,9,10,10,11,11,12,12,13,13,14,14,15,15,16,16,18,18,19,19,21,21,22,22,23,23,24,24,25,25,27,27,28,28,29,29,30,30,31,31,38,38,39,39,41,41,42,42,44,44],"right_children":[2,4,6,8,10,12,14,-1,-1,16,18,20,22,24,26,28,30,-1,32,34,-1,36,38,40,42,44,-1,46,48,50,52,54,-1,-1,-1,-1,-1,-1,56,58,-1,60,62,-1,64,-1,-1,-1,-1,-1,-1,-1,-1,-1,-1,-1,-1,-1,-1,-1,-1,-1,-1,-1,-1],"split_conditions":[2.014E3,2.006E3,1.084E3,1.541E3,1.361E3,2.021E3,1.2E1,2.1326642E0,4.230294E0,5E0,1.104E3,1.12E3,5E0,2.021E3,1.003E3,1.174E3,1.256E3,1.9540405E-2,1.3033334E3,1.068E3,-8.4076595E-1,9.37E2,9.96E2,1.243E3,1.19E3,2.017E3,5.2696073E-1,1.174E3,1.1953334E3,1.2486666E3,1.357E3,2E0,1.7512894E0,-1.9848584E0,-1.0740993E0,-1.0545959E-1,-1.4161912E0,9.5605385E-1,8E0,1.086E3,2.4540404E-2,2.025E3,1.216E3,-9.045959E-2,2.019E3,7.7954036E-1,-2.3705429E-1,-1.2394612E-1,6.167819E-1,7.3817223E-1,-2.2318938E-1,1.1774447E0,-9.045959E-2,1.245404E-1,9.693872E-1,-6.1279297E-4,-7.7068937E-1,-2.2545959E-1,-1.4135023E0,-4.6218356E-1,-6.2432654E-2,2.6272056E-1,-1.6727945E-1,1.245404E-1,1.4540405E-2],"split_indices":[1,1,3,2,2,1,0,0,0,0,3,2,0,1,2,3,4,0,4,3,0,2,3,2,4,1,0,2,4,4,2,0,0,0,0,0,0,0,0,3,0,1,2,0,1,0,0,0,0,0,0,0,0,0,0,0,0,0,0,0,0,0,0,0,0],"split_type":[0,0,0,0,0,0,0,0,0,0,0,0,0,0,0,0,0,0,0,0,0,0,0,0,0,0,0,0,0,0,0,0,0,0,0,0,0,0,0,0,0,0,0,0,0,0,0,0,0,0,0,0,0,0,0,0,0,0,0,0,0,0,0,0,0],"sum_hessian":[2.61E2,1.2E2,1.41E2,2.4E1,9.6E1,7.9E1,6.2E1,1.6E1,8E0,7.9E1,1.7E1,5.7E1,2.2E1,5.1E1,1.1E1,2.6E1,5.3E1,1E0,1.6E1,5.2E1,5E0,1.5E1,7E0,2E1,3.1E1,3E0,8E0,8E0,1.8E1,2.3E1,3E1,3E0,1.3E1,4.7E1,5E0,1E0,1.4E1,2E0,5E0,1.9E1,1E0,2.7E1,4E0,1E0,2E0,1E0,7E0,2E0,1.6E1,2E1,3E0,2.9E1,1E0,1E0,2E0,2E0,3E0,1E0,1.8E1,2.2E1,5E0,2E0,2E0,1E0,1E0],"tree_param":{"num_deleted":"0","num_feature":"5","num_nodes":"65","size_leaf_vector":"1"}},{"base_weights":[1.970923E-2,1.3229141E2,-1.12690834E2,2.9459314E2,8.909725E1,-1.5900082E2,-5.2095745E1,2.1125917E0,4.192691E0,7.369808E1,1.5258818E2,-1.8229959E2,-9.333434E1,-7.234147E1,3.997704E1,3.5884026E1,9.1240326E1,1.9442748E-2,1.613352E2,-1.9005888E2,-8.337591E-1,-1.3284045E2,-2.655304E0,-1.2858073E2,-3.3173782E1,2.4189148E0,5.2227646E-1,-3.6506076E0,5.272232E1,1.010108E2,3.1164524E1,7.841525E1,1.7350268E0,-1.9654232E0,-1.0651485E0,-1.0493225E-1,-1.4029739E0,9.4968015E-1,-5.1024414E1,-1.3525394E2,2.4417724E-2,-2.5394358E1,-7.0103806E1,-9.000732E-2,9.225708E0,7.756427E-1,-2.3498E-1,-1.23120114E-1,6.109766E-1,8.504866E-1,1.4406774E0,6.576761E-1,2.901713E-2,1.2391784E-1,9.629248E-1,-6.0872396E-4,-7.649096E-1,-2.2433227E-1,-1.4001118E0,-3.540289E-1,9.688807E-2,-3.3148803E-2,-8.597232E-1,1.2391784E-1,1.4467773E-2],"categories":[],"categories_nodes":[],"categories_segments":[],"categories_sizes":[],"default_left":[0,0,0,0,0,0,0,0,0,0,0,0,0,0,0,0,0,0,0,0,0,0,0,0,0,0,0,0,0,0,0,0,0,0,0,0,0,0,0,0,0,0,0,0,0,0,0,0,0,0,0,0,0,0,0,0,0,0,0,0,0,0,0,0,0],"id":1,"left_children":[1,3,5,7,9,11,13,-1,-1,15,17,19,21,23,25,27,29,-1,31,33,-1,35,37,39,41,43,-1,45,47,49,51,53,-1,-1,-1,-1,-1,-1,55,57,-1,59,61,-1,63,-1,-1,-1,-1,-1,-1,-1,-1,-1,-1,-1,-1,-1,-1,-1,-1,-1,-1,-1,-1],"loss_changes":[3.9209132E6,8.2202125E5,3.9019125E5,1.71169E5,8.359219E4,1.05381E5,1.2032905E5,0E0,0E0,4.9793406E4,2.3404688E4,2.8673E4,8.204194E4,1.1027809E5,5.3949844E3,1.8166254E4,2.8548438E4,0E0,3.5465E3,7.773E3,0E0,1.3125219E4,4.2621312E4,1.8691438E4,7.4131797E3,3.9396283E2,0E0,1.6329737E4,1.1101238E4,1.9362125E4,8.610985E3,3.5280332E3,0E0,0E0,0E0,0E0,0E0,0E0,7.782539E3,7.5934062E3,0E0,1.0174682E4,5.014215E3,0E0,5.5957916E1,0E0,0E0,0E0,0E0,0E0,0E0,0E0,0E0,0E0,0E0,0E0,0E0,0E0,0E0,0E0,0E0,0E0,0E0,0E0,0E0],"parents":[2147483647,0,0,1,1,2,2,3,3,4,4,5,5,6,6,9,9,10,10,11,11,12,12,13,13,14,14,15,15,16,16,18,18,19,19,21,21,22,22,23,23,24,24,25,25,27,27,28,28,29,29,30,30,31,31,38,38,39,39,41,41,42,42,44,44],"right_children":[2,4,6,8,10,12,14,-1,-1,16,18,20,22,24,26,28,30,-1,32,34,-1,36,38,40,42,44,-1,46,48,50,52,54,-1,-1,-1,-1,-1,-1,56,58,-1,60,62,-1,64,-1,-1,-1,-1,-1,-1,-1,-1,-1,-1,-1,-1,-1,-1,-1,-1,-1,-1,-1,-1],"split_conditions":[2.014E3,2.006E3,1.084E3,1.541E3,1.361E3,2.021E3,1.2E1,2.1125917E0,4.192691E0,5E0,1.104E3,1.12E3,5E0,2.021E3,1.003E3,1.174E3,2.013E3,1.9442748E-2,1.3033334E3,1.068E3,-8.337591E-1,9.37E2,9.96E2,1.243E3,1.229E3,2.017E3,5.2227646E-1,1.174E3,1.1953334E3,2.011E3,8E0,2E0,1.7350268E0,-1.9654232E0,-1.0651485E0,-1.0493225E-1,-1.4029739E0,9.4968015E-1,8E0,1.086E3,2.4417724E-2,1.166E3,6E0,-9.000732E-2,2.019E3,7.756427E-1,-2.3498E-1,-1.23120114E-1,6.109766E-1,8.504866E-1,1.4406774E0,6.576761E-1,2.901713E-2,1.2391784E-1,9.629248E-1,-6.0872396E-4,-7.649096E-1,-2.2433227E-1,-1.4001118E0,-3.540289E-1,9.688807E-2,-3.3148803E-2,-8.597232E-1,1.2391784E-1,1.4467773E-2],"split_indices":[1,1,3,2,2,1,0,0,0,0,3,2,0,1,2,3,1,0,4,3,0,2,3,2,3,1,0,2,4,1,0,0,0,0,0,0,0,0,0,3,0,3,0,0,1,0,0,0,0,0,0,0,0,0,0,0,0,0,0,0,0,0,0,0,0],"split_type":[0,0,0,0,0,0,0,0,0,0,0,0,0,0,0,0,0,0,0,0,0,0,0,0,0,0,0,0,0,0,0,0,0,0,0,0,0,0,0,0,0,0,0,0,0,0,0,0,0,0,0,0,0,0,0,0,0,0,0,0,0,0,0,0,0],"sum_hessian":[2.61E2,1.2E2,1.41E2,2.4E1,9.6E1,7.9E1,6.2E1,1.6E1,8E0,7.9E1,1.7E1,5.7E1,2.2E1,5.1E1,1.1E1,2.6E1,5.3E1,1E0,1.6E1,5.2E1,5E0,1.5E1,7E0,2E1,3.1E1,3E0,8E0,8E0,1.8E1,4.5E1,8E0,3E0,1.3E1,4.7E1,5E0,1E0,1.4E1,2E0,5E0,1.9E1,1E0,2.7E1,4E0,1E0,2E0,1E0,7E0,2E0,1.6E1,3.5E1,1E1,3E0,5E0,1E0,2E0,2E0,3E0,1E0,1.8E1,2.1E1,6E0,1E0,3E0,1E0,1E0],"tree_param":{"num_deleted":"0","num_feature":"5","num_nodes":"65","size_leaf_vector":"1"}},{"base_weights":[4.160734E-2,1.3107722E2,-1.1161579E2,2.918994E2,8.827689E1,-1.5747565E2,-5.160937E1,2.092709E0,4.1554217E0,7.301119E1,1.5122018E2,-1.805432E2,-9.2458565E1,-7.167094E1,3.962486E1,3.556329E1,9.038308E1,1.9345703E-2,1.598879E2,-1.8821544E2,-8.2681125E-1,-1.3160632E2,-2.6057434E0,-1.2737108E2,-3.2878002E1,2.4067993E0,5.176345E-1,-3.5540228E0,5.2220795E1,5.9596348E1,1.1130239E2,7.790283E1,1.7189163E0,-1.9461781E0,-1.0562719E0,-1.0440735E-1,-1.3898797E0,9.4334877E-1,-5.0641766E1,-1.3398259E2,2.4295654E-2,-3.8641197E1,5.971484E0,-8.955749E-2,9.179565E0,7.717645E-1,-2.3292388E-1,-1.2229899E-1,6.0522634E-1,7.2450954E-1,-2.2789428E-1,1.1564085E0,-9.425964E-2,1.2329834E-1,9.565055E-1,-6.0465495E-4,-7.59173E-1,-2.2321044E-1,-1.3868471E0,-4.548369E-1,-5.9714355E-2,2.6332924E-1,-1.6380453E-1,1.2329834E-1,1.4395141E-2],"categories":[],"categories_nodes":[],"categories_segments":[],"categories_sizes":[],"default_left":[0,0,0,0,0,0,0,0,0,0,0,0,0,0,0,0,0,0,0,0,0,0,0,0,0,0,0,0,0,0,0,0,0,0,0,0,0,0,0,0,0,0,0,0,0,0,0,0,0,0,0,0,0,0,0,0,0,0,0,0,0,0,0,0,0],"id":2,"left_children":[1,3,5,7,9,11,13,-1,-1,15,17,19,21,23,25,27,29,-1,31,33,-1,35,37,39,41,43,-1,45,47,49,51,53,-1,-1,-1,-1,-1,-1,55,57,-1,59,61,-1,63,-1,-1,-1,-1,-1,-1,-1,-1,-1,-1,-1,-1,-1,-1,-1,-1,-1,-1,-1,-1],"loss_changes":[3.8479775E6,8.071044E5,3.8264062E5,1.6844975E5,8.2164E4,1.03289875E5,1.1814897E5,0E0,0E0,4.882897E4,2.2982031E4,2.7985875E4,8.056039E4,1.0817244E5,5.296715E3,1.7778707E4,2.8144812E4,0E0,3.3393438E3,7.46725E3,0E0,1.28593125E4,4.2030418E4,1.834725E4,7.395453E3,3.9003342E2,0E0,1.6139014E4,1.09063125E4,2.7067992E4,1.7327125E4,3.4757305E3,0E0,0E0,0E0,0E0,0E0,0E0,7.6662256E3,7.405375E3,0E0,5.9875938E3,2.7069336E3,0E0,5.5400757E1,0E0,0E0,0E0,0E0,0E0,0E0,0E0,0E0,0E0,0E0,0E0,0E0,0E0,0E0,0E0,0E0,0E0,0E0,0E0,0E0],"parents":[2147483647,0,0,1,1,2,2,3,3,4,4,5,5,6,6,9,9,10,10,11,11,12,12,13,13,14,14,15,15,16,16,18,18,19,19,21,21,22,22,23,23,24,24,25,25,27,27,28,28,29,29,30,30,31,31,38,38,39,39,41,41,42,42,44,44],"right_children":[2,4,6,8,10,12,14,-1,-1,16,18,20,22,24,26,28,30,-1,32,34,-1,36,38,40,42,44,-1,46,48,50,52,54,-1,-1,-1,-1,-1,-1,56,58,-1,60,62,-1,64,-1,-1,-1,-1,-1,-1,-1,-1,-1,-1,-1,-1,-1,-1,-1,-1,-1,-1,-1,-1],"split_conditions":[2.014E3,2.006E3,1.084E3,1.541E3,1.361E3,2.021E3,1.2E1,2.092709E0,4.1554217E0,5E0,1.104E3,1.12E3,5E0,2.021E3,1.003E3,1.174E3,1.256E3,1.9345703E-2,1.3033334E3,1.068E3,-8.2681125E-1,9.37E2,9.96E2,1.243E3,1.19E3,2.017E3,5.176345E-1,1.174E3,1.1953334E3,1.2486666E3,1.357E3,2E0,1.7189163E0,-1.9461781E0,-1.0562719E0,-1.0440735E-1,-1.3898797E0,9.4334877E-1,8E0,1.086E3,2.4295654E-2,2.025E3,1.216E3,-8.955749E-2,2.019E3,7.717645E-1,-2.3292388E-1,-1.2229899E-1,6.0522634E-1,7.2450954E-1,-2.2789428E-1,1.1564085E0,-9.425964E-2,1.2329834E-1,9.565055E-1,-6.0465495E-4,-7.59173E-1,-2.2321044E-1,-1.3868471E0,-4.548369E-1,-5.9714355E-2,2.6332924E-1,-1.6380453E-1,1.2329834E-1,1.4395141E-2],"split_indices":[1,1,3,2,2,1,0,0,0,0,3,2,0,1,2,3,4,0,4,3,0,2,3,2,4,1,0,2,4,4,2,0,0,0,0,0,0,0,0,3,0,1,2,0,1,0,0,0,0,0,0,0,0,0,0,0,0,0,0,0,0,0,0,0,0],"split_type":[0,0,0,0,0,0,0,0,0,0,0,0,0,0,0,0,0,0,0,0,0,0,0,0,0,0,0,0,0,0,0,0,0,0,0,0,0,0,0,0,0,0,0,0,0,0,0,0,0,0,0,0,0,0,0,0,0,0,0,0,0,0,0,0,0],"sum_hessian":[2.61E2,1.2E2,1.41E2,2.4E1,9.6E1,7.9E1,6.2E1,1.6E1,8E0,7.9E1,1.7E1,5.7E1,2.2E1,5.1E1,1.1E1,2.6E1,5.3E1,1E0,1.6E1,5.2E1,5E0,1.5E1,7E0,2E1,3.1E1,3E0,8E0,8E0,1.8E1,2.3E1,3E1,3E0,1.3E1,4.7E1,5E0,1E0,1.4E1,2E0,5E0,1.9E1,1E0,2.7E1,4E0,1E0,2E0,1E0,7E0,2E0,1.6E1,2E1,3E0,2.9E1,1E0,1E0,2E0,2E0,3E0,1E0,1.8E1,2.2E1,5E0,2E0,2E0,1E0,1E0],"tree_param":{"num_deleted":"0","num_feature":"5","num_nodes":"65","size_leaf_vector":"1"}},{"base_weights":[6.0560387E-2,1.2986273E2,-1.10545944E2,2.8923038E2,8.74498E1,-1.5596515E2,-5.111605E1,2.0730135E0,4.118485E0,7.2313354E1,1.4986456E2,-1.788038E2,-9.1590965E1,-7.099271E1,3.92758E1,3.5245502E1,8.950815E1,1.9249268E-2,1.5845367E2,-1.8638995E2,-8.199215E-1,-1.3038364E2,-2.5567474E0,-1.2617289E2,-3.2562195E1,2.3947754E0,5.1303387E-1,-3.4586182E0,5.1724007E1,9.91682E1,3.0189182E1,7.739374E1,1.7029552E0,-1.9271219E0,-1.0474697E0,-1.03885494E-1,-1.3769073E0,9.370597E-1,-5.0261982E1,-1.3272327E2,2.4174193E-2,-2.4853678E1,-6.921745E1,-8.9109495E-2,9.133667E0,7.679059E-1,-2.3088592E-1,-1.21483564E-1,5.995301E-1,8.3403623E-1,1.4174606E0,6.4622986E-1,2.2017822E-2,1.2268188E-1,9.5012856E-1,-6.0058595E-4,-7.534793E-1,-2.2209412E-1,-1.3737087E0,-3.4794405E-1,9.939139E-2,-3.0708617E-2,-8.498639E-1,1.2268188E-1,1.432312E-2],"categories":[],"categories_nodes":[],"categories_segments":[],"categories_sizes":[],"default_left":[0,0,0,0,0,0,0,0,0,0,0,0,0,0,0,0,0,0,0,0,0,0,0,0,0,0,0,0,0,0,0,0,0,0,0,0,0,0,0,0,0,0,0,0,0,0,0,0,0,0,0,0,0,0,0,0,0,0,0,0,0,0,0,0,0],"id":3,"left_children":[1,3,5,7,9,11,13,-1,-1,15,17,19,21,23,25,27,29,-1,31,33,-1,35,37,39,41,43,-1,45,47,49,51,53,-1,-1,-1,-1,-1,-1,55,57,-1,59,61,-1,63,-1,-1,-1,-1,-1,-1,-1,-1,-1,-1,-1,-1,-1,-1,-1,-1,-1,-1,-1,-1],"loss_changes":[3.7758802E6,7.9257625E5,3.753225E5,1.65773E5,8.080231E4,1.01240625E5,1.1597961E5,0E0,0E0,4.7835156E4,2.2567031E4,2.731425E4,7.9105766E4,1.0616291E5,5.200215E3,1.7399117E4,2.79495E4,0E0,3.1385E3,7.17075E3,0E0,1.2598656E4,4.1447734E4,1.8009469E4,7.321539E3,3.8614188E2,0E0,1.5950596E4,1.071484E4,1.9054094E4,8.531129E3,3.4241855E3,0E0,0E0,0E0,0E0,0E0,0E0,7.5516523E3,7.2215938E3,0E0,1.0030074E4,4.954326E3,0E0,5.4848312E1,0E0,0E0,0E0,0E0,0E0,0E0,0E0,0E0,0E0,0E0,0E0,0E0,0E0,0E0,0E0,0E0,0E0,0E0,0E0,0E0],"parents":[2147483647,0,0,1,1,2,2,3,3,4,4,5,5,6,6,9,9,10,10,11,11,12,12,13,13,14,14,15,15,16,16,18,18,19,19,21,21,22,22,23,23,24,24,25,25,27,27,28,28,29,29,30,30,31,31,38,38,39,39,41,41,42,42,44,44],"right_children":[2,4,6,8,10,12,14,-1,-1,16,18,20,22,24,26,28,30,-1,32,34,-1,36,38,40,42,44,-1,46,48,50,52,54,-1,-1,-1,-1,-1,-1,56,58,-1,60,62,-1,64,-1,-1,-1,-1,-1,-1,-1,-1,-1,-1,-1,-1,-1,-1,-1,-1,-1,-1,-1,-1],"split_conditions":[2.014E3,2.006E3,1.084E3,1.541E3,1.361E3,2.021E3,1.2E1,2.0730135E0,4.118485E0,5E0,1.104E3,1.12E3,5E0,2.021E3,1.003E3,1.174E3,2.013E3,1.9249268E-2,1.3033334E3,1.068E3,-8.199215E-1,9.37E2,9.96E2,1.243E3,1.229E3,2.017E3,5.1303387E-1,1.174E3,1.1953334E3,2.011E3,8E0,2E0,1.7029552E0,-1.9271219E0,-1.0474697E0,-1.03885494E-1,-1.3769073E0,9.370597E-1,8E0,1.086E3,2.4174193E-2,1.166E3,6E0,-8.9109495E-2,2.019E3,7.679059E-1,-2.3088592E-1,-1.21483564E-1,5.995301E-1,8.3403623E-1,1.4174606E0,6.4622986E-1,2.2017822E-2,1.2268188E-1,9.5012856E-1,-6.0058595E-4,-7.534793E-1,-2.2209412E-1,-1.3737087E0,-3.4794405E-1,9.939139E-2,-3.0708617E-2,-8.498639E-1,1.2268188E-1,1.432312E-2],"split_indices":[1,1,3,2,2,1,0,0,0,0,3,2,0,1,2,3,1,0,4,3,0,2,3,2,3,1,0,2,4,1,0,0,0,0,0,0,0,0,0,3,0,3,0,0,1,0,0,0,0,0,0,0,0,0,0,0,0,0,0,0,0,0,0,0,0],"split_type":[0,0,0,0,0,0,0,0,0,0,0,0,0,0,0,0,0,0,0,0,0,0,0,0,0,0,0,0,0,0,0,0,0,0,0,0,0,0,0,0,0,0,0,0,0,0,0,0,0,0,0,0,0,0,0,0,0,0,0,0,0,0,0,0,0],"sum_hessian":[2.61E2,1.2E2,1.41E2,2.4E1,9.6E1,7.9E1,6.2E1,1.6E1,8E0,7.9E1,1.7E1,5.7E1,2.2E1,5.1E1,1.1E1,2.6E1,5.3E1,1E0,1.6E1,5.2E1,5E0,1.5E1,7E0,2E1,3.1E1,3E0,8E0,8E0,1.8E1,4.5E1,8E0,3E0,1.3E1,4.7E1,5E0,1E0,1.4E1,2E0,5E0,1.9E1,1E0,2.7E1,4E0,1E0,2E0,1E0,7E0,2E0,1.6E1,3.5E1,1E1,3E0,5E0,1E0,2E0,2E0,3E0,1E0,1.8E1,2.1E1,6E0,1E0,3E0,1E0,1E0],"tree_param":{"num_deleted":"0","num_feature":"5","num_nodes":"65","size_leaf_vector":"1"}},{"base_weights":[8.167203E-2,1.286709E2,-1.0949142E2,2.8658575E2,8.66447E1,-1.5446915E2,-5.0638885E1,2.0535028E0,4.0818763E0,7.1639435E1,1.4852118E2,-1.7708118E2,-9.073144E1,-7.0334755E1,3.8929768E1,3.493065E1,8.866717E1,1.9152831E-2,1.5703238E2,-1.8458217E2,-8.130886E-1,-1.291723E2,-2.5082703E0,-1.24986046E2,-3.227188E1,2.3828125E0,5.0847334E-1,-3.364407E0,5.123196E1,5.834853E1,1.0927943E2,1.1006128E2,1.8655545E0,-1.9082522E0,-1.0387406E0,-1.03366084E-1,-1.3640558E0,9.3081295E-1,-4.988501E1,-1.3147588E2,2.4053345E-2,-3.799108E1,6.2100096E0,-8.8663936E-2,9.088013E0,4.5625243E-1,-3.546344E-1,-1.2067383E-1,5.9388787E-1,7.1111465E-1,-2.3243988E-1,1.1357512E0,-9.795837E-2,1.2076722E0,1.2206848E-1,-5.965169E-4,-7.4782777E-1,-2.2098388E-1,-1.3606951E0,-4.4761404E-1,-5.7063192E-2,2.6389322E-1,-1.6039306E-1,1.2206848E-1,1.4251709E-2],"categories":[],"categories_nodes":[],"categories_segments":[],"categories_sizes":[],"default_left":[0,0,0,0,0,0,0,0,0,0,0,0,0,0,0,0,0,0,0,0,0,0,0,0,0,0,0,0,0,0,0,0,0,0,0,0,0,0,0,0,0,0,0,0,0,0,0,0,0,0,0,0,0,0,0,0,0,0,0,0,0,0,0,0,0],"id":4,"left_children":[1,3,5,7,9,11,13,-1,-1,15,17,19,21,23,25,27,29,-1,31,33,-1,35,37,39,41,43,-1,45,47,49,51,53,-1,-1,-1,-1,-1,-1,55,57,-1,59,61,-1,63,-1,-1,-1,-1,-1,-1,-1,-1,-1,-1,-1,-1,-1,-1,-1,-1,-1,-1,-1,-1],"loss_changes":[3.7056472E6,7.781926E5,3.6805938E5,1.6313812E5,7.942194E4,9.9232375E4,1.1387845E5,0E0,0E0,4.6908188E4,2.2159531E4,2.6658125E4,7.767767E4,1.0413611E5,5.1054473E3,1.7027375E4,2.7370219E4,0E0,3.0419062E3,6.883E3,0E0,1.2343156E4,4.0873137E4,1.7677938E4,7.278664E3,3.8229065E2,0E0,1.5770712E4,1.0526777E4,2.6645547E4,1.6969438E4,7.9544375E3,0E0,0E0,0E0,0E0,0E0,0E0,7.4387783E3,7.0419062E3,0E0,5.8647656E3,2.6681462E3,0E0,5.4300583E1,0E0,0E0,0E0,0E0,0E0,0E0,0E0,0E0,0E0,0E0,0E0,0E0,0E0,0E0,0E0,0E0,0E0,0E0,0E0,0E0],"parents":[2147483647,0,0,1,1,2,2,3,3,4,4,5,5,6,6,9,9,10,10,11,11,12,12,13,13,14,14,15,15,16,16,18,18,19,19,21,21,22,22,23,23,24,24,25,25,27,27,28,28,29,29,30,30,31,31,38,38,39,39,41,41,42,42,44,44],"right_children":[2,4,6,8,10,12,14,-1,-1,16,18,20,22,24,26,28,30,-1,32,34,-1,36,38,40,42,44,-1,46,48,50,52,54,-1,-1,-1,-1,-1,-1,56,58,-1,60,62,-1,64,-1,-1,-1,-1,-1,-1,-1,-1,-1,-1,-1,-1,-1,-1,-1,-1,-1,-1,-1,-1],"split_conditions":[2.014E3,2.006E3,1.084E3,1.541E3,1.361E3,2.021E3,1.2E1,2.0535028E0,4.0818763E0,5E0,1.104E3,1.12E3,5E0,2.021E3,1.003E3,1.174E3,1.256E3,1.9152831E-2,1.301E3,1.068E3,-8.130886E-1,9.37E2,9.96E2,1.243E3,1.19E3,2.017E3,5.0847334E-1,1.226E3,1.1953334E3,1.2486666E3,1.357E3,1.3E3,1.8655545E0,-1.9082522E0,-1.0387406E0,-1.03366084E-1,-1.3640558E0,9.3081295E-1,8E0,1.086E3,2.4053345E-2,2.025E3,1.216E3,-8.8663936E-2,2.019E3,4.5625243E-1,-3.546344E-1,-1.2067383E-1,5.9388787E-1,7.1111465E-1,-2.3243988E-1,1.1357512E0,-9.795837E-2,1.2076722E0,1.2206848E-1,-5.965169E-4,-7.4782777E-1,-2.2098388E-1,-1.3606951E0,-4.4761404E-1,-5.7063192E-2,2.6389322E-1,-1.6039306E-1,1.2206848E-1,1.4251709E-2],"split_indices":[1,1,3,2,2,1,0,0,0,0,3,2,0,1,2,3,4,0,3,3,0,2,3,2,4,1,0,4,4,4,2,3,0,0,0,0,0,0,0,3,0,1,2,0,1,0,0,0,0,0,0,0,0,0,0,0,0,0,0,0,0,0,0,0,0],"split_type":[0,0,0,0,0,0,0,0,0,0,0,0,0,0,0,0,0,0,0,0,0,0,0,0,0,0,0,0,0,0,0,0,0,0,0,0,0,0,0,0,0,0,0,0,0,0,0,0,0,0,0,0,0,0,0,0,0,0,0,0,0,0,0,0,0],"sum_hessian":[2.61E2,1.2E2,1.41E2,2.4E1,9.6E1,7.9E1,6.2E1,1.6E1,8E0,7.9E1,1.7E1,5.7E1,2.2E1,5.1E1,1.1E1,2.6E1,5.3E1,1E0,1.6E1,5.2E1,5E0,1.5E1,7E0,2E1,3.1E1,3E0,8E0,8E0,1.8E1,2.3E1,3E1,8E0,8E0,4.7E1,5E0,1E0,1.4E1,2E0,5E0,1.9E1,1E0,2.7E1,4E0,1E0,2E0,3E0,5E0,2E0,1.6E1,2E1,3E0,2.9E1,1E0,7E0,1E0,2E0,3E0,1E0,1.8E1,2.2E1,5E0,2E0,2E0,1E0,1E0],"tree_param":{"num_deleted":"0","num_feature":"5","num_nodes":"65","size_leaf_vector":"1"}},{"base_weights":[9.991129E-2,1.2747876E2,-1.08441925E2,2.839653E2,8.583296E1,-1.5298755E2,-5.015475E1,2.034176E0,4.0455923E0,7.0949196E1,1.4721454E2,-1.7537523E2,-8.988002E1,-6.966907E1,3.858684E1,3.460264E1,8.78086E1,1.9057006E-2,1.5565001E2,-1.8279199E2,-8.063126E-1,-1.27972336E2,-2.4603882E0,-1.2381034E2,-3.1961697E1,2.3708801E0,5.03954E-1,-3.3194988E0,5.0744564E1,9.735974E1,2.9235134E1,1.0910844E2,1.8489714E0,-1.8895677E0,-1.0300848E0,-1.0284912E-1,-1.351325E0,9.2460775E-1,-4.9510906E1,-1.3024019E2,2.3933105E-2,-2.4323496E1,-6.8343285E1,-8.822082E-2,9.042562E0,7.617847E-1,-2.2779052E-1,-1.1986897E-1,5.882985E-1,8.179025E-1,1.3946356E0,6.3498837E-1,1.5201416E-2,1.1971054E0,1.2145813E-1,-5.9244793E-4,-7.422192E-1,-2.1987915E-1,-1.3478041E0,-3.4196854E-1,1.01818494E-1,-2.831665E-2,-8.401327E-1,1.2145813E-1,1.4180298E-2],"categories":[],"categories_nodes":[],"categories_segments":[],"categories_sizes":[],"default_left":[0,0,0,0,0,0,0,0,0,0,0,0,0,0,0,0,0,0,0,0,0,0,0,0,0,0,0,0,0,0,0,0,0,0,0,0,0,0,0,0,0,0,0,0,0,0,0,0,0,0,0,0,0,0,0,0,0,0,0,0,0,0,0,0,0],"id":5,"left_children":[1,3,5,7,9,11,13,-1,-1,15,17,19,21,23,25,27,29,-1,31,33,-1,35,37,39,41,43,-1,45,47,49,51,53,-1,-1,-1,-1,-1,-1,55,57,-1,59,61,-1,63,-1,-1,-1,-1,-1,-1,-1,-1,-1,-1,-1,-1,-1,-1,-1,-1,-1,-1,-1,-1],"loss_changes":[3.636219E6,7.6418425E5,3.6102125E5,1.605445E5,7.8173375E4,9.7263875E4,1.1178739E5,0E0,0E0,4.5984125E4,2.1766875E4,2.6017375E4,7.6275516E4,1.0220211E5,5.012416E3,1.6696129E4,2.7363625E4,0E0,2.9666875E3,6.603875E3,0E0,1.2092766E4,4.030653E4,1.7352594E4,7.230129E3,3.7847775E2,0E0,1.5658228E4,1.034202E4,1.8747812E4,8.450039E3,7.798086E3,0E0,0E0,0E0,0E0,0E0,0E0,7.3276084E3,6.86625E3,0E0,9.88733E3,4.8949355E3,0E0,5.375937E1,0E0,0E0,0E0,0E0,0E0,0E0,0E0,0E0,0E0,0E0,0E0,0E0,0E0,0E0,0E0,0E0,0E0,0E0,0E0,0E0],"parents":[2147483647,0,0,1,1,2,2,3,3,4,4,5,5,6,6,9,9,10,10,11,11,12,12,13,13,14,14,15,15,16,16,18,18,19,19,21,21,22,22,23,23,24,24,25,25,27,27,28,28,29,29,30,30,31,31,38,38,39,39,41,41,42,42,44,44],"right_children":[2,4,6,8,10,12,14,-1,-1,16,18,20,22,24,26,28,30,-1,32,34,-1,36,38,40,42,44,-1,46,48,50,52,54,-1,-1,-1,-1,-1,-1,56,58,-1,60,62,-1,64,-1,-1,-1,-1,-1,-1,-1,-1,-1,-1,-1,-1,-1,-1,-1,-1,-1,-1,-1,-1],"split_conditions":[2.014E3,2.006E3,1.084E3,1.541E3,1.361E3,2.021E3,1.2E1,2.034176E0,4.0455923E0,5E0,1.104E3,1.12E3,5E0,2.021E3,1.003E3,1.174E3,2.013E3,1.9057006E-2,1.301E3,1.068E3,-8.063126E-1,9.37E2,9.96E2,1.243E3,1.229E3,2.017E3,5.03954E-1,1.174E3,1.1953334E3,2.011E3,8E0,1.3E3,1.8489714E0,-1.8895677E0,-1.0300848E0,-1.0284912E-1,-1.351325E0,9.2460775E-1,8E0,1.086E3,2.3933105E-2,1.166E3,6E0,-8.822082E-2,2.019E3,7.617847E-1,-2.2779052E-1,-1.1986897E-1,5.882985E-1,8.179025E-1,1.3946356E0,6.3498837E-1,1.5201416E-2,1.1971054E0,1.2145813E-1,-5.9244793E-4,-7.422192E-1,-2.1987915E-1,-1.3478041E0,-3.4196854E-1,1.01818494E-1,-2.831665E-2,-8.401327E-1,1.2145813E-1,1.4180298E-2],"split_indices":[1,1,3,2,2,1,0,0,0,0,3,2,0,1,2,3,1,0,3,3,0,2,3,2,3,1,0,2,4,1,0,3,0,0,0,0,0,0,0,3,0,3,0,0,1,0,0,0,0,0,0,0,0,0,0,0,0,0,0,0,0,0,0,0,0],"split_type":[0,0,0,0,0,0,0,0,0,0,0,0,0,0,0,0,0,0,0,0,0,0,0,0,0,0,0,0,0,0,0,0,0,0,0,0,0,0,0,0,0,0,0,0,0,0,0,0,0,0,0,0,0,0,0,0,0,0,0,0,0,0,0,0,0],"sum_hessian":[2.61E2,1.2E2,1.41E2,2.4E1,9.6E1,7.9E1,6.2E1,1.6E1,8E0,7.9E1,1.7E1,5.7E1,2.2E1,5.1E1,1.1E1,2.6E1,5.3E1,1E0,1.6E1,5.2E1,5E0,1.5E1,7E0,2E1,3.1E1,3E0,8E0,8E0,1.8E1,4.5E1,8E0,8E0,8E0,4.7E1,5E0,1E0,1.4E1,2E0,5E0,1.9E1,1E0,2.7E1,4E0,1E0,2E0,1E0,7E0,2E0,1.6E1,3.5E1,1E1,3E0,5E0,7E0,1E0,2E0,3E0,1E0,1.8E1,2.1E1,6E0,1E0,3E0,1E0,1E0],"tree_param":{"num_deleted":"0","num_feature":"5","num_nodes":"65","size_leaf_vector":"1"}},{"base_weights":[1.21926345E-1,1.2631251E2,-1.07407524E2,2.8136887E2,8.504734E1,-1.5152019E2,-4.968657E1,2.0150309E0,4.009632E0,7.028803E1,1.4591939E2,-1.7368576E2,-8.9036545E1,-6.9023415E1,3.824696E1,3.429376E1,8.6983536E1,1.8961791E-2,1.542798E2,-1.8101921E2,-7.9959375E-1,-1.267835E2,-2.4130554E0,-1.2264577E2,-3.1676758E1,2.3590393E0,4.9947482E-1,-3.226983E0,5.026181E1,9.6434265E1,2.9014988E1,1.0816383E2,1.8325359E0,-1.8710661E0,-1.0215012E0,-1.0233459E-1,-1.3387127E0,9.18444E-1,-4.9139606E1,-1.2901619E2,2.3813477E-2,-3.735239E1,6.4421387E0,-8.777954E-2,8.997355E0,7.5797546E-1,-2.2579741E-1,-1.1906982E-1,5.8276194E-1,8.09951E-1,1.3819569E0,6.3022584E-1,1.5074259E-2,1.1866304E0,1.20850824E-1,-5.8837887E-4,-7.366528E-1,-2.187799E-1,-1.3350357E0,-4.4051298E-1,-5.4478355E-2,2.6441324E-1,-1.5704426E-1,1.20850824E-1,1.4109497E-2],"categories":[],"categories_nodes":[],"categories_segments":[],"categories_sizes":[],"default_left":[0,0,0,0,0,0,0,0,0,0,0,0,0,0,0,0,0,0,0,0,0,0,0,0,0,0,0,0,0,0,0,0,0,0,0,0,0,0,0,0,0,0,0,0,0,0,0,0,0,0,0,0,0,0,0,0,0,0,0,0,0,0,0,0,0],"id":6,"left_children":[1,3,5,7,9,11,13,-1,-1,15,17,19,21,23,25,27,29,-1,31,33,-1,35,37,39,41,43,-1,45,47,49,51,53,-1,-1,-1,-1,-1,-1,55,57,-1,59,61,-1,63,-1,-1,-1,-1,-1,-1,-1,-1,-1,-1,-1,-1,-1,-1,-1,-1,-1,-1,-1,-1],"loss_changes":[3.5686982E6,7.5028E5,3.540355E5,1.57992E5,7.689125E4,9.5334375E4,1.0976241E5,0E0,0E0,4.5092438E4,2.1381156E4,2.53915E4,7.489884E4,1.00251E5,4.9210586E3,1.6338787E4,2.6785562E4,0E0,2.8931875E3,6.33275E3,0E0,1.1847328E4,3.9747805E4,1.7033219E4,7.163789E3,3.747019E2,0E0,1.5475573E4,1.0160543E4,1.8465875E4,8.324191E3,7.644711E3,0E0,0E0,0E0,0E0,0E0,0E0,7.2180986E3,6.6945938E3,0E0,5.74434E3,2.6298123E3,0E0,5.3222824E1,0E0,0E0,0E0,0E0,0E0,0E0,0E0,0E0,0E0,0E0,0E0,0E0,0E0,0E0,0E0,0E0,0E0,0E0,0E0,0E0],"parents":[2147483647,0,0,1,1,2,2,3,3,4,4,5,5,6,6,9,9,10,10,11,11,12,12,13,13,14,14,15,15,16,16,18,18,19,19,21,21,22,22,23,23,24,24,25,25,27,27,28,28,29,29,30,30,31,31,38,38,39,39,41,41,42,42,44,44],"right_children":[2,4,6,8,10,12,14,-1,-1,16,18,20,22,24,26,28,30,-1,32,34,-1,36,38,40,42,44,-1,46,48,50,52,54,-1,-1,-1,-1,-1,-1,56,58,-1,60,62,-1,64,-1,-1,-1,-1,-1,-1,-1,-1,-1,-1,-1,-1,-1,-1,-1,-1,-1,-1,-1,-1],"split_conditions":[2.014E3,2.006E3,1.084E3,1.541E3,1.361E3,2.021E3,1.2E1,2.0150309E0,4.009632E0,5E0,1.104E3,1.12E3,5E0,2.021E3,1.003E3,1.174E3,2.013E3,1.8961791E-2,1.301E3,1.068E3,-7.9959375E-1,9.37E2,9.96E2,1.243E3,1.19E3,2.017E3,4.9947482E-1,1.174E3,1.1953334E3,2.011E3,8E0,1.3E3,1.8325359E0,-1.8710661E0,-1.0215012E0,-1.0233459E-1,-1.3387127E0,9.18444E-1,8E0,1.086E3,2.3813477E-2,2.025E3,1.216E3,-8.777954E-2,2.019E3,7.5797546E-1,-2.2579741E-1,-1.1906982E-1,5.8276194E-1,8.09951E-1,1.3819569E0,6.3022584E-1,1.5074259E-2,1.1866304E0,1.20850824E-1,-5.8837887E-4,-7.366528E-1,-2.187799E-1,-1.3350357E0,-4.4051298E-1,-5.4478355E-2,2.6441324E-1,-1.5704426E-1,1.20850824E-1,1.4109497E-2],"split_indices":[1,1,3,2,2,1,0,0,0,0,3,2,0,1,2,3,1,0,3,3,0,2,3,2,4,1,0,2,4,1,0,3,0,0,0,0,0,0,0,3,0,1,2,0,1,0,0,0,0,0,0,0,0,0,0,0,0,0,0,0,0,0,0,0,0],"split_type":[0,0,0,0,0,0,0,0,0,0,0,0,0,0,0,0,0,0,0,0,0,0,0,0,0,0,0,0,0,0,0,0,0,0,0,0,0,0,0,0,0,0,0,0,0,0,0,0,0,0,0,0,0,0,0,0,0,0,0,0,0,0,0,0,0],"sum_hessian":[2.61E2,1.2E2,1.41E2,2.4E1,9.6E1,7.9E1,6.2E1,1.6E1,8E0,7.9E1,1.7E1,5.7E1,2.2E1,5.1E1,1.1E1,2.6E1,5.3E1,1E0,1.6E1,5.2E1,5E0,1.5E1,7E0,2E1,3.1E1,3E0,8E0,8E0,1.8E1,4.5E1,8E0,8E0,8E0,4.7E1,5E0,1E0,1.4E1,2E0,5E0,1.9E1,1E0,2.7E1,4E0,1E0,2E0,1E0,7E0,2E0,1.6E1,3.5E1,1E1,3E0,5E0,7E0,1E0,2E0,3E0,1E0,1.8E1,2.2E1,5E0,2E0,2E0,1E0,1E0],"tree_param":{"num_deleted":"0","num_feature":"5","num_nodes":"65","size_leaf_vector":"1"}},{"base_weights":[1.4627099E-1,1.2515697E2,-1.0637796E2,2.7879617E2,8.426896E1,-1.5006686E2,-4.9211445E1,1.9960661E0,3.9739907E0,6.963308E1,1.446357E2,-1.7201254E2,-8.820093E1,-6.8370026E1,3.7910015E1,3.3987713E1,8.616626E1,1.8867187E-2,1.5292172E2,-1.7926357E2,-7.9293066E-1,-1.25605705E2,-2.3662567E0,-1.2149213E2,-3.1372078E1,2.347229E0,4.950347E-1,-3.1355524E0,4.978359E1,5.647365E1,1.0637453E2,1.07227455E2,1.8162467E0,-1.852745E0,-1.0129889E0,-1.0182312E-1,-1.3262178E0,9.123209E-1,-4.8771057E1,-1.2780368E2,2.3694457E-2,-2.3803602E1,-6.7481125E1,-8.73407E-2,8.952352E0,4.5129883E-1,-3.4789917E-1,-1.18276365E-1,5.772771E-1,6.916808E-1,-2.4290527E-1,1.106244E0,-1.05607904E-1,1.1762472E0,1.2024658E-1,-5.8430986E-4,-7.311276E-1,-2.1768615E-1,-1.3223875E0,-3.3610007E-1,1.0417044E-1,-2.597229E-2,-8.3052796E-1,1.2024658E-1,1.4038696E-2],"categories":[],"categories_nodes":[],"categories_segments":[],"categories_sizes":[],"default_left":[0,0,0,0,0,0,0,0,0,0,0,0,0,0,0,0,0,0,0,0,0,0,0,0,0,0,0,0,0,0,0,0,0,0,0,0,0,0,0,0,0,0,0,0,0,0,0,0,0,0,0,0,0,0,0,0,0,0,0,0,0,0,0,0,0],"id":7,"left_children":[1,3,5,7,9,11,13,-1,-1,15,17,19,21,23,25,27,29,-1,31,33,-1,35,37,39,41,43,-1,45,47,49,51,53,-1,-1,-1,-1,-1,-1,55,57,-1,59,61,-1,63,-1,-1,-1,-1,-1,-1,-1,-1,-1,-1,-1,-1,-1,-1,-1,-1,-1,-1,-1,-1],"loss_changes":[3.502281E6,7.3662825E5,3.47266E5,1.554795E5,7.563006E4,9.3443625E4,1.0774667E5,0E0,0E0,4.4217938E4,2.100225E4,2.4779625E4,7.35472E4,9.83898E4,4.8313516E3,1.598875E4,2.6394562E4,0E0,2.821375E3,6.06975E3,0E0,1.16066875E4,3.919679E4,1.671975E4,7.139E3,3.7096384E2,0E0,1.532037E4,9.982281E3,2.6286258E4,1.6574031E4,7.49425E3,0E0,0E0,0E0,0E0,0E0,0E0,7.110218E3,6.5268125E3,0E0,9.746401E3,4.836045E3,0E0,5.2692703E1,0E0,0E0,0E0,0E0,0E0,0E0,0E0,0E0,0E0,0E0,0E0,0E0,0E0,0E0,0E0,0E0,0E0,0E0,0E0,0E0],"parents":[2147483647,0,0,1,1,2,2,3,3,4,4,5,5,6,6,9,9,10,10,11,11,12,12,13,13,14,14,15,15,16,16,18,18,19,19,21,21,22,22,23,23,24,24,25,25,27,27,28,28,29,29,30,30,31,31,38,38,39,39,41,41,42,42,44,44],"right_children":[2,4,6,8,10,12,14,-1,-1,16,18,20,22,24,26,28,30,-1,32,34,-1,36,38,40,42,44,-1,46,48,50,52,54,-1,-1,-1,-1,-1,-1,56,58,-1,60,62,-1,64,-1,-1,-1,-1,-1,-1,-1,-1,-1,-1,-1,-1,-1,-1,-1,-1,-1,-1,-1,-1],"split_conditions":[2.014E3,2.006E3,1.084E3,1.541E3,1.361E3,2.021E3,1.2E1,1.9960661E0,3.9739907E0,5E0,1.104E3,1.12E3,5E0,2.021E3,1.003E3,1.174E3,1.256E3,1.8867187E-2,1.301E3,1.068E3,-7.9293066E-1,9.37E2,9.96E2,1.243E3,1.229E3,2.017E3,4.950347E-1,1.226E3,1.1953334E3,1.2486666E3,1.357E3,1.3E3,1.8162467E0,-1.852745E0,-1.0129889E0,-1.0182312E-1,-1.3262178E0,9.123209E-1,8E0,1.086E3,2.3694457E-2,1.166E3,6E0,-8.73407E-2,2.019E3,4.5129883E-1,-3.4789917E-1,-1.18276365E-1,5.772771E-1,6.916808E-1,-2.4290527E-1,1.106244E0,-1.05607904E-1,1.1762472E0,1.2024658E-1,-5.8430986E-4,-7.311276E-1,-2.1768615E-1,-1.3223875E0,-3.3610007E-1,1.0417044E-1,-2.597229E-2,-8.3052796E-1,1.2024658E-1,1.4038696E-2],"split_indices":[1,1,3,2,2,1,0,0,0,0,3,2,0,1,2,3,4,0,3,3,0,2,3,2,3,1,0,4,4,4,2,3,0,0,0,0,0,0,0,3,0,3,0,0,1,0,0,0,0,0,0,0,0,0,0,0,0,0,0,0,0,0,0,0,0],"split_type":[0,0,0,0,0,0,0,0,0,0,0,0,0,0,0,0,0,0,0,0,0,0,0,0,0,0,0,0,0,0,0,0,0,0,0,0,0,0,0,0,0,0,0,0,0,0,0,0,0,0,0,0,0,0,0,0,0,0,0,0,0,0,0,0,0],"sum_hessian":[2.61E2,1.2E2,1.41E2,2.4E1,9.6E1,7.9E1,6.2E1,1.6E1,8E0,7.9E1,1.7E1,5.7E1,2.2E1,5.1E1,1.1E1,2.6E1,5.3E1,1E0,1.6E1,5.2E1,5E0,1.5E1,7E0,2E1,3.1E1,3E0,8E0,8E0,1.8E1,2.3E1,3E1,8E0,8E0,4.7E1,5E0,1E0,1.4E1,2E0,5E0,1.9E1,1E0,2.7E1,4E0,1E0,2E0,3E0,5E0,2E0,1.6E1,2E1,3E0,2.9E1,1E0,7E0,1E0,2E0,3E0,1E0,1.8E1,2.1E1,6E0,1E0,3E0,1E0,1E0],"tree_param":{"num_deleted":"0","num_feature":"5","num_nodes":"65","size_leaf_vector":"1"}},{"base_weights":[1.6063382E-1,1.2399725E2,-1.0536325E2,2.7624698E2,8.347931E1,-1.486275E2,-4.875208E1,1.9772793E0,3.9386663E0,6.896192E1,1.433633E2,-1.7035547E2,-8.737319E1,-6.773643E1,3.75761E1,3.366867E1,8.5331474E1,1.8772583E-2,1.5157558E2,-1.7752498E2,-7.863226E-1,-1.2443894E2,-2.3200378E0,-1.2034942E2,-3.1092384E1,2.3354797E0,4.9063477E-1,-3.0927057E0,4.9309917E1,9.467593E1,2.808964E1,1.06299225E2,1.8001019E0,-1.8346031E0,-1.0045477E0,-1.0131408E-1,-1.3138402E0,9.062386E-1,-4.8405315E1,-1.26602646E2,2.357605E-2,-2.357387E1,-6.6977585E1,-8.6904295E-2,8.907593E0,7.519293E-1,-2.2277527E-1,-1.1748779E-1,5.71844E-1,7.9427975E-1,1.3597142E0,6.192752E-1,8.494466E-3,1.1659548E0,1.1964538E-1,-5.8024086E-4,-7.256445E-1,-2.165979E-1,-1.3098596E0,-3.328922E-1,1.0327794E-1,-2.5842285E-2,-8.242987E-1,1.1964538E-1,1.3968506E-2],"categories":[],"categories_nodes":[],"categories_segments":[],"categories_sizes":[],"default_left":[0,0,0,0,0,0,0,0,0,0,0,0,0,0,0,0,0,0,0,0,0,0,0,0,0,0,0,0,0,0,0,0,0,0,0,0,0,0,0,0,0,0,0,0,0,0,0,0,0,0,0,0,0,0,0,0,0,0,0,0,0,0,0,0,0],"id":8,"left_children":[1,3,5,7,9,11,13,-1,-1,15,17,19,21,23,25,27,29,-1,31,33,-1,35,37,39,41,43,-1,45,47,49,51,53,-1,-1,-1,-1,-1,-1,55,57,-1,59,61,-1,63,-1,-1,-1,-1,-1,-1,-1,-1,-1,-1,-1,-1,-1,-1,-1,-1,-1,-1,-1,-1],"loss_changes":[3.4368078E6,7.233696E5,3.4054638E5,1.5300612E5,7.444125E4,9.159E4,1.0579497E5,0E0,0E0,4.3345812E4,2.0630094E4,2.4182125E4,7.222016E4,9.651159E4,4.7432812E3,1.5677332E4,2.6224844E4,0E0,2.751125E3,5.814875E3,0E0,1.1370906E4,3.8653438E4,1.6412125E4,7.054787E3,3.672649E2,0E0,1.5192177E4,9.807152E3,1.8164969E4,8.243149E3,7.3466406E3,0E0,0E0,0E0,0E0,0E0,0E0,7.003964E3,6.3628125E3,0E0,9.566069E3,4.7621055E3,0E0,5.21671E1,0E0,0E0,0E0,0E0,0E0,0E0,0E0,0E0,0E0,0E0,0E0,0E0,0E0,0E0,0E0,0E0,0E0,0E0,0E0,0E0],"parents":[2147483647,0,0,1,1,2,2,3,3,4,4,5,5,6,6,9,9,10,10,11,11,12,12,13,13,14,14,15,15,16,16,18,18,19,19,21,21,22,22,23,23,24,24,25,25,27,27,28,28,29,29,30,30,31,31,38,38,39,39,41,41,42,42,44,44],"right_children":[2,4,6,8,10,12,14,-1,-1,16,18,20,22,24,26,28,30,-1,32,34,-1,36,38,40,42,44,-1,46,48,50,52,54,-1,-1,-1,-1,-1,-1,56,58,-1,60,62,-1,64,-1,-1,-1,-1,-1,-1,-1,-1,-1,-1,-1,-1,-1,-1,-1,-1,-1,-1,-1,-1],"split_conditions":[2.014E3,2.006E3,1.084E3,1.541E3,1.361E3,2.021E3,1.2E1,1.9772793E0,3.9386663E0,5E0,1.104E3,1.12E3,5E0,2.021E3,1.003E3,1.174E3,2.013E3,1.8772583E-2,1.301E3,1.068E3,-7.863226E-1,9.37E2,9.96E2,1.243E3,1.229E3,2.017E3,4.9063477E-1,1.174E3,1.1953334E3,2.011E3,8E0,1.3E3,1.8001019E0,-1.8346031E0,-1.0045477E0,-1.0131408E-1,-1.3138402E0,9.062386E-1,8E0,1.086E3,2.357605E-2,1.166E3,6E0,-8.6904295E-2,2.019E3,7.519293E-1,-2.2277527E-1,-1.1748779E-1,5.71844E-1,7.9427975E-1,1.3597142E0,6.192752E-1,8.494466E-3,1.1659548E0,1.1964538E-1,-5.8024086E-4,-7.256445E-1,-2.165979E-1,-1.3098596E0,-3.328922E-1,1.0327794E-1,-2.5842285E-2,-8.242987E-1,1.1964538E-1,1.3968506E-2],"split_indices":[1,1,3,2,2,1,0,0,0,0,3,2,0,1,2,3,1,0,3,3,0,2,3,2,3,1,0,2,4,1,0,3,0,0,0,0,0,0,0,3,0,3,0,0,1,0,0,0,0,0,0,0,0,0,0,0,0,0,0,0,0,0,0,0,0],"split_type":[0,0,0,0,0,0,0,0,0,0,0,0,0,0,0,0,0,0,0,0,0,0,0,0,0,0,0,0,0,0,0,0,0,0,0,0,0,0,0,0,0,0,0,0,0,0,0,0,0,0,0,0,0,0,0,0,0,0,0,0,0,0,0,0,0],"sum_hessian":[2.61E2,1.2E2,1.41E2,2.4E1,9.6E1,7.9E1,6.2E1,1.6E1,8E0,7.9E1,1.7E1,5.7E1,2.2E1,5.1E1,1.1E1,2.6E1,5.3E1,1E0,1.6E1,5.2E1,5E0,1.5E1,7E0,2E1,3.1E1,3E0,8E0,8E0,1.8E1,4.5E1,8E0,8E0,8E0,4.7E1,5E0,1E0,1.4E1,2E0,5E0,1.9E1,1E0,2.7E1,4E0,1E0,2E0,1E0,7E0,2E0,1.6E1,3.5E1,1E1,3E0,5E0,7E0,1E0,2E0,3E0,1E0,1.8E1,2.1E1,6E0,1E0,3E0,1E0,1E0],"tree_param":{"num_deleted":"0","num_feature":"5","num_nodes":"65","size_leaf_vector":"1"}},{"base_weights":[1.814538E-1,1.2286292E2,-1.0435825E2,2.7372113E2,8.271531E1,-1.47202E2,-4.8297028E1,1.9586695E0,3.9036555E0,6.8319336E1,1.4210213E2,-1.6871443E2,-8.655316E1,-6.710874E1,3.7245148E1,3.3368374E1,8.452964E1,1.8678589E-2,1.5024133E2,-1.758033E2,-7.797695E-1,-1.23283E2,-2.274353E0,-1.1921753E2,-3.08152E1,2.323822E0,4.8627385E-1,-3.002984E0,4.884068E1,9.377596E1,2.7878471E1,1.0537903E2,1.7841015E0,-1.8166393E0,-9.961767E-1,-1.00807495E-1,-1.3015776E0,9.001969E-1,-4.8042316E1,-1.2541299E2,2.3458252E-2,-3.6455654E1,6.934375E0,-8.6469725E-2,8.863078E0,-4.15438E-1,3.6138427E-1,-1.1670491E-1,5.664614E-1,7.865573E-1,1.3473529E0,6.146307E-1,8.423259E-3,1.1557522E0,1.1904724E-1,-5.7617185E-4,-7.202026E-1,-2.1551514E-1,-1.2974508E0,-5.356267E-1,-2.223566E-1,2.671102E-1,-1.5153727E-1,1.1904724E-1,1.3898926E-2],"categories":[],"categories_nodes":[],"categories_segments":[],"categories_sizes":[],"default_left":[0,0,0,0,0,0,0,0,0,0,0,0,0,0,0,0,0,0,0,0,0,0,0,0,0,0,0,0,0,0,0,0,0,0,0,0,0,0,0,0,0,0,0,0,0,0,0,0,0,0,0,0,0,0,0,0,0,0,0,0,0,0,0,0,0],"id":9,"left_children":[1,3,5,7,9,11,13,-1,-1,15,17,19,21,23,25,27,29,-1,31,33,-1,35,37,39,41,43,-1,45,47,49,51,53,-1,-1,-1,-1,-1,-1,55,57,-1,59,61,-1,63,-1,-1,-1,-1,-1,-1,-1,-1,-1,-1,-1,-1,-1,-1,-1,-1,-1,-1,-1,-1],"loss_changes":[3.3729938E6,7.102074E5,3.3395662E5,1.5057175E5,7.321994E4,8.97735E4,1.0387875E5,0E0,0E0,4.2504625E4,2.0264469E4,2.35985E4,7.091717E4,9.466933E4,4.656793E3,1.5340883E4,2.5671656E4,0E0,2.6825312E3,5.5675E3,0E0,1.113975E4,3.8117637E4,1.6110125E4,7.0663887E3,3.636021E2,0E0,1.5078204E4,9.635125E3,1.7890812E4,8.120212E3,7.2018516E3,0E0,0E0,0E0,0E0,0E0,0E0,6.899298E3,6.2025625E3,0E0,5.620328E3,2.588914E3,0E0,5.1646103E1,0E0,0E0,0E0,0E0,0E0,0E0,0E0,0E0,0E0,0E0,0E0,0E0,0E0,0E0,0E0,0E0,0E0,0E0,0E0,0E0],"parents":[2147483647,0,0,1,1,2,2,3,3,4,4,5,5,6,6,9,9,10,10,11,11,12,12,13,13,14,14,15,15,16,16,18,18,19,19,21,21,22,22,23,23,24,24,25,25,27,27,28,28,29,29,30,30,31,31,38,38,39,39,41,41,42,42,44,44],"right_children":[2,4,6,8,10,12,14,-1,-1,16,18,20,22,24,26,28,30,-1,32,34,-1,36,38,40,42,44,-1,46,48,50,52,54,-1,-1,-1,-1,-1,-1,56,58,-1,60,62,-1,64,-1,-1,-1,-1,-1,-1,-1,-1,-1,-1,-1,-1,-1,-1,-1,-1,-1,-1,-1,-1],"split_conditions":[2.014E3,2.006E3,1.084E3,1.541E3,1.361E3,2.021E3,1.2E1,1.9586695E0,3.9036555E0,5E0,1.104E3,1.12E3,5E0,2.021E3,1.003E3,1.174E3,2.013E3,1.8678589E-2,1.301E3,1.068E3,-7.797695E-1,9.37E2,9.96E2,1.243E3,1.19E3,2.017E3,4.8627385E-1,3E0,1.1953334E3,2.011E3,8E0,1.3E3,1.7841015E0,-1.8166393E0,-9.961767E-1,-1.00807495E-1,-1.3015776E0,9.001969E-1,8E0,1.086E3,2.3458252E-2,7E0,1.216E3,-8.6469725E-2,2.019E3,-4.15438E-1,3.6138427E-1,-1.1670491E-1,5.664614E-1,7.865573E-1,1.3473529E0,6.146307E-1,8.423259E-3,1.1557522E0,1.1904724E-1,-5.7617185E-4,-7.202026E-1,-2.1551514E-1,-1.2974508E0,-5.356267E-1,-2.223566E-1,2.671102E-1,-1.5153727E-1,1.1904724E-1,1.3898926E-2],"split_indices":[1,1,3,2,2,1,0,0,0,0,3,2,0,1,2,3,1,0,3,3,0,2,3,2,4,1,0,0,4,1,0,3,0,0,0,0,0,0,0,3,0,0,2,0,1,0,0,0,0,0,0,0,0,0,0,0,0,0,0,0,0,0,0,0,0],"split_type":[0,0,0,0,0,0,0,0,0,0,0,0,0,0,0,0,0,0,0,0,0,0,0,0,0,0,0,0,0,0,0,0,0,0,0,0,0,0,0,0,0,0,0,0,0,0,0,0,0,0,0,0,0,0,0,0,0,0,0,0,0,0,0,0,0],"sum_hessian":[2.61E2,1.2E2,1.41E2,2.4E1,9.6E1,7.9E1,6.2E1,1.6E1,8E0,7.9E1,1.7E1,5.7E1,2.2E1,5.1E1,1.1E1,2.6E1,5.3E1,1E0,1.6E1,5.2E1,5E0,1.5E1,7E0,2E1,3.1E1,3E0,8E0,8E0,1.8E1,4.5E1,8E0,8E0,8E0,4.7E1,5E0,1E0,1.4E1,2E0,5E0,1.9E1,1E0,2.7E1,4E0,1E0,2E0,4E0,4E0,2E0,1.6E1,3.5E1,1E1,3E0,5E0,7E0,1E0,2E0,3E0,1E0,1.8E1,1.1E1,1.6E1,2E0,2E0,1E0,1E0],"tree_param":{"num_deleted":"0","num_feature":"5","num_nodes":"65","size_leaf_vector":"1"}},{"base_weights":[2.0133495E-1,1.2173426E2,-1.03359825E2,2.7121844E2,8.1952415E1,-1.4579015E2,-4.783942E1,1.9402355E0,3.8689563E0,6.7675575E1,1.4085211E2,-1.6708922E2,-8.574076E1,-6.647862E1,3.6917053E1,3.304938E1,8.373543E1,1.8585205E-2,1.4891887E2,-1.7409833E2,-7.7327126E-1,-1.22137764E2,-2.2291565E0,-1.1809625E2,-3.0527092E1,2.3121948E0,4.8195094E-1,-2.9789495E0,4.8375988E1,5.465532E1,1.0354791E2,1.0446688E2,1.7682432E0,-1.7988513E0,-9.87875E-1,-1.00303344E-1,-1.289429E0,8.941959E-1,-4.7682007E1,-1.24234474E2,2.3341063E-2,-2.3071215E1,-6.617458E1,-8.60376E-2,8.818767E0,7.463629E-1,-2.201039E-1,-1.1592692E-1,5.611305E-1,6.728111E-1,-2.5293943E-1,1.0775274E0,-1.1298401E-1,1.1456393E0,1.1845215E-1,-1.0202941E-1,-8.176009E-1,-2.1443725E-1,-1.285159E0,-3.269621E-1,1.0474662E-1,-2.3034668E-2,-8.1566495E-1,1.1845215E-1,1.3829346E-2],"categories":[],"categories_nodes":[],"categories_segments":[],"categories_sizes":[],"default_left":[0,0,0,0,0,0,0,0,0,0,0,0,0,0,0,0,0,0,0,0,0,0,0,0,0,0,0,0,0,0,0,0,0,0,0,0,0,0,0,0,0,0,0,0,0,0,0,0,0,0,0,0,0,0,0,0,0,0,0,0,0,0,0,0,0],"id":10,"left_children":[1,3,5,7,9,11,13,-1,-1,15,17,19,21,23,25,27,29,-1,31,33,-1,35,37,39,41,43,-1,45,47,49,51,53,-1,-1,-1,-1,-1,-1,55,57,-1,59,61,-1,63,-1,-1,-1,-1,-1,-1,-1,-1,-1,-1,-1,-1,-1,-1,-1,-1,-1,-1,-1,-1],"loss_changes":[3.3101382E6,6.973305E5,3.2754175E5,1.4817525E5,7.203519E4,8.799325E4,1.0198114E5,0E0,0E0,4.1719938E4,1.9905375E4,2.3028375E4,6.963791E4,9.289297E4,4.5718633E3,1.5053295E4,2.5452625E4,0E0,2.6154375E3,5.327625E3,0E0,1.0913156E4,3.758928E4,1.581375E4,6.97834E3,3.599763E2,0E0,1.4936943E4,9.466152E3,2.5927953E4,1.6187594E4,7.0598203E3,0E0,0E0,0E0,0E0,0E0,0E0,6.8290967E3,6.0459688E3,0E0,9.383092E3,4.7276074E3,0E0,5.1131332E1,0E0,0E0,0E0,0E0,0E0,0E0,0E0,0E0,0E0,0E0,0E0,0E0,0E0,0E0,0E0,0E0,0E0,0E0,0E0,0E0],"parents":[2147483647,0,0,1,1,2,2,3,3,4,4,5,5,6,6,9,9,10,10,11,11,12,12,13,13,14,14,15,15,16,16,18,18,19,19,21,21,22,22,23,23,24,24,25,25,27,27,28,28,29,29,30,30,31,31,38,38,39,39,41,41,42,42,44,44],"right_children":[2,4,6,8,10,12,14,-1,-1,16,18,20,22,24,26,28,30,-1,32,34,-1,36,38,40,42,44,-1,46,48,50,52,54,-1,-1,-1,-1,-1,-1,56,58,-1,60,62,-1,64,-1,-1,-1,-1,-1,-1,-1,-1,-1,-1,-1,-1,-1,-1,-1,-1,-1,-1,-1,-1],"split_conditions":[2.014E3,2.006E3,1.084E3,1.541E3,1.361E3,2.021E3,1.2E1,1.9402355E0,3.8689563E0,5E0,1.104E3,1.12E3,5E0,2.021E3,1.003E3,1.174E3,1.256E3,1.8585205E-2,1.301E3,1.068E3,-7.7327126E-1,9.37E2,9.96E2,1.243E3,1.229E3,2.017E3,4.8195094E-1,1.174E3,1.1953334E3,1.2486666E3,1.357E3,1.3E3,1.7682432E0,-1.7988513E0,-9.87875E-1,-1.00303344E-1,-1.289429E0,8.941959E-1,1.1E1,1.086E3,2.3341063E-2,1.166E3,6E0,-8.60376E-2,2.019E3,7.463629E-1,-2.201039E-1,-1.1592692E-1,5.611305E-1,6.728111E-1,-2.5293943E-1,1.0775274E0,-1.1298401E-1,1.1456393E0,1.1845215E-1,-1.0202941E-1,-8.176009E-1,-2.1443725E-1,-1.285159E0,-3.269621E-1,1.0474662E-1,-2.3034668E-2,-8.1566495E-1,1.1845215E-1,1.3829346E-2],"split_indices":[1,1,3,2,2,1,0,0,0,0,3,2,0,1,2,3,4,0,3,3,0,2,3,2,3,1,0,2,4,4,2,3,0,0,0,0,0,0,0,3,0,3,0,0,1,0,0,0,0,0,0,0,0,0,0,0,0,0,0,0,0,0,0,0,0],"split_type":[0,0,0,0,0,0,0,0,0,0,0,0,0,0,0,0,0,0,0,0,0,0,0,0,0,0,0,0,0,0,0,0,0,0,0,0,0,0,0,0,0,0,0,0,0,0,0,0,0,0,0,0,0,0,0,0,0,0,0,0,0,0,0,0,0],"sum_hessian":[2.61E2,1.2E2,1.41E2,2.4E1,9.6E1,7.9E1,6.2E1,1.6E1,8E0,7.9E1,1.7E1,5.7E1,2.2E1,5.1E1,1.1E1,2.6E1,5.3E1,1E0,1.6E1,5.2E1,5E0,1.5E1,7E0,2E1,3.1E1,3E0,8E0,8E0,1.8E1,2.3E1,3E1,8E0,8E0,4.7E1,5E0,1E0,1.4E1,2E0,5E0,1.9E1,1E0,2.7E1,4E0,1E0,2E0,1E0,7E0,2E0,1.6E1,2E1,3E0,2.9E1,1E0,7E0,1E0,3E0,2E0,1E0,1.8E1,2.1E1,6E0,1E0,3E0,1E0,1E0],"tree_param":{"num_deleted":"0","num_feature":"5","num_nodes":"65","size_leaf_vector":"1"}},{"base_weights":[2.1547274E-1,1.2060962E2,-1.0237542E2,2.6873868E2,8.118863E1,-1.4439444E2,-4.739293E1,1.9219749E0,3.8345659E0,6.702826E1,1.3961311E2,-1.654797E2,-8.494487E1,-6.586265E1,3.659192E1,3.2754852E1,8.29237E1,1.849243E-2,1.476081E2,-1.7240994E2,-7.66827E-1,-1.2100324E2,-2.210022E0,-1.1698558E2,-3.0255009E1,2.3006592E0,4.7766706E-1,-2.8906927E0,4.791564E1,9.2066345E1,2.6980904E1,1.03562675E2,1.752526E0,-1.7812377E0,-9.7964233E-1,-9.980164E-2,-1.2773943E0,8.8823485E-1,-4.735844E1,-1.2306711E2,2.3224486E-2,-3.5853878E1,7.149658E0,-8.56073E-2,8.774699E0,4.456146E-1,-3.4043682E-1,-1.15153804E-1,5.55849E-1,7.713356E-1,1.325676E0,6.03963E-1,2.0715331E-3,1.1356151E0,1.178601E-1,-1.0126404E-1,-8.1215E-1,-2.1336487E-1,-1.2729838E0,-4.2474067E-1,-4.500834E-2,2.6750895E-1,-1.4834797E-1,1.178601E-1,1.3760376E-2],"categories":[],"categories_nodes":[],"categories_segments":[],"categories_sizes":[],"default_left":[0,0,0,0,0,0,0,0,0,0,0,0,0,0,0,0,0,0,0,0,0,0,0,0,0,0,0,0,0,0,0,0,0,0,0,0,0,0,0,0,0,0,0,0,0,0,0,0,0,0,0,0,0,0,0,0,0,0,0,0,0,0,0,0,0],"id":11,"left_children":[1,3,5,7,9,11,13,-1,-1,15,17,19,21,23,25,27,29,-1,31,33,-1,35,37,39,41,43,-1,45,47,49,51,53,-1,-1,-1,-1,-1,-1,55,57,-1,59,61,-1,63,-1,-1,-1,-1,-1,-1,-1,-1,-1,-1,-1,-1,-1,-1,-1,-1,-1,-1,-1,-1],"loss_changes":[3.2483992E6,6.8474825E5,3.2122075E5,1.4581662E5,7.089125E4,8.6224125E4,1.0013414E5,0E0,0E0,4.0867125E4,1.9552594E4,2.2471375E4,6.8348125E4,9.111967E4,4.4884775E3,1.4729701E4,2.5135094E4,0E0,2.5497812E3,5.095E3,0E0,1.0691094E4,3.708669E4,1.5522875E4,6.957908E3,3.563861E2,0E0,1.4821523E4,9.300133E3,1.7595188E4,8.039388E3,6.9205E3,0E0,0E0,0E0,0E0,0E0,0E0,6.740876E3,5.8929062E3,0E0,5.6205977E3,2.5514568E3,0E0,5.0621033E1,0E0,0E0,0E0,0E0,0E0,0E0,0E0,0E0,0E0,0E0,0E0,0E0,0E0,0E0,0E0,0E0,0E0,0E0,0E0,0E0],"parents":[2147483647,0,0,1,1,2,2,3,3,4,4,5,5,6,6,9,9,10,10,11,11,12,12,13,13,14,14,15,15,16,16,18,18,19,19,21,21,22,22,23,23,24,24,25,25,27,27,28,28,29,29,30,30,31,31,38,38,39,39,41,41,42,42,44,44],"right_children":[2,4,6,8,10,12,14,-1,-1,16,18,20,22,24,26,28,30,-1,32,34,-1,36,38,40,42,44,-1,46,48,50,52,54,-1,-1,-1,-1,-1,-1,56,58,-1,60,62,-1,64,-1,-1,-1,-1,-1,-1,-1,-1,-1,-1,-1,-1,-1,-1,-1,-1,-1,-1,-1,-1],"split_conditions":[2.014E3,2.006E3,1.084E3,1.541E3,1.361E3,2.021E3,1.2E1,1.9219749E0,3.8345659E0,5E0,1.104E3,1.12E3,5E0,2.021E3,1.003E3,1.174E3,2.013E3,1.849243E-2,1.301E3,1.068E3,-7.66827E-1,9.37E2,9.96E2,1.243E3,1.19E3,2.017E3,4.7766706E-1,1.226E3,1.1953334E3,2.011E3,8E0,1.3E3,1.752526E0,-1.7812377E0,-9.7964233E-1,-9.980164E-2,-1.2773943E0,8.8823485E-1,1.1E1,1.086E3,2.3224486E-2,2.025E3,1.216E3,-8.56073E-2,2.019E3,4.456146E-1,-3.4043682E-1,-1.15153804E-1,5.55849E-1,7.713356E-1,1.325676E0,6.03963E-1,2.0715331E-3,1.1356151E0,1.178601E-1,-1.0126404E-1,-8.1215E-1,-2.1336487E-1,-1.2729838E0,-4.2474067E-1,-4.500834E-2,2.6750895E-1,-1.4834797E-1,1.178601E-1,1.3760376E-2],"split_indices":[1,1,3,2,2,1,0,0,0,0,3,2,0,1,2,3,1,0,3,3,0,2,3,2,4,1,0,4,4,1,0,3,0,0,0,0,0,0,0,3,0,1,2,0,1,0,0,0,0,0,0,0,0,0,0,0,0,0,0,0,0,0,0,0,0],"split_type":[0,0,0,0,0,0,0,0,0,0,0,0,0,0,0,0,0,0,0,0,0,0,0,0,0,0,0,0,0,0,0,0,0,0,0,0,0,0,0,0,0,0,0,0,0,0,0,0,0,0,0,0,0,0,0,0,0,0,0,0,0,0,0,0,0],"sum_hessian":[2.61E2,1.2E2,1.41E2,2.4E1,9.6E1,7.9E1,6.2E1,1.6E1,8E0,7.9E1,1.7E1,5.7E1,2.2E1,5.1E1,1.1E1,2.6E1,5.3E1,1E0,1.6E1,5.2E1,5E0,1.5E1,7E0,2E1,3.1E1,3E0,8E0,8E0,1.8E1,4.5E1,8E0,8E0,8E0,4.7E1,5E0,1E0,1.4E1,2E0,5E0,1.9E1,1E0,2.7E1,4E0,1E0,2E0,3E0,5E0,2E0,1.6E1,3.5E1,1E1,3E0,5E0,7E0,1E0,3E0,2E0,1E0,1.8E1,2.2E1,5E0,2E0,2E0,1E0,1E0],"tree_param":{"num_deleted":"0","num_feature":"5","num_nodes":"65","size_leaf_vector":"1"}},{"base_weights":[2.3547596E-1,1.1950292E2,-1.01395485E2,2.6628152E2,8.044139E1,-1.4301212E2,-4.6939503E1,1.9038855E0,3.8004806E0,6.639857E1,1.38385E2,-1.6388573E2,-8.415642E1,-6.523893E1,3.6269634E1,3.244749E1,8.21445E1,1.8400269E-2,1.463088E2,-1.7073793E2,-7.604366E-1,-1.19879326E2,-2.19104E0,-1.1588543E2,-2.9963448E1,2.2891235E0,4.734212E-1,-2.8500705E0,4.7459625E1,5.350607E1,1.0166637E2,1.0266631E2,1.7369475E0,-2.0604567E2,-1.513784E0,-9.930237E-2,-1.2654724E0,8.823136E-1,-4.7037067E1,-1.2191078E2,2.310852E-2,-2.2575937E1,-6.534082E1,-8.517944E-2,8.730794E0,-4.0920237E-1,3.579011E-1,-1.14386395E-1,5.506169E-1,6.6041744E-1,-2.5682768E-1,1.0583041E0,-1.1627563E-1,1.1256784E0,1.1727051E-1,-5.675769E-1,-2.1221435E0,7.836914E-4,-7.061438E-1,-2.0993225E-1,-1.2611732E0,-3.213586E-1,1.0694667E-1,-2.0795899E-2,-8.063623E-1,1.1727051E-1,1.3691406E-2],"categories":[],"categories_nodes":[],"categories_segments":[],"categories_sizes":[],"default_left":[0,0,0,0,0,0,0,0,0,0,0,0,0,0,0,0,0,0,0,0,0,0,0,0,0,0,0,0,0,0,0,0,0,0,0,0,0,0,0,0,0,0,0,0,0,0,0,0,0,0,0,0,0,0,0,0,0,0,0,0,0,0,0,0,0,0,0],"id":12,"left_children":[1,3,5,7,9,11,13,-1,-1,15,17,19,21,23,25,27,29,-1,31,33,-1,35,37,39,41,43,-1,45,47,49,51,53,-1,55,-1,-1,-1,-1,57,59,-1,61,63,-1,65,-1,-1,-1,-1,-1,-1,-1,-1,-1,-1,-1,-1,-1,-1,-1,-1,-1,-1,-1,-1,-1,-1],"loss_changes":[3.1878885E6,6.7232075E5,3.1509825E5,1.4349512E5,6.973956E4,8.44905E4,9.8295E4,0E0,0E0,4.0101938E4,1.9206031E4,2.192725E4,6.70823E4,8.94298E4,4.406615E3,1.444234E4,2.4750344E4,0E0,2.4856562E3,5.036875E3,0E0,1.0473469E4,3.659083E4,1.52374375E4,6.888092E3,3.528307E2,0E0,1.4703884E4,9.137059E3,2.5520602E4,1.5855156E4,6.7838516E3,0E0,2.6898125E3,0E0,0E0,0E0,0E0,6.670665E3,5.8426562E3,0E0,9.249484E3,4.670342E3,0E0,5.011624E1,0E0,0E0,0E0,0E0,0E0,0E0,0E0,0E0,0E0,0E0,0E0,0E0,0E0,0E0,0E0,0E0,0E0,0E0,0E0,0E0,0E0,0E0],"parents":[2147483647,0,0,1,1,2,2,3,3,4,4,5,5,6,6,9,9,10,10,11,11,12,12,13,13,14,14,15,15,16,16,18,18,19,19,21,21,22,22,23,23,24,24,25,25,27,27,28,28,29,29,30,30,31,31,33,33,38,38,39,39,41,41,42,42,44,44],"right_children":[2,4,6,8,10,12,14,-1,-1,16,18,20,22,24,26,28,30,-1,32,34,-1,36,38,40,42,44,-1,46,48,50,52,54,-1,56,-1,-1,-1,-1,58,60,-1,62,64,-1,66,-1,-1,-1,-1,-1,-1,-1,-1,-1,-1,-1,-1,-1,-1,-1,-1,-1,-1,-1,-1,-1,-1],"split_conditions":[2.014E3,2.006E3,1.084E3,1.541E3,1.361E3,2.021E3,1.2E1,1.9038855E0,3.8004806E0,5E0,1.104E3,1.12E3,5E0,2.021E3,1.003E3,1.174E3,1.256E3,1.8400269E-2,1.301E3,5E0,-7.604366E-1,9.37E2,9.96E2,1.243E3,1.229E3,2.017E3,4.734212E-1,3E0,1.1953334E3,1.2486666E3,1.357E3,1.3E3,1.7369475E0,8.36E2,-1.513784E0,-9.930237E-2,-1.2654724E0,8.823136E-1,8E0,9.07E2,2.310852E-2,1.166E3,6E0,-8.517944E-2,2.019E3,-4.0920237E-1,3.579011E-1,-1.14386395E-1,5.506169E-1,6.6041744E-1,-2.5682768E-1,1.0583041E0,-1.1627563E-1,1.1256784E0,1.1727051E-1,-5.675769E-1,-2.1221435E0,7.836914E-4,-7.061438E-1,-2.0993225E-1,-1.2611732E0,-3.213586E-1,1.0694667E-1,-2.0795899E-2,-8.063623E-1,1.1727051E-1,1.3691406E-2],"split_indices":[1,1,3,2,2,1,0,0,0,0,3,2,0,1,2,3,4,0,3,0,0,2,3,2,3,1,0,0,4,4,2,3,0,2,0,0,0,0,0,2,0,3,0,0,1,0,0,0,0,0,0,0,0,0,0,0,0,0,0,0,0,0,0,0,0,0,0],"split_type":[0,0,0,0,0,0,0,0,0,0,0,0,0,0,0,0,0,0,0,0,0,0,0,0,0,0,0,0,0,0,0,0,0,0,0,0,0,0,0,0,0,0,0,0,0,0,0,0,0,0,0,0,0,0,0,0,0,0,0,0,0,0,0,0,0,0,0],"sum_hessian":[2.61E2,1.2E2,1.41E2,2.4E1,9.6E1,7.9E1,6.2E1,1.6E1,8E0,7.9E1,1.7E1,5.7E1,2.2E1,5.1E1,1.1E1,2.6E1,5.3E1,1E0,1.6E1,5.2E1,5E0,1.5E1,7E0,2E1,3.1E1,3E0,8E0,8E0,1.8E1,2.3E1,3E1,8E0,8E0,1.5E1,3.7E1,1E0,1.4E1,2E0,5E0,1.9E1,1E0,2.7E1,4E0,1E0,2E0,4E0,4E0,2E0,1.6E1,2E1,3E0,2.9E1,1E0,7E0,1E0,1E0,1.4E1,2E0,3E0,1E0,1.8E1,2.1E1,6E0,1E0,3E0,1E0,1E0],"tree_param":{"num_deleted":"0","num_feature":"5","num_nodes":"67","size_leaf_vector":"1"}},{"base_weights":[2.4194476E-1,1.1839409E2,-1.004387E2,2.6384683E2,7.968571E1,-1.4165887E2,-4.6501343E1,1.8859662E0,3.766698E0,6.575619E1,1.371677E2,-1.6233244E2,-8.336647E1,-6.463437E1,3.5950226E1,3.213724E1,8.134795E1,1.8308105E-2,1.45021E2,-1.6910983E2,-7.541001E-1,-1.1876581E2,-2.146988E0,-1.1479547E2,-2.9696323E1,2.2776794E0,4.6921333E1,-2.827284E0,4.7007954E1,9.038833E1,2.6102959E1,1.0177771E2,1.7215081E0,-1.7473965E0,-9.588639E-1,-9.880615E-2,-1.253661E0,8.7643147E-1,-4.6684223E1,-1.2076518E2,2.2993164E-2,-3.5252785E1,7.359131E0,-8.475342E-2,8.687134E0,2.0607665E-1,5.149557E-1,7.386139E-1,-2.164604E-1,-1.1362386E-1,5.4543424E-1,7.5640607E-1,1.3043646E0,5.934851E-1,-4.112345E-3,1.1158283E0,1.1668396E-1,-9.8742366E-2,-8.0202794E-1,-2.0599182E-1,-1.249529E0,-5.2192247E-1,-2.1221823E-1,2.6786864E-1,-1.4521646E-1,1.1668396E-1,1.3623047E-2],"categories":[],"categories_nodes":[],"categories_segments":[],"categories_sizes":[],"default_left":[0,0,0,0,0,0,0,0,0,0,0,0,0,0,0,0,0,0,0,0,0,0,0,0,0,0,0,0,0,0,0,0,0,0,0,0,0,0,0,0,0,0,0,0,0,0,0,0,0,0,0,0,0,0,0,0,0,0,0,0,0,0,0,0,0,0,0],"id":13,"left_children":[1,3,5,7,9,11,13,-1,-1,15,17,19,21,23,25,27,29,-1,31,33,-1,35,37,39,41,43,45,47,49,51,53,55,-1,-1,-1,-1,-1,-1,57,59,-1,61,63,-1,65,-1,-1,-1,-1,-1,-1,-1,-1,-1,-1,-1,-1,-1,-1,-1,-1,-1,-1,-1,-1,-1,-1],"loss_changes":[3.1285472E6,6.6023425E5,3.091225E5,1.4121012E5,6.864794E4,8.287575E4,9.651472E4,0E0,0E0,3.932E4,1.8865625E4,2.1415625E4,6.587269E4,8.7722625E4,4.3262314E3,1.4171484E4,2.4610125E4,0E0,2.423E3,5.093375E3,0E0,1.0260109E4,3.608359E4,1.4957094E4,6.8481426E3,3.4931042E2,2.2080078E1,1.4587478E4,8.976859E3,1.7302125E4,7.957717E3,6.649797E3,0E0,0E0,0E0,0E0,0E0,0E0,6.610968E3,5.8154375E3,0E0,5.54734E3,2.5144592E3,0E0,4.96158E1,0E0,0E0,0E0,0E0,0E0,0E0,0E0,0E0,0E0,0E0,0E0,0E0,0E0,0E0,0E0,0E0,0E0,0E0,0E0,0E0,0E0,0E0],"parents":[2147483647,0,0,1,1,2,2,3,3,4,4,5,5,6,6,9,9,10,10,11,11,12,12,13,13,14,14,15,15,16,16,18,18,19,19,21,21,22,22,23,23,24,24,25,25,26,26,27,27,28,28,29,29,30,30,31,31,38,38,39,39,41,41,42,42,44,44],"right_children":[2,4,6,8,10,12,14,-1,-1,16,18,20,22,24,26,28,30,-1,32,34,-1,36,38,40,42,44,46,48,50,52,54,56,-1,-1,-1,-1,-1,-1,58,60,-1,62,64,-1,66,-1,-1,-1,-1,-1,-1,-1,-1,-1,-1,-1,-1,-1,-1,-1,-1,-1,-1,-1,-1,-1,-1],"split_conditions":[2.014E3,2.006E3,1.084E3,1.541E3,1.361E3,2.021E3,1.2E1,1.8859662E0,3.766698E0,5E0,1.104E3,1.12E3,5E0,2.021E3,1.003E3,1.174E3,2.013E3,1.8308105E-2,1.301E3,1.068E3,-7.541001E-1,9.37E2,9.96E2,1.243E3,1.19E3,2.017E3,9.9E2,1.174E3,1.1953334E3,2.011E3,8E0,1.3E3,1.7215081E0,-1.7473965E0,-9.588639E-1,-9.880615E-2,-1.253661E0,8.7643147E-1,1.1E1,1.086E3,2.2993164E-2,7E0,1.216E3,-8.475342E-2,2.019E3,2.0607665E-1,5.149557E-1,7.386139E-1,-2.164604E-1,-1.1362386E-1,5.4543424E-1,7.5640607E-1,1.3043646E0,5.934851E-1,-4.112345E-3,1.1158283E0,1.1668396E-1,-9.8742366E-2,-8.0202794E-1,-2.0599182E-1,-1.249529E0,-5.2192247E-1,-2.1221823E-1,2.6786864E-1,-1.4521646E-1,1.1668396E-1,1.3623047E-2],"split_indices":[1,1,3,2,2,1,0,0,0,0,3,2,0,1,2,3,1,0,3,3,0,2,3,2,4,1,4,2,4,1,0,3,0,0,0,0,0,0,0,3,0,0,2,0,1,0,0,0,0,0,0,0,0,0,0,0,0,0,0,0,0,0,0,0,0,0,0],"split_type":[0,0,0,0,0,0,0,0,0,0,0,0,0,0,0,0,0,0,0,0,0,0,0,0,0,0,0,0,0,0,0,0,0,0,0,0,0,0,0,0,0,0,0,0,0,0,0,0,0,0,0,0,0,0,0,0,0,0,0,0,0,0,0,0,0,0,0],"sum_hessian":[2.61E2,1.2E2,1.41E2,2.4E1,9.6E1,7.9E1,6.2E1,1.6E1,8E0,7.9E1,1.7E1,5.7E1,2.2E1,5.1E1,1.1E1,2.6E1,5.3E1,1E0,1.6E1,5.2E1,5E0,1.5E1,7E0,2E1,3.1E1,3E0,8E0,8E0,1.8E1,4.5E1,8E0,8E0,8E0,4.7E1,5E0,1E0,1.4E1,2E0,5E0,1.9E1,1E0,2.7E1,4E0,1E0,2E0,2E0,6E0,1E0,7E0,2E0,1.6E1,3.5E1,1E1,3E0,5E0,7E0,1E0,3E0,2E0,1E0,1.8E1,1.1E1,1.6E1,2E0,2E0,1E0,1E0],"tree_param":{"num_deleted":"0","num_feature":"5","num_nodes":"67","size_leaf_vector":"1"}},{"base_weights":[2.6287377E-1,1.17311226E2,-9.947736E1,2.6143445E2,7.895667E1,-1.4030273E2,-4.605662E1,1.8682158E0,3.733216E0,6.5143715E1,1.3596112E2,-1.6076874E2,-8.2592674E1,-6.402734E1,3.565457E1,3.185121E1,8.05836E1,1.8216552E-2,1.437445E2,-1.6746977E2,-7.4781555E-1,-1.1766268E2,-2.1285706E0,-1.1371575E2,-2.9418476E1,2.2662659E0,4.65322E1,-2.7410212E0,4.6560623E1,8.95293E1,2.590743E1,1.00896866E2,1.7062054E0,-2.0251505E2,-1.4830676E0,-9.831238E-2,-1.2419603E0,8.7058836E-1,-4.636751E1,-1.19630325E2,2.2878418E-2,-2.2092691E1,-6.455918E1,-8.432983E-2,8.643677E0,2.0470296E-1,5.105413E-1,4.4074187E-1,-3.3494323E-1,-1.1286621E-1,5.40301E-1,7.490527E-1,1.2925072E0,5.890338E-1,-4.0777586E-3,1.1060646E0,1.1610046E-1,-5.560016E-1,-2.086027E0,-9.80017E-2,-7.966813E-1,-2.0263489E-1,-1.2379365E0,-3.1563598E-1,1.0829119E-1,-1.8082274E-2,-7.979486E-1,1.1610046E-1,1.3554688E-2],"categories":[],"categories_nodes":[],"categories_segments":[],"categories_sizes":[],"default_left":[0,0,0,0,0,0,0,0,0,0,0,0,0,0,0,0,0,0,0,0,0,0,0,0,0,0,0,0,0,0,0,0,0,0,0,0,0,0,0,0,0,0,0,0,0,0,0,0,0,0,0,0,0,0,0,0,0,0,0,0,0,0,0,0,0,0,0,0,0],"id":14,"left_children":[1,3,5,7,9,11,13,-1,-1,15,17,19,21,23,25,27,29,-1,31,33,-1,35,37,39,41,43,45,47,49,51,53,55,-1,57,-1,-1,-1,-1,59,61,-1,63,65,-1,67,-1,-1,-1,-1,-1,-1,-1,-1,-1,-1,-1,-1,-1,-1,-1,-1,-1,-1,-1,-1,-1,-1,-1,-1],"loss_changes":[3.070371E6,6.482196E5,3.0322888E5,1.38961E5,6.752075E4,8.120925E4,9.479267E4,0E0,0E0,3.8555938E4,1.853125E4,2.0896E4,6.465272E4,8.607694E4,4.2527725E3,1.386607E4,2.4092812E4,0E0,2.3616875E3,5.559E3,0E0,1.0051E4,3.5601156E4,1.4682031E4,6.81158E3,3.4582602E2,1.5556641E1,1.4433735E4,8.819504E3,1.7039219E4,7.8386772E3,6.5183047E3,0E0,2.7115E3,0E0,0E0,0E0,0E0,6.5255303E3,5.7654688E3,0E0,9.072189E3,4.6359785E3,0E0,4.9121506E1,0E0,0E0,0E0,0E0,0E0,0E0,0E0,0E0,0E0,0E0,0E0,0E0,0E0,0E0,0E0,0E0,0E0,0E0,0E0,0E0,0E0,0E0,0E0,0E0],"parents":[2147483647,0,0,1,1,2,2,3,3,4,4,5,5,6,6,9,9,10,10,11,11,12,12,13,13,14,14,15,15,16,16,18,18,19,19,21,21,22,22,23,23,24,24,25,25,26,26,27,27,28,28,29,29,30,30,31,31,33,33,38,38,39,39,41,41,42,42,44,44],"right_children":[2,4,6,8,10,12,14,-1,-1,16,18,20,22,24,26,28,30,-1,32,34,-1,36,38,40,42,44,46,48,50,52,54,56,-1,58,-1,-1,-1,-1,60,62,-1,64,66,-1,68,-1,-1,-1,-1,-1,-1,-1,-1,-1,-1,-1,-1,-1,-1,-1,-1,-1,-1,-1,-1,-1,-1,-1,-1],"split_conditions":[2.014E3,2.006E3,1.084E3,1.541E3,1.361E3,2.021E3,1.2E1,1.8682158E0,3.733216E0,5E0,1.104E3,1.12E3,5E0,2.021E3,1.003E3,1.174E3,2.013E3,1.8216552E-2,1.301E3,5E0,-7.4781555E-1,9.37E2,9.96E2,1.243E3,1.229E3,2.017E3,9.9E2,1.226E3,1.1953334E3,2.011E3,8E0,1.3E3,1.7062054E0,8.36E2,-1.4830676E0,-9.831238E-2,-1.2419603E0,8.7058836E-1,1.1E1,9.07E2,2.2878418E-2,1.166E3,6E0,-8.432983E-2,2.019E3,2.0470296E-1,5.105413E-1,4.4074187E-1,-3.3494323E-1,-1.1286621E-1,5.40301E-1,7.490527E-1,1.2925072E0,5.890338E-1,-4.0777586E-3,1.1060646E0,1.1610046E-1,-5.560016E-1,-2.086027E0,-9.80017E-2,-7.966813E-1,-2.0263489E-1,-1.2379365E0,-3.1563598E-1,1.0829119E-1,-1.8082274E-2,-7.979486E-1,1.1610046E-1,1.3554688E-2],"split_indices":[1,1,3,2,2,1,0,0,0,0,3,2,0,1,2,3,1,0,3,0,0,2,3,2,3,1,4,4,4,1,0,3,0,2,0,0,0,0,0,2,0,3,0,0,1,0,0,0,0,0,0,0,0,0,0,0,0,0,0,0,0,0,0,0,0,0,0,0,0],"split_type":[0,0,0,0,0,0,0,0,0,0,0,0,0,0,0,0,0,0,0,0,0,0,0,0,0,0,0,0,0,0,0,0,0,0,0,0,0,0,0,0,0,0,0,0,0,0,0,0,0,0,0,0,0,0,0,0,0,0,0,0,0,0,0,0,0,0,0,0,0],"sum_hessian":[2.61E2,1.2E2,1.41E2,2.4E1,9.6E1,7.9E1,6.2E1,1.6E1,8E0,7.9E1,1.7E1,5.7E1,2.2E1,5.1E1,1.1E1,2.6E1,5.3E1,1E0,1.6E1,5.2E1,5E0,1.5E1,7E0,2E1,3.1E1,3E0,8E0,8E0,1.8E1,4.5E1,8E0,8E0,8E0,1.5E1,3.7E1,1E0,1.4E1,2E0,5E0,1.9E1,1E0,2.7E1,4E0,1E0,2E0,2E0,6E0,3E0,5E0,2E0,1.6E1,3.5E1,1E1,3E0,5E0,7E0,1E0,1E0,1.4E1,3E0,2E0,1E0,1.8E1,2.1E1,6E0,1E0,3E0,1E0,1E0],"tree_param":{"num_deleted":"0","num_feature":"5","num_nodes":"69","size_leaf_vector":"1"}},{"base_weights":[2.747169E-1,1.1623489E2,-9.853835E1,2.590442E2,7.823007E1,-1.3897769E2,-4.5622715E1,1.850633E0,3.7000313E0,6.453179E1,1.3476521E2,-1.5924509E2,-8.182608E1,-6.3434006E1,3.536143E1,3.1552458E1,7.982642E1,1.812561E-2,1.4247934E2,-1.6587292E2,-7.415838E-1,-1.1656984E2,-2.1103058E0,-1.1264612E2,-2.9156242E1,2.2549438E0,4.6146378E1,-2.7018635E0,4.6117535E1,5.177888E1,9.8965614E1,1.0002368E2,1.6910394E0,-2.00655E2,-1.4686275E0,-9.782104E-2,-1.2303687E0,8.647843E-1,-4.605296E1,-1.18506065E2,2.2764282E-2,-3.4671894E1,7.5626464E0,-8.390808E-2,8.600464E0,2.0333822E-1,5.0616556E-1,-4.0306935E-1,3.544358E-1,3.769873E-2,5.715892E-1,6.424618E-1,-2.661917E-1,1.0308594E0,-1.2322082E-1,1.0963864E0,1.15520015E-1,-5.532214E-1,-2.0665572E0,2.0906574E-3,-6.9236237E-1,-1.9877258E-1,-1.2265089E0,-4.1219425E-1,-3.7943725E-2,2.6818764E-1,-1.4214355E-1,1.15520015E-1,1.3486939E-2],"categories":[],"categories_nodes":[],"categories_segments":[],"categories_sizes":[],"default_left":[0,0,0,0,0,0,0,0,0,0,0,0,0,0,0,0,0,0,0,0,0,0,0,0,0,0,0,0,0,0,0,0,0,0,0,0,0,0,0,0,0,0,0,0,0,0,0,0,0,0,0,0,0,0,0,0,0,0,0,0,0,0,0,0,0,0,0,0,0],"id":15,"left_children":[1,3,5,7,9,11,13,-1,-1,15,17,19,21,23,25,27,29,-1,31,33,-1,35,37,39,41,43,45,47,49,51,53,55,-1,57,-1,-1,-1,-1,59,61,-1,63,65,-1,67,-1,-1,-1,-1,-1,-1,-1,-1,-1,-1,-1,-1,-1,-1,-1,-1,-1,-1,-1,-1,-1,-1,-1,-1],"loss_changes":[3.0135492E6,6.3645525E5,2.9752138E5,1.3674712E5,6.64235E4,7.9634625E4,9.311633E4,0E0,0E0,3.7833844E4,1.8202781E4,2.040775E4,6.345539E4,8.4433484E4,4.1805635E3,1.3595359E4,2.386325E4,0E0,2.3018125E3,5.5755E3,0E0,9.846047E3,3.5125184E4,1.4412031E4,6.743127E3,3.423762E2,9.253906E0,1.433878E4,8.668473E3,2.5168074E4,1.5485E4,6.3893203E3,0E0,2.5209375E3,0E0,0E0,0E0,0E0,6.449506E3,5.7380312E3,0E0,5.5043984E3,2.4779143E3,0E0,4.86315E1,0E0,0E0,0E0,0E0,0E0,0E0,0E0,0E0,0E0,0E0,0E0,0E0,0E0,0E0,0E0,0E0,0E0,0E0,0E0,0E0,0E0,0E0,0E0,0E0],"parents":[2147483647,0,0,1,1,2,2,3,3,4,4,5,5,6,6,9,9,10,10,11,11,12,12,13,13,14,14,15,15,16,16,18,18,19,19,21,21,22,22,23,23,24,24,25,25,26,26,27,27,28,28,29,29,30,30,31,31,33,33,38,38,39,39,41,41,42,42,44,44],"right_children":[2,4,6,8,10,12,14,-1,-1,16,18,20,22,24,26,28,30,-1,32,34,-1,36,38,40,42,44,46,48,50,52,54,56,-1,58,-1,-1,-1,-1,60,62,-1,64,66,-1,68,-1,-1,-1,-1,-1,-1,-1,-1,-1,-1,-1,-1,-1,-1,-1,-1,-1,-1,-1,-1,-1,-1,-1,-1],"split_conditions":[2.014E3,2.006E3,1.084E3,1.541E3,1.361E3,2.021E3,1.2E1,1.850633E0,3.7000313E0,5E0,1.104E3,1.12E3,5E0,2.021E3,1.003E3,1.174E3,1.256E3,1.812561E-2,1.301E3,5E0,-7.415838E-1,9.37E2,9.96E2,1.243E3,1.19E3,2.017E3,9.9E2,3E0,1.2276666E3,1.2486666E3,1.357E3,1.3E3,1.6910394E0,8.36E2,-1.4686275E0,-9.782104E-2,-1.2303687E0,8.647843E-1,8E0,1.086E3,2.2764282E-2,2.025E3,1.216E3,-8.390808E-2,2.019E3,2.0333822E-1,5.0616556E-1,-4.0306935E-1,3.544358E-1,3.769873E-2,5.715892E-1,6.424618E-1,-2.661917E-1,1.0308594E0,-1.2322082E-1,1.0963864E0,1.15520015E-1,-5.532214E-1,-2.0665572E0,2.0906574E-3,-6.9236237E-1,-1.9877258E-1,-1.2265089E0,-4.1219425E-1,-3.7943725E-2,2.6818764E-1,-1.4214355E-1,1.15520015E-1,1.3486939E-2],"split_indices":[1,1,3,2,2,1,0,0,0,0,3,2,0,1,2,3,4,0,3,0,0,2,3,2,4,1,4,0,4,4,2,3,0,2,0,0,0,0,0,3,0,1,2,0,1,0,0,0,0,0,0,0,0,0,0,0,0,0,0,0,0,0,0,0,0,0,0,0,0],"split_type":[0,0,0,0,0,0,0,0,0,0,0,0,0,0,0,0,0,0,0,0,0,0,0,0,0,0,0,0,0,0,0,0,0,0,0,0,0,0,0,0,0,0,0,0,0,0,0,0,0,0,0,0,0,0,0,0,0,0,0,0,0,0,0,0,0,0,0,0,0],"sum_hessian":[2.61E2,1.2E2,1.41E2,2.4E1,9.6E1,7.9E1,6.2E1,1.6E1,8E0,7.9E1,1.7E1,5.7E1,2.2E1,5.1E1,1.1E1,2.6E1,5.3E1,1E0,1.6E1,5.2E1,5E0,1.5E1,7E0,2E1,3.1E1,3E0,8E0,8E0,1.8E1,2.3E1,3E1,8E0,8E0,1.5E1,3.7E1,1E0,1.4E1,2E0,5E0,1.9E1,1E0,2.7E1,4E0,1E0,2E0,2E0,6E0,4E0,4E0,4E0,1.4E1,2E1,3E0,2.9E1,1E0,7E0,1E0,1E0,1.4E1,2E0,3E0,1E0,1.8E1,2.2E1,5E0,2E0,2E0,1E0,1E0],"tree_param":{"num_deleted":"0","num_feature":"5","num_nodes":"69","size_leaf_vector":"1"}},{"base_weights":[2.848003E-1,1.151578E2,-9.7601944E1,2.5667578E2,7.74969E1,-1.3766272E2,-4.5181896E1,1.8332157E0,3.667142E0,6.390953E1,1.3357983E2,-1.5773592E2,-8.105799E1,-6.2832832E1,3.5070667E1,3.1257717E1,7.905193E1,1.8035278E-2,1.4122528E2,-1.6746631E2,-9.428337E1,-1.15487175E2,-2.0673676E0,-1.11586395E2,-2.8874783E1,2.2436829E0,4.57637E1,-2.6802707E0,4.5688465E1,8.789784E1,2.5055948E1,9.9158066E1,1.676008E0,-2.0900064E2,-1.4666222E0,-1.9746582E-1,-1.0037118E2,-9.733215E-2,-1.2188855E0,8.590194E-1,-4.570746E1,-1.1739223E2,2.2650756E-2,-2.161636E1,-6.3746998E1,-8.348877E-2,8.557495E0,2.0198242E-1,5.018265E-1,7.309442E-1,-2.1288909E-1,-1.1236491E-1,5.304648E-1,7.345522E-1,1.2717388E0,5.788269E-1,-1.004537E-2,1.0867926E0,1.14942625E-1,-5.5045533E-1,-2.1660907E0,-1.1619018E0,-5.1549864E-1,-9.5545955E-2,-7.867545E-1,-1.9548889E-1,-1.2151299E0,-3.1023243E-1,1.1036185E-1,-1.5930785E-2,-7.8887206E-1,1.14942625E-1,1.34197995E-2],"categories":[],"categories_nodes":[],"categories_segments":[],"categories_sizes":[],"default_left":[0,0,0,0,0,0,0,0,0,0,0,0,0,0,0,0,0,0,0,0,0,0,0,0,0,0,0,0,0,0,0,0,0,0,0,0,0,0,0,0,0,0,0,0,0,0,0,0,0,0,0,0,0,0,0,0,0,0,0,0,0,0,0,0,0,0,0,0,0,0,0,0,0],"id":16,"left_children":[1,3,5,7,9,11,13,-1,-1,15,17,19,21,23,25,27,29,-1,31,33,35,37,39,41,43,45,47,49,51,53,55,57,-1,59,-1,-1,61,-1,-1,-1,63,65,-1,67,69,-1,71,-1,-1,-1,-1,-1,-1,-1,-1,-1,-1,-1,-1,-1,-1,-1,-1,-1,-1,-1,-1,-1,-1,-1,-1,-1,-1],"loss_changes":[2.9573102E6,6.250016E5,2.9197825E5,1.3456775E5,6.5378875E4,7.8113375E4,9.1445164E4,0E0,0E0,3.7083156E4,1.7880094E4,2.0020875E4,6.231164E4,8.286792E4,4.1095605E3,1.3345725E4,2.3590406E4,0E0,2.2432812E3,1.1687625E4,2.5556562E3,9.6451875E3,3.4638266E4,1.41469375E4,6.7217773E3,3.389632E2,3.1503906E0,1.4246676E4,8.554301E3,1.6751844E4,7.7574727E3,6.2627812E3,0E0,4.4755625E3,0E0,0E0,9.6115625E2,0E0,0E0,0E0,6.3996143E3,5.6883438E3,0E0,8.942823E3,4.5794434E3,0E0,4.8145798E1,0E0,0E0,0E0,0E0,0E0,0E0,0E0,0E0,0E0,0E0,0E0,0E0,0E0,0E0,0E0,0E0,0E0,0E0,0E0,0E0,0E0,0E0,0E0,0E0,0E0,0E0],"parents":[2147483647,0,0,1,1,2,2,3,3,4,4,5,5,6,6,9,9,10,10,11,11,12,12,13,13,14,14,15,15,16,16,18,18,19,19,20,20,21,21,22,22,23,23,24,24,25,25,26,26,27,27,28,28,29,29,30,30,31,31,33,33,36,36,40,40,41,41,43,43,44,44,46,46],"right_children":[2,4,6,8,10,12,14,-1,-1,16,18,20,22,24,26,28,30,-1,32,34,36,38,40,42,44,46,48,50,52,54,56,58,-1,60,-1,-1,62,-1,-1,-1,64,66,-1,68,70,-1,72,-1,-1,-1,-1,-1,-1,-1,-1,-1,-1,-1,-1,-1,-1,-1,-1,-1,-1,-1,-1,-1,-1,-1,-1,-1,-1],"split_conditions":[2.014E3,2.006E3,1.084E3,1.541E3,1.361E3,2.021E3,1.2E1,1.8332157E0,3.667142E0,5E0,1.104E3,1.098E3,5E0,2.021E3,1.003E3,1.174E3,2.013E3,1.8035278E-2,1.301E3,5E0,1.102E3,9.37E2,9.96E2,1.243E3,1.229E3,2.017E3,9.9E2,1.174E3,1.1953334E3,2.011E3,8E0,1.3E3,1.676008E0,8.36E2,-1.4666222E0,-1.9746582E-1,6E0,-9.733215E-2,-1.2188855E0,8.590194E-1,1.1E1,9.07E2,2.2650756E-2,1.166E3,6E0,-8.348877E-2,2.019E3,2.0198242E-1,5.018265E-1,7.309442E-1,-2.1288909E-1,-1.1236491E-1,5.304648E-1,7.345522E-1,1.2717388E0,5.788269E-1,-1.004537E-2,1.0867926E0,1.14942625E-1,-5.5045533E-1,-2.1660907E0,-1.1619018E0,-5.1549864E-1,-9.5545955E-2,-7.867545E-1,-1.9548889E-1,-1.2151299E0,-3.1023243E-1,1.1036185E-1,-1.5930785E-2,-7.8887206E-1,1.14942625E-1,1.34197995E-2],"split_indices":[1,1,3,2,2,1,0,0,0,0,3,2,0,1,2,3,1,0,3,0,2,2,3,2,3,1,4,2,4,1,0,3,0,2,0,0,0,0,0,0,0,2,0,3,0,0,1,0,0,0,0,0,0,0,0,0,0,0,0,0,0,0,0,0,0,0,0,0,0,0,0,0,0],"split_type":[0,0,0,0,0,0,0,0,0,0,0,0,0,0,0,0,0,0,0,0,0,0,0,0,0,0,0,0,0,0,0,0,0,0,0,0,0,0,0,0,0,0,0,0,0,0,0,0,0,0,0,0,0,0,0,0,0,0,0,0,0,0,0,0,0,0,0,0,0,0,0,0,0],"sum_hessian":[2.61E2,1.2E2,1.41E2,2.4E1,9.6E1,7.9E1,6.2E1,1.6E1,8E0,7.9E1,1.7E1,5.7E1,2.2E1,5.1E1,1.1E1,2.6E1,5.3E1,1E0,1.6E1,4.8E1,9E0,1.5E1,7E0,2E1,3.1E1,3E0,8E0,8E0,1.8E1,4.5E1,8E0,8E0,8E0,1.3E1,3.5E1,1E0,8E0,1E0,1.4E1,2E0,5E0,1.9E1,1E0,2.7E1,4E0,1E0,2E0,2E0,6E0,1E0,7E0,2E0,1.6E1,3.5E1,1E1,3E0,5E0,7E0,1E0,1E0,1.2E1,5E0,3E0,3E0,2E0,1E0,1.8E1,2.1E1,6E0,1E0,3E0,1E0,1E0],"tree_param":{"num_deleted":"0","num_feature":"5","num_nodes":"73","size_leaf_vector":"1"}},{"base_weights":[2.928914E-1,1.1410464E2,-9.66896E1,8.8408585E1,3.207788E2,-1.3637852E2,-4.4756203E1,6.72994E1,1.6036615E2,3.4623706E0,1.2050561E0,-1.5626297E2,-8.030566E1,-6.2250557E1,3.4782337E1,7.220815E0,7.601465E1,7.6631836E1,1.8402026E2,-1.6276465E2,-7.2787637E-1,-1.1441458E2,-2.049591E0,-1.1053667E2,-2.8617466E1,2.2324524E0,4.538425E-1,-3.2580303E1,4.0304512E1,3.6633198E1,9.272889E1,1.0116361E0,1.0201579E1,7.275277E-1,1.9338164E0,-1.9706824E2,-1.4403775E0,-9.68457E-2,-1.2075094E0,8.532926E-1,-4.539742E1,-1.1628887E2,2.2537231E-2,-2.140737E1,-6.3270508E1,-8.3071284E-2,8.514689E0,-4.7961515E-1,-1.21191405E-2,7.7253294E-1,1.00743406E-1,5.295614E-1,-1.0573399E-1,5.4669593E-2,9.611002E-1,-5.6469116E-2,2.0949279E-1,-5.477032E-1,-2.0290341E0,-9.48291E-2,-7.8150964E-1,-1.9170348E-1,-1.203914E0,-3.072716E-1,1.0941598E-1,-1.5850829E-2,-7.8295594E-1,1.1436767E-1,1.335266E-2],"categories":[],"categories_nodes":[],"categories_segments":[],"categories_sizes":[],"default_left":[0,0,0,0,0,0,0,0,0,0,0,0,0,0,0,0,0,0,0,0,0,0,0,0,0,0,0,0,0,0,0,0,0,0,0,0,0,0,0,0,0,0,0,0,0,0,0,0,0,0,0,0,0,0,0,0,0,0,0,0,0,0,0,0,0,0,0,0,0],"id":17,"left_children":[1,3,5,7,9,11,13,15,17,-1,-1,19,21,23,25,27,29,31,33,35,-1,37,39,41,43,45,-1,47,49,51,53,-1,55,-1,-1,57,-1,-1,-1,-1,59,61,-1,63,65,-1,67,-1,-1,-1,-1,-1,-1,-1,-1,-1,-1,-1,-1,-1,-1,-1,-1,-1,-1,-1,-1,-1,-1],"loss_changes":[2.902922E6,6.142361E5,2.8658388E5,1.5477469E5,2.4558375E4,7.66495E4,8.982816E4,4.4480688E4,3.3434062E4,0E0,0E0,1.9631125E4,6.1157797E4,8.128531E4,4.0397725E3,1.7114352E4,4.5970375E4,1.0375543E4,4.6800625E3,5.661875E3,0E0,9.448281E3,3.41752E4,1.3886766E4,6.640801E3,3.3558124E2,0E0,2.8367788E3,7.040499E3,1.9053143E4,1.4816875E4,0E0,6.293032E2,0E0,0E0,2.1721875E3,0E0,0E0,0E0,0E0,6.316865E3,5.6606875E3,0E0,8.777802E3,4.510039E3,0E0,4.766536E1,0E0,0E0,0E0,0E0,0E0,0E0,0E0,0E0,0E0,0E0,0E0,0E0,0E0,0E0,0E0,0E0,0E0,0E0,0E0,0E0,0E0,0E0],"parents":[2147483647,0,0,1,1,2,2,3,3,4,4,5,5,6,6,7,7,8,8,11,11,12,12,13,13,14,14,15,15,16,16,17,17,18,18,19,19,21,21,22,22,23,23,24,24,25,25,27,27,28,28,29,29,30,30,32,32,35,35,40,40,41,41,43,43,44,44,46,46],"right_children":[2,4,6,8,10,12,14,16,18,-1,-1,20,22,24,26,28,30,32,34,36,-1,38,40,42,44,46,-1,48,50,52,54,-1,56,-1,-1,58,-1,-1,-1,-1,60,62,-1,64,66,-1,68,-1,-1,-1,-1,-1,-1,-1,-1,-1,-1,-1,-1,-1,-1,-1,-1,-1,-1,-1,-1,-1,-1],"split_conditions":[2.014E3,1.713E3,1.084E3,1.41E3,9E0,2.021E3,1.2E1,1.174E3,1.256E3,3.4623706E0,1.2050561E0,1.12E3,5E0,2.021E3,1.003E3,3E0,1.2556666E3,1.228E3,3E0,5E0,-7.2787637E-1,9.37E2,9.96E2,1.243E3,1.229E3,2.017E3,4.538425E-1,1.276E3,1.226E3,1.365E3,1.172E3,1.0116361E0,6E0,7.275277E-1,1.9338164E0,8.36E2,-1.4403775E0,-9.68457E-2,-1.2075094E0,8.532926E-1,1.1E1,1.086E3,2.2537231E-2,1.166E3,6E0,-8.3071284E-2,2.019E3,-4.7961515E-1,-1.21191405E-2,7.7253294E-1,1.00743406E-1,5.295614E-1,-1.0573399E-1,5.4669593E-2,9.611002E-1,-5.6469116E-2,2.0949279E-1,-5.477032E-1,-2.0290341E0,-9.48291E-2,-7.8150964E-1,-1.9170348E-1,-1.203914E0,-3.072716E-1,1.0941598E-1,-1.5850829E-2,-7.8295594E-1,1.1436767E-1,1.335266E-2],"split_indices":[1,3,3,3,0,1,0,3,4,0,0,2,0,1,2,0,4,4,0,0,0,2,3,2,3,1,0,2,4,3,2,0,0,0,0,2,0,0,0,0,0,3,0,3,0,0,1,0,0,0,0,0,0,0,0,0,0,0,0,0,0,0,0,0,0,0,0,0,0],"split_type":[0,0,0,0,0,0,0,0,0,0,0,0,0,0,0,0,0,0,0,0,0,0,0,0,0,0,0,0,0,0,0,0,0,0,0,0,0,0,0,0,0,0,0,0,0,0,0,0,0,0,0,0,0,0,0,0,0,0,0,0,0,0,0,0,0,0,0,0,0],"sum_hessian":[2.61E2,1.2E2,1.41E2,1.08E2,1.2E1,7.9E1,6.2E1,8.5E1,2.3E1,1E1,2E0,5.7E1,2.2E1,5.1E1,1.1E1,1.1E1,7.4E1,6E0,1.7E1,5.2E1,5E0,1.5E1,7E0,2E1,3.1E1,3E0,8E0,5E0,6E0,2.3E1,5.1E1,4E0,2E0,2E0,1.5E1,1.5E1,3.7E1,1E0,1.4E1,2E0,5E0,1.9E1,1E0,2.7E1,4E0,1E0,2E0,3E0,2E0,2E0,4E0,1.7E1,6E0,2E0,4.9E1,1E0,1E0,1E0,1.4E1,3E0,2E0,1E0,1.8E1,2.1E1,6E0,1E0,3E0,1E0,1E0],"tree_param":{"num_deleted":"0","num_feature":"5","num_nodes":"69","size_leaf_vector":"1"}},{"base_weights":[2.9902288E-1,1.1304884E2,-9.577863E1,8.757633E1,3.1793002E2,-1.3509062E2,-4.4338364E1,6.664761E1,1.5892189E2,3.4308941E0,1.1970223E0,-1.547821E2,-7.95603E1,-6.167365E1,3.4476055E1,7.1803994E0,7.527373E1,7.603193E1,1.8232788E2,-1.6434001E2,-9.247019E1,-1.1335195E2,-2.0319672E0,-1.0949674E2,-2.8362442E1,2.2213135E0,4.498082E1,-3.2336468E1,4.0026226E1,3.6284534E1,9.182117E1,1.0035435E0,1.0150594E1,7.2267735E-1,1.9156866E0,-2.0532632E2,-1.4383588E0,-1.86333E-1,-9.860392E1,-9.636169E-2,-1.1962392E0,8.476041E-1,-4.5089497E1,-1.15195816E2,2.2424316E-2,-3.384389E1,8.006152E0,-8.265564E-2,8.472127E0,1.9760986E-1,4.936349E-1,-4.7601804E-1,-1.2038574E-2,7.6738244E-1,9.9937744E-2,1.0010257E0,2.2400884E-1,7.256075E-1,1.1478715E0,-5.6186523E-2,2.0844543E-1,-5.449646E-1,-2.1273658E0,-1.1427976E0,-5.043918E-1,-6.0007787E-1,1.4750977E-1,-1.8849243E-1,-1.1927463E0,-5.06019E-1,-2.0023888E-1,2.7051595E-1,-1.3708007E-1,1.1379577E-1,1.3286132E-2],"categories":[],"categories_nodes":[],"categories_segments":[],"categories_sizes":[],"default_left":[0,0,0,0,0,0,0,0,0,0,0,0,0,0,0,0,0,0,0,0,0,0,0,0,0,0,0,0,0,0,0,0,0,0,0,0,0,0,0,0,0,0,0,0,0,0,0,0,0,0,0,0,0,0,0,0,0,0,0,0,0,0,0,0,0,0,0,0,0,0,0,0,0,0,0],"id":18,"left_children":[1,3,5,7,9,11,13,15,17,-1,-1,19,21,23,25,27,29,31,33,35,37,39,41,43,45,47,49,51,53,55,57,-1,59,-1,-1,61,-1,-1,63,-1,-1,-1,65,67,-1,69,71,-1,73,-1,-1,-1,-1,-1,-1,-1,-1,-1,-1,-1,-1,-1,-1,-1,-1,-1,-1,-1,-1,-1,-1,-1,-1,-1,-1],"loss_changes":[2.8490052E6,6.036365E5,2.8116538E5,1.5216394E5,2.376625E4,7.5163375E4,8.82013E4,4.357503E4,3.2700188E4,0E0,0E0,1.9346625E4,6.0025312E4,7.973275E4,3.9660254E3,1.6869877E4,4.5056156E4,1.0198102E4,4.4625E3,1.164575E4,2.6916406E3,9.255328E3,3.371833E4,1.3631328E4,6.650242E3,3.3223297E2,1.9300781E1,2.7941929E3,6.950956E3,1.9022271E4,1.4672344E4,0E0,6.230248E2,0E0,0E0,4.05425E3,0E0,0E0,1.0310312E3,0E0,0E0,0E0,6.2414795E3,5.6113438E3,0E0,5.4714297E3,2.4386025E3,0E0,4.7189163E1,0E0,0E0,0E0,0E0,0E0,0E0,0E0,0E0,0E0,0E0,0E0,0E0,0E0,0E0,0E0,0E0,0E0,0E0,0E0,0E0,0E0,0E0,0E0,0E0,0E0,0E0],"parents":[2147483647,0,0,1,1,2,2,3,3,4,4,5,5,6,6,7,7,8,8,11,11,12,12,13,13,14,14,15,15,16,16,17,17,18,18,19,19,20,20,21,21,22,22,23,23,24,24,25,25,26,26,27,27,28,28,29,29,30,30,32,32,35,35,38,38,42,42,43,43,45,45,46,46,48,48],"right_children":[2,4,6,8,10,12,14,16,18,-1,-1,20,22,24,26,28,30,32,34,36,38,40,42,44,46,48,50,52,54,56,58,-1,60,-1,-1,62,-1,-1,64,-1,-1,-1,66,68,-1,70,72,-1,74,-1,-1,-1,-1,-1,-1,-1,-1,-1,-1,-1,-1,-1,-1,-1,-1,-1,-1,-1,-1,-1,-1,-1,-1,-1,-1],"split_conditions":[2.014E3,1.713E3,1.084E3,1.41E3,9E0,2.021E3,1.2E1,1.174E3,1.256E3,3.4308941E0,1.1970223E0,1.098E3,5E0,2.021E3,1.003E3,3E0,1.2556666E3,1.228E3,3E0,5E0,1.102E3,9.37E2,9.96E2,1.243E3,1.19E3,2.017E3,9.9E2,1.276E3,1.226E3,1.2E3,2.011E3,1.0035435E0,6E0,7.2267735E-1,1.9156866E0,8.36E2,-1.4383588E0,-1.86333E-1,6E0,-9.636169E-2,-1.1962392E0,8.476041E-1,1.221E3,9.07E2,2.2424316E-2,7E0,1.216E3,-8.265564E-2,2.019E3,1.9760986E-1,4.936349E-1,-4.7601804E-1,-1.2038574E-2,7.6738244E-1,9.9937744E-2,1.0010257E0,2.2400884E-1,7.256075E-1,1.1478715E0,-5.6186523E-2,2.0844543E-1,-5.449646E-1,-2.1273658E0,-1.1427976E0,-5.043918E-1,-6.0007787E-1,1.4750977E-1,-1.8849243E-1,-1.1927463E0,-5.06019E-1,-2.0023888E-1,2.7051595E-1,-1.3708007E-1,1.1379577E-1,1.3286132E-2],"split_indices":[1,3,3,3,0,1,0,3,4,0,0,2,0,1,2,0,4,4,0,0,2,2,3,2,4,1,4,2,4,3,1,0,0,0,0,2,0,0,0,0,0,0,2,2,0,0,2,0,1,0,0,0,0,0,0,0,0,0,0,0,0,0,0,0,0,0,0,0,0,0,0,0,0,0,0],"split_type":[0,0,0,0,0,0,0,0,0,0,0,0,0,0,0,0,0,0,0,0,0,0,0,0,0,0,0,0,0,0,0,0,0,0,0,0,0,0,0,0,0,0,0,0,0,0,0,0,0,0,0,0,0,0,0,0,0,0,0,0,0,0,0,0,0,0,0,0,0,0,0,0,0,0,0],"sum_hessian":[2.61E2,1.2E2,1.41E2,1.08E2,1.2E1,7.9E1,6.2E1,8.5E1,2.3E1,1E1,2E0,5.7E1,2.2E1,5.1E1,1.1E1,1.1E1,7.4E1,6E0,1.7E1,4.8E1,9E0,1.5E1,7E0,2E1,3.1E1,3E0,8E0,5E0,6E0,2.3E1,5.1E1,4E0,2E0,2E0,1.5E1,1.3E1,3.5E1,1E0,8E0,1E0,1.4E1,2E0,5E0,1.9E1,1E0,2.7E1,4E0,1E0,2E0,2E0,6E0,3E0,2E0,2E0,4E0,3E0,2E1,3E1,2.1E1,1E0,1E0,1E0,1.2E1,5E0,3E0,4E0,1E0,1E0,1.8E1,1.1E1,1.6E1,2E0,2E0,1E0,1E0],"tree_param":{"num_deleted":"0","num_feature":"5","num_nodes":"75","size_leaf_vector":"1"}},{"base_weights":[3.1077844E-1,1.1201672E2,-9.4877464E1,8.67673E1,3.1510672E2,-1.3382523E2,-4.3913986E1,6.60216E1,1.5749078E2,3.3997042E0,1.1890421E0,-1.5333679E2,-7.8803696E1,-6.1094078E1,3.4192585E1,7.1402183E0,7.456233E1,7.5436714E1,1.8065121E2,-1.597148E2,-7.14415E-1,-1.1229918E2,-1.962265E0,-1.0846648E2,-2.8096752E1,2.210205E0,4.4607803E1,-3.2094402E1,3.974986E1,3.5972748E1,9.093902E1,9.955151E1,1.00998125E1,8.769171E-1,1.93397E0,-1.6522595E0,-8.9006406E-1,-9.588013E-2,-1.1850739E2,8.419531E-1,-4.471401E1,-1.1683468E2,-1.9312378E1,-2.0947165E1,-6.2515087E1,-8.224243E-2,8.429769E0,1.9629233E-1,4.894036E-1,-4.7244748E-1,-1.1958008E-2,7.622668E-1,9.913793E-2,9.9351835E-1,2.218755E-1,4.9467772E-2,9.4279766E-1,1.0919696E0,3.048486E-1,-5.590576E-2,2.0740294E-1,-3.5164672E-1,-1.2194867E0,-9.1485895E-2,-7.7229893E-1,-1.8478149E-1,-1.2127236E0,2.2312012E-2,-3.1199768E-1,-3.0180115E-1,1.1063127E-1,-1.3241577E-2,-7.7481776E-1,1.1322693E-1,1.3219604E-2],"categories":[],"categories_nodes":[],"categories_segments":[],"categories_sizes":[],"default_left":[0,0,0,0,0,0,0,0,0,0,0,0,0,0,0,0,0,0,0,0,0,0,0,0,0,0,0,0,0,0,0,0,0,0,0,0,0,0,0,0,0,0,0,0,0,0,0,0,0,0,0,0,0,0,0,0,0,0,0,0,0,0,0,0,0,0,0,0,0,0,0,0,0,0,0],"id":19,"left_children":[1,3,5,7,9,11,13,15,17,-1,-1,19,21,23,25,27,29,31,33,35,-1,37,39,41,43,45,47,49,51,53,55,57,59,-1,-1,-1,-1,-1,61,-1,63,65,67,69,71,-1,73,-1,-1,-1,-1,-1,-1,-1,-1,-1,-1,-1,-1,-1,-1,-1,-1,-1,-1,-1,-1,-1,-1,-1,-1,-1,-1,-1,-1],"loss_changes":[2.7964982E6,5.931355E5,2.7598088E5,1.49528E5,2.299425E4,7.3800875E4,8.662728E4,4.2716156E4,3.1982E4,0E0,0E0,1.8885E4,5.897797E4,7.823691E4,3.8986475E3,1.662887E4,4.4126375E4,1.0023656E4,4.367875E3,5.947125E3,0E0,9.0661875E3,3.3231805E4,1.3410906E4,6.5649453E3,3.289193E2,1.3328125E1,2.7522524E3,6.862578E3,1.876426E4,1.4472125E4,2.0390625E0,6.168102E2,0E0,0E0,0E0,0E0,0E0,1.38125E1,0E0,6.2321045E3,6.052125E3,8.379038E2,8.6092705E3,4.4765293E3,0E0,4.6718887E1,0E0,0E0,0E0,0E0,0E0,0E0,0E0,0E0,0E0,0E0,0E0,0E0,0E0,0E0,0E0,0E0,0E0,0E0,0E0,0E0,0E0,0E0,0E0,0E0,0E0,0E0,0E0,0E0],"parents":[2147483647,0,0,1,1,2,2,3,3,4,4,5,5,6,6,7,7,8,8,11,11,12,12,13,13,14,14,15,15,16,16,17,17,18,18,19,19,21,21,22,22,23,23,24,24,25,25,26,26,27,27,28,28,29,29,30,30,31,31,32,32,38,38,40,40,41,41,42,42,43,43,44,44,46,46],"right_children":[2,4,6,8,10,12,14,16,18,-1,-1,20,22,24,26,28,30,32,34,36,-1,38,40,42,44,46,48,50,52,54,56,58,60,-1,-1,-1,-1,-1,62,-1,64,66,68,70,72,-1,74,-1,-1,-1,-1,-1,-1,-1,-1,-1,-1,-1,-1,-1,-1,-1,-1,-1,-1,-1,-1,-1,-1,-1,-1,-1,-1,-1,-1],"split_conditions":[2.014E3,1.713E3,1.084E3,1.41E3,9E0,2.021E3,1.2E1,1.174E3,1.256E3,3.3997042E0,1.1890421E0,1.12E3,5E0,2.021E3,1.003E3,3E0,1.2556666E3,1.228E3,4E0,1.068E3,-7.14415E-1,9.37E2,9.96E2,1.222E3,1.229E3,2.017E3,9.9E2,1.276E3,1.226E3,1.2E3,1.172E3,2.013E3,6E0,8.769171E-1,1.93397E0,-1.6522595E0,-8.9006406E-1,-9.588013E-2,2E0,8.419531E-1,1.1E1,1.086E3,2.015E3,1.166E3,6E0,-8.224243E-2,2.019E3,1.9629233E-1,4.894036E-1,-4.7244748E-1,-1.1958008E-2,7.622668E-1,9.913793E-2,9.9351835E-1,2.218755E-1,4.9467772E-2,9.4279766E-1,1.0919696E0,3.048486E-1,-5.590576E-2,2.0740294E-1,-3.5164672E-1,-1.2194867E0,-9.1485895E-2,-7.7229893E-1,-1.8478149E-1,-1.2127236E0,2.2312012E-2,-3.1199768E-1,-3.0180115E-1,1.1063127E-1,-1.3241577E-2,-7.7481776E-1,1.1322693E-1,1.3219604E-2],"split_indices":[1,3,3,3,0,1,0,3,4,0,0,2,0,1,2,0,4,4,0,3,0,2,3,2,3,1,4,2,4,3,2,1,0,0,0,0,0,0,0,0,0,3,1,3,0,0,1,0,0,0,0,0,0,0,0,0,0,0,0,0,0,0,0,0,0,0,0,0,0,0,0,0,0,0,0],"split_type":[0,0,0,0,0,0,0,0,0,0,0,0,0,0,0,0,0,0,0,0,0,0,0,0,0,0,0,0,0,0,0,0,0,0,0,0,0,0,0,0,0,0,0,0,0,0,0,0,0,0,0,0,0,0,0,0,0,0,0,0,0,0,0,0,0,0,0,0,0,0,0,0,0,0,0],"sum_hessian":[2.61E2,1.2E2,1.41E2,1.08E2,1.2E1,7.9E1,6.2E1,8.5E1,2.3E1,1E1,2E0,5.7E1,2.2E1,5.1E1,1.1E1,1.1E1,7.4E1,6E0,1.7E1,5.2E1,5E0,1.5E1,7E0,2E1,3.1E1,3E0,8E0,5E0,6E0,2.3E1,5.1E1,4E0,2E0,3E0,1.4E1,4.7E1,5E0,1E0,1.4E1,2E0,5E0,1.8E1,2E0,2.7E1,4E0,1E0,2E0,2E0,6E0,3E0,2E0,2E0,4E0,3E0,2E1,2E0,4.9E1,3E0,1E0,1E0,1E0,1E0,1.3E1,3E0,2E0,1E0,1.7E1,1E0,1E0,2.1E1,6E0,1E0,3E0,1E0,1E0],"tree_param":{"num_deleted":"0","num_feature":"5","num_nodes":"75","size_leaf_vector":"1"}},{"base_weights":[3.2541987E-1,1.1099188E2,-9.397717E1,8.5963356E1,3.1230865E2,-1.3254883E2,-4.350558E1,6.539146E1,1.5609752E2,3.3687983E0,1.1811149E0,-1.518596E2,-7.808909E1,-6.0534416E1,3.39115E1,7.10024E0,7.384616E1,7.4903564E1,1.7900087E2,-1.6123979E2,-9.071077E1,-1.1128038E2,-1.9453735E0,-1.0746212E2,-2.7846413E1,2.1991577E0,4.423793E1,-3.1854208E1,3.9475445E1,3.566362E1,9.004875E1,9.88354E-1,1.0049316E1,8.7033993E-1,1.9159198E0,-2.0192978E2,-1.4093701E0,-1.771405E-1,-9.685329E1,-9.5401E-2,-1.1742705E0,8.363403E-1,-4.4410847E1,-1.1305723E2,2.2200316E-2,-3.328772E1,8.194189E0,-8.183105E-2,8.387614E0,1.9498372E-1,4.8520893E-1,-4.689044E-1,-1.1878256E-2,7.571854E-1,9.8344974E-2,5.177677E-1,-1.0865007E-1,7.1003866E-1,1.127916E0,-5.562622E-2,2.0636596E-1,-5.339789E-1,-2.0924778E0,-1.124195E0,-4.9290648E-1,-9.0800166E-2,-7.6715004E-1,-1.814862E-1,-1.1709722E0,-3.9758205E-1,-2.9362384E-2,2.7072427E-1,-1.3415445E-1,1.1266052E-1,1.3153686E-2],"categories":[],"categories_nodes":[],"categories_segments":[],"categories_sizes":[],"default_left":[0,0,0,0,0,0,0,0,0,0,0,0,0,0,0,0,0,0,0,0,0,0,0,0,0,0,0,0,0,0,0,0,0,0,0,0,0,0,0,0,0,0,0,0,0,0,0,0,0,0,0,0,0,0,0,0,0,0,0,0,0,0,0,0,0,0,0,0,0,0,0,0,0,0,0],"id":20,"left_children":[1,3,5,7,9,11,13,15,17,-1,-1,19,21,23,25,27,29,31,33,35,37,39,41,43,45,47,49,51,53,55,57,-1,59,-1,-1,61,-1,-1,63,-1,-1,-1,65,67,-1,69,71,-1,73,-1,-1,-1,-1,-1,-1,-1,-1,-1,-1,-1,-1,-1,-1,-1,-1,-1,-1,-1,-1,-1,-1,-1,-1,-1,-1],"loss_changes":[2.7446978E6,5.82831E5,2.7067525E5,1.47057E5,2.2242125E4,7.227425E4,8.510713E4,4.185953E4,3.1222938E4,0E0,0E0,1.864175E4,5.791161E4,7.677414E4,3.832417E3,1.639136E4,4.318772E4,9.871336E3,4.1683125E3,1.2020625E4,2.7681797E3,8.885578E3,3.2787617E4,1.3138344E4,6.5482246E3,3.2563745E2,7.5507812E0,2.7109438E3,6.7753037E3,1.8555904E4,1.4514375E4,0E0,6.106575E2,0E0,0E0,4.044E3,0E0,0E0,1.1220938E3,0E0,0E0,0E0,6.151423E3,5.5434844E3,0E0,5.3821465E3,2.4029482E3,0E0,4.625206E1,0E0,0E0,0E0,0E0,0E0,0E0,0E0,0E0,0E0,0E0,0E0,0E0,0E0,0E0,0E0,0E0,0E0,0E0,0E0,0E0,0E0,0E0,0E0,0E0,0E0,0E0],"parents":[2147483647,0,0,1,1,2,2,3,3,4,4,5,5,6,6,7,7,8,8,11,11,12,12,13,13,14,14,15,15,16,16,17,17,18,18,19,19,20,20,21,21,22,22,23,23,24,24,25,25,26,26,27,27,28,28,29,29,30,30,32,32,35,35,38,38,42,42,43,43,45,45,46,46,48,48],"right_children":[2,4,6,8,10,12,14,16,18,-1,-1,20,22,24,26,28,30,32,34,36,38,40,42,44,46,48,50,52,54,56,58,-1,60,-1,-1,62,-1,-1,64,-1,-1,-1,66,68,-1,70,72,-1,74,-1,-1,-1,-1,-1,-1,-1,-1,-1,-1,-1,-1,-1,-1,-1,-1,-1,-1,-1,-1,-1,-1,-1,-1,-1,-1],"split_conditions":[2.014E3,1.713E3,1.084E3,1.41E3,9E0,2.021E3,1.2E1,1.174E3,1.256E3,3.3687983E0,1.1811149E0,1.098E3,5E0,2.021E3,1.003E3,3E0,1.2556666E3,1.228E3,4E0,5E0,1.102E3,9.37E2,9.96E2,1.243E3,1.19E3,2.017E3,9.9E2,1.276E3,1.226E3,1.365E3,2.011E3,9.88354E-1,6E0,8.7033993E-1,1.9159198E0,8.36E2,-1.4093701E0,-1.771405E-1,6E0,-9.5401E-2,-1.1742705E0,8.363403E-1,1.1E1,9.07E2,2.2200316E-2,2.025E3,1.216E3,-8.183105E-2,2.019E3,1.9498372E-1,4.8520893E-1,-4.689044E-1,-1.1878256E-2,7.571854E-1,9.8344974E-2,5.177677E-1,-1.0865007E-1,7.1003866E-1,1.127916E0,-5.562622E-2,2.0636596E-1,-5.339789E-1,-2.0924778E0,-1.124195E0,-4.9290648E-1,-9.0800166E-2,-7.6715004E-1,-1.814862E-1,-1.1709722E0,-3.9758205E-1,-2.9362384E-2,2.7072427E-1,-1.3415445E-1,1.1266052E-1,1.3153686E-2],"split_indices":[1,3,3,3,0,1,0,3,4,0,0,2,0,1,2,0,4,4,0,0,2,2,3,2,4,1,4,2,4,3,1,0,0,0,0,2,0,0,0,0,0,0,0,2,0,1,2,0,1,0,0,0,0,0,0,0,0,0,0,0,0,0,0,0,0,0,0,0,0,0,0,0,0,0,0],"split_type":[0,0,0,0,0,0,0,0,0,0,0,0,0,0,0,0,0,0,0,0,0,0,0,0,0,0,0,0,0,0,0,0,0,0,0,0,0,0,0,0,0,0,0,0,0,0,0,0,0,0,0,0,0,0,0,0,0,0,0,0,0,0,0,0,0,0,0,0,0,0,0,0,0,0,0],"sum_hessian":[2.61E2,1.2E2,1.41E2,1.08E2,1.2E1,7.9E1,6.2E1,8.5E1,2.3E1,1E1,2E0,5.7E1,2.2E1,5.1E1,1.1E1,1.1E1,7.4E1,6E0,1.7E1,4.8E1,9E0,1.5E1,7E0,2E1,3.1E1,3E0,8E0,5E0,6E0,2.3E1,5.1E1,4E0,2E0,3E0,1.4E1,1.3E1,3.5E1,1E0,8E0,1E0,1.4E1,2E0,5E0,1.9E1,1E0,2.7E1,4E0,1E0,2E0,2E0,6E0,3E0,2E0,2E0,4E0,1.7E1,6E0,3E1,2.1E1,1E0,1E0,1E0,1.2E1,5E0,3E0,3E0,2E0,1E0,1.8E1,2.2E1,5E0,2E0,2E0,1E0,1E0],"tree_param":{"num_deleted":"0","num_feature":"5","num_nodes":"75","size_leaf_vector":"1"}},{"base_weights":[3.3392334E-1,1.09973656E2,-9.3093834E1,8.516376E1,3.0953558E2,-1.3131232E2,-4.308474E1,6.476799E1,1.547001E2,3.338173E0,1.1732405E0,-1.504415E2,-7.736431E1,-5.9960217E1,3.363272E1,7.060435E0,7.313763E1,7.431722E1,1.7736566E2,-1.56696E2,-7.0119834E-1,-1.1024689E2,-1.9286194E0,-1.064508E2,-2.7577015E1,2.1881409E0,4.387112E1,-3.1615824E1,3.920288E1,3.532399E1,8.918358E1,9.804468E1,9.999064E0,7.062109E-1,1.8629491E0,-1.9031293E2,-1.3841792E0,-9.4923705E-2,-1.1633103E2,8.30765E-1,-4.410974E1,-1.1468253E2,-1.8832886E1,-2.049346E1,-6.1729515E1,-8.142212E-2,8.345662E0,1.9368407E-1,4.810498E-1,-4.6538788E-1,-1.1799316E-2,7.521374E-1,9.755786E-2,9.821832E-1,2.166202E-1,7.0316696E-1,1.1171494E0,1.0763671E0,2.9838255E-1,-5.53479E-2,2.0533386E-1,-5.313092E-1,-1.9591632E0,-3.4401673E-1,-1.1972587E0,6.0701496E-3,-6.6619873E-1,-1.7800231E-1,-1.1907598E0,2.2089234E-2,-3.045825E-1,-2.9664207E-1,1.1256522E-1,-1.1187744E-2,-7.6602507E-1,1.1209717E-1,1.3087768E-2],"categories":[],"categories_nodes":[],"categories_segments":[],"categories_sizes":[],"default_left":[0,0,0,0,0,0,0,0,0,0,0,0,0,0,0,0,0,0,0,0,0,0,0,0,0,0,0,0,0,0,0,0,0,0,0,0,0,0,0,0,0,0,0,0,0,0,0,0,0,0,0,0,0,0,0,0,0,0,0,0,0,0,0,0,0,0,0,0,0,0,0,0,0,0,0,0,0],"id":21,"left_children":[1,3,5,7,9,11,13,15,17,-1,-1,19,21,23,25,27,29,31,33,35,-1,37,39,41,43,45,47,49,51,53,55,57,59,-1,-1,61,-1,-1,63,-1,65,67,69,71,73,-1,75,-1,-1,-1,-1,-1,-1,-1,-1,-1,-1,-1,-1,-1,-1,-1,-1,-1,-1,-1,-1,-1,-1,-1,-1,-1,-1,-1,-1,-1,-1],"loss_changes":[2.6940072E6,5.7272325E5,2.6574312E5,1.4456931E5,2.1509125E4,7.0919625E4,8.357918E4,4.1020844E4,3.0544875E4,0E0,0E0,1.8150125E4,5.6839312E4,7.535114E4,3.7673096E3,1.6157227E4,4.2356375E4,9.702391E3,4.0003125E3,6.22325E3,0E0,8.703828E3,3.2349373E4,1.2986375E4,6.476424E3,3.2238962E2,1.953125E0,2.6702505E3,6.6891377E3,1.8494639E4,1.4249594E4,5.9503906E1,6.045639E2,0E0,0E0,1.88975E3,0E0,0E0,5.328125E1,0E0,6.07992E3,5.9677344E3,8.011361E2,8.486703E3,4.421615E3,0E0,4.579106E1,0E0,0E0,0E0,0E0,0E0,0E0,0E0,0E0,0E0,0E0,0E0,0E0,0E0,0E0,0E0,0E0,0E0,0E0,0E0,0E0,0E0,0E0,0E0,0E0,0E0,0E0,0E0,0E0,0E0,0E0],"parents":[2147483647,0,0,1,1,2,2,3,3,4,4,5,5,6,6,7,7,8,8,11,11,12,12,13,13,14,14,15,15,16,16,17,17,18,18,19,19,21,21,22,22,23,23,24,24,25,25,26,26,27,27,28,28,29,29,30,30,31,31,32,32,35,35,38,38,40,40,41,41,42,42,43,43,44,44,46,46],"right_children":[2,4,6,8,10,12,14,16,18,-1,-1,20,22,24,26,28,30,32,34,36,-1,38,40,42,44,46,48,50,52,54,56,58,60,-1,-1,62,-1,-1,64,-1,66,68,70,72,74,-1,76,-1,-1,-1,-1,-1,-1,-1,-1,-1,-1,-1,-1,-1,-1,-1,-1,-1,-1,-1,-1,-1,-1,-1,-1,-1,-1,-1,-1,-1,-1],"split_conditions":[2.014E3,1.713E3,1.084E3,1.41E3,9E0,2.021E3,1.2E1,1.174E3,1.256E3,3.338173E0,1.1732405E0,1.12E3,5E0,2.021E3,1.003E3,3E0,1.2556666E3,1.228E3,3E0,5E0,-7.0119834E-1,9.37E2,9.96E2,1.222E3,1.229E3,2.017E3,9.9E2,1.276E3,1.226E3,1.2E3,2.011E3,2.013E3,6E0,7.062109E-1,1.8629491E0,8.36E2,-1.3841792E0,-9.4923705E-2,2E0,8.30765E-1,8E0,1.086E3,2.015E3,1.166E3,6E0,-8.142212E-2,2.019E3,1.9368407E-1,4.810498E-1,-4.6538788E-1,-1.1799316E-2,7.521374E-1,9.755786E-2,9.821832E-1,2.166202E-1,7.0316696E-1,1.1171494E0,1.0763671E0,2.9838255E-1,-5.53479E-2,2.0533386E-1,-5.313092E-1,-1.9591632E0,-3.4401673E-1,-1.1972587E0,6.0701496E-3,-6.6619873E-1,-1.7800231E-1,-1.1907598E0,2.2089234E-2,-3.045825E-1,-2.9664207E-1,1.1256522E-1,-1.1187744E-2,-7.6602507E-1,1.1209717E-1,1.3087768E-2],"split_indices":[1,3,3,3,0,1,0,3,4,0,0,2,0,1,2,0,4,4,0,0,0,2,3,2,3,1,4,2,4,3,1,1,0,0,0,2,0,0,0,0,0,3,1,3,0,0,1,0,0,0,0,0,0,0,0,0,0,0,0,0,0,0,0,0,0,0,0,0,0,0,0,0,0,0,0,0,0],"split_type":[0,0,0,0,0,0,0,0,0,0,0,0,0,0,0,0,0,0,0,0,0,0,0,0,0,0,0,0,0,0,0,0,0,0,0,0,0,0,0,0,0,0,0,0,0,0,0,0,0,0,0,0,0,0,0,0,0,0,0,0,0,0,0,0,0,0,0,0,0,0,0,0,0,0,0,0,0],"sum_hessian":[2.61E2,1.2E2,1.41E2,1.08E2,1.2E1,7.9E1,6.2E1,8.5E1,2.3E1,1E1,2E0,5.7E1,2.2E1,5.1E1,1.1E1,1.1E1,7.4E1,6E0,1.7E1,5.2E1,5E0,1.5E1,7E0,2E1,3.1E1,3E0,8E0,5E0,6E0,2.3E1,5.1E1,4E0,2E0,2E0,1.5E1,1.5E1,3.7E1,1E0,1.4E1,2E0,5E0,1.8E1,2E0,2.7E1,4E0,1E0,2E0,2E0,6E0,3E0,2E0,2E0,4E0,3E0,2E1,3E1,2.1E1,3E0,1E0,1E0,1E0,1E0,1.4E1,1E0,1.3E1,2E0,3E0,1E0,1.7E1,1E0,1E0,2.1E1,6E0,1E0,3E0,1E0,1E0],"tree_param":{"num_deleted":"0","num_feature":"5","num_nodes":"77","size_leaf_vector":"1"}},{"base_weights":[3.460805E-1,1.0897307E2,-9.221879E1,8.438079E1,3.067873E2,-1.3007474E2,-4.2683952E1,6.415974E1,1.533237E2,3.307826E0,1.1654191E0,-1.3486916E2,3.793819E-1,-5.941085E1,3.335625E1,7.020864E0,7.2446495E1,7.3791855E1,1.7573477E2,-1.49016E2,-8.937454E1,-1.054649E2,-2.7331291E1,2.1772156E0,4.350735E-1,-3.1379211E1,3.893223E1,3.5020657E1,8.832676E1,9.733916E1,9.949056E0,8.556241E-1,1.8806509E0,-1.582304E2,-8.896387E1,8.1641966E-1,-1.0200746E2,-1.1360772E2,-1.873873E1,-3.273163E1,8.376856E0,-8.101501E-2,8.303955E0,-4.6189788E-1,-1.1720377E-2,7.4712276E-1,9.677759E-2,9.7481686E-1,2.1455665E-1,3.9716795E-2,9.1621524E-1,1.068294E0,2.9689085E-1,-5.507141E-2,2.0430724E-1,-1.9838088E0,-1.3822104E0,-1.6645935E-1,-9.514964E-1,-9.444885E-2,-1.0638207E0,-1.7462464E-1,-1.1797898E0,2.197876E-2,-3.030597E-1,-4.932423E-1,-1.9093814E-1,2.7089682E-1,-1.3128255E-1,1.1153686E-1,1.3022461E-2],"categories":[],"categories_nodes":[],"categories_segments":[],"categories_sizes":[],"default_left":[0,0,0,0,0,0,0,0,0,0,0,0,0,0,0,0,0,0,0,0,0,0,0,0,0,0,0,0,0,0,0,0,0,0,0,0,0,0,0,0,0,0,0,0,0,0,0,0,0,0,0,0,0,0,0,0,0,0,0,0,0,0,0,0,0,0,0,0,0,0,0],"id":22,"left_children":[1,3,5,7,9,11,13,15,17,-1,-1,19,-1,21,23,25,27,29,31,33,35,37,39,41,-1,43,45,47,49,51,53,-1,-1,55,57,-1,59,61,63,65,67,-1,69,-1,-1,-1,-1,-1,-1,-1,-1,-1,-1,-1,-1,-1,-1,-1,-1,-1,-1,-1,-1,-1,-1,-1,-1,-1,-1,-1,-1],"loss_changes":[2.6444705E6,5.6274175E5,2.6072462E5,1.421195E5,2.0795E4,6.95585E4,8.211247E4,4.0212E4,2.9809625E4,0E0,0E0,3.6883E4,0E0,7.394197E4,3.703294E3,1.592645E4,4.1481656E4,9.554848E3,3.922125E3,1.801725E4,5.369733E4,1.2701234E4,6.4449434E3,3.191746E2,0E0,2.6301777E3,6.604039E3,1.8243266E4,1.40885E4,3.8414062E1,5.9853516E2,0E0,0E0,1.1945375E4,2.8895703E3,0E0,7.0937344E3,5.925047E3,7.9314514E2,5.394242E3,2.367747E3,0E0,4.5334137E1,0E0,0E0,0E0,0E0,0E0,0E0,0E0,0E0,0E0,0E0,0E0,0E0,0E0,0E0,0E0,0E0,0E0,0E0,0E0,0E0,0E0,0E0,0E0,0E0,0E0,0E0,0E0,0E0],"parents":[2147483647,0,0,1,1,2,2,3,3,4,4,5,5,6,6,7,7,8,8,11,11,13,13,14,14,15,15,16,16,17,17,18,18,19,19,20,20,21,21,22,22,23,23,25,25,26,26,27,27,28,28,29,29,30,30,33,33,34,34,36,36,37,37,38,38,39,39,40,40,42,42],"right_children":[2,4,6,8,10,12,14,16,18,-1,-1,20,-1,22,24,26,28,30,32,34,36,38,40,42,-1,44,46,48,50,52,54,-1,-1,56,58,-1,60,62,64,66,68,-1,70,-1,-1,-1,-1,-1,-1,-1,-1,-1,-1,-1,-1,-1,-1,-1,-1,-1,-1,-1,-1,-1,-1,-1,-1,-1,-1,-1,-1],"split_conditions":[2.014E3,1.713E3,1.084E3,1.41E3,9E0,1.266E3,1.2E1,1.174E3,1.256E3,3.307826E0,1.1654191E0,2.021E3,3.793819E-1,2.021E3,1.003E3,3E0,1.2556666E3,1.228E3,4E0,1.098E3,9.9E2,1.222E3,1.19E3,2.017E3,4.350735E-1,1.276E3,1.226E3,1.2E3,1.172E3,2.013E3,6E0,8.556241E-1,1.8806509E0,5E0,1.102E3,8.1641966E-1,9.37E2,9.07E2,2.015E3,7E0,1.216E3,-8.101501E-2,2.019E3,-4.6189788E-1,-1.1720377E-2,7.4712276E-1,9.677759E-2,9.7481686E-1,2.1455665E-1,3.9716795E-2,9.1621524E-1,1.068294E0,2.9689085E-1,-5.507141E-2,2.0430724E-1,-1.9838088E0,-1.3822104E0,-1.6645935E-1,-9.514964E-1,-9.444885E-2,-1.0638207E0,-1.7462464E-1,-1.1797898E0,2.197876E-2,-3.030597E-1,-4.932423E-1,-1.9093814E-1,2.7089682E-1,-1.3128255E-1,1.1153686E-1,1.3022461E-2],"split_indices":[1,3,3,3,0,2,0,3,4,0,0,1,0,1,2,0,4,4,0,2,4,2,4,1,0,2,4,3,2,1,0,0,0,0,2,0,2,2,1,0,2,0,1,0,0,0,0,0,0,0,0,0,0,0,0,0,0,0,0,0,0,0,0,0,0,0,0,0,0,0,0],"split_type":[0,0,0,0,0,0,0,0,0,0,0,0,0,0,0,0,0,0,0,0,0,0,0,0,0,0,0,0,0,0,0,0,0,0,0,0,0,0,0,0,0,0,0,0,0,0,0,0,0,0,0,0,0,0,0,0,0,0,0,0,0,0,0,0,0,0,0,0,0,0,0],"sum_hessian":[2.61E2,1.2E2,1.41E2,1.08E2,1.2E1,7.9E1,6.2E1,8.5E1,2.3E1,1E1,2E0,7.7E1,2E0,5.1E1,1.1E1,1.1E1,7.4E1,6E0,1.7E1,5.7E1,2E1,2E1,3.1E1,3E0,8E0,5E0,6E0,2.3E1,5.1E1,4E0,2E0,3E0,1.4E1,4.8E1,9E0,1E0,1.9E1,1.8E1,2E0,2.7E1,4E0,1E0,2E0,3E0,2E0,2E0,4E0,3E0,2E1,2E0,4.9E1,3E0,1E0,1E0,1E0,1.3E1,3.5E1,1E0,8E0,1E0,1.8E1,1E0,1.7E1,1E0,1E0,1.1E1,1.6E1,2E0,2E0,1E0,1E0],"tree_param":{"num_deleted":"0","num_feature":"5","num_nodes":"71","size_leaf_vector":"1"}},{"base_weights":[3.6204565E-1,1.07976204E2,-9.133989E1,8.3599045E1,3.0406348E2,-1.2882957E2,-4.228411E1,6.354736E1,1.519676E2,3.2777548E0,1.1576498E0,-1.3358232E2,3.768526E-1,-5.8858654E1,3.306258E1,6.9815164E0,7.1750595E1,7.32703E1,1.7412947E2,-1.4760316E2,-8.8497055E1,-1.04488106E2,-2.7074993E1,2.1663208E0,4.3120632E1,-3.1144348E1,3.866347E1,3.4719967E1,8.746184E1,9.663884E1,9.899292E0,8.4920716E-1,1.8630984E0,-1.5671681E2,-8.818599E1,8.1233764E-1,-1.0104528E2,-1.099312E2,2.1868896E-2,-2.0051065E1,-6.0993996E1,-8.060974E-2,8.26241E0,1.8949218E-1,4.731972E-1,-4.584335E-1,-1.1642252E-2,7.421423E-1,9.600317E-2,5.062966E-1,-1.115067E-1,6.88061E-1,1.0977392E0,1.0602822E0,2.954065E-1,-5.479614E-2,2.0328552E-1,-1.965388E0,-1.3687723E0,-1.6562682E-1,-9.430383E-1,-9.397644E-2,-1.0537423E0,-1.7121337E-1,-1.1391481E0,-2.9136273E-1,1.136689E-1,-8.665161E-3,-7.5809234E-1,1.10979E-1,1.2957153E-2],"categories":[],"categories_nodes":[],"categories_segments":[],"categories_sizes":[],"default_left":[0,0,0,0,0,0,0,0,0,0,0,0,0,0,0,0,0,0,0,0,0,0,0,0,0,0,0,0,0,0,0,0,0,0,0,0,0,0,0,0,0,0,0,0,0,0,0,0,0,0,0,0,0,0,0,0,0,0,0,0,0,0,0,0,0,0,0,0,0,0,0],"id":23,"left_children":[1,3,5,7,9,11,13,15,17,-1,-1,19,-1,21,23,25,27,29,31,33,35,37,39,41,43,45,47,49,51,53,55,-1,-1,57,59,-1,61,63,-1,65,67,-1,69,-1,-1,-1,-1,-1,-1,-1,-1,-1,-1,-1,-1,-1,-1,-1,-1,-1,-1,-1,-1,-1,-1,-1,-1,-1,-1,-1,-1],"loss_changes":[2.5953905E6,5.5296675E5,2.5570275E5,1.397715E5,2.0099375E4,6.8346375E4,8.062276E4,3.940503E4,2.9099375E4,0E0,0E0,3.6243875E4,0E0,7.258506E4,3.6356592E3,1.5698971E4,4.0598156E4,9.4095625E3,3.7371875E3,1.7587125E4,5.2934516E4,1.2433891E4,6.400834E3,3.159891E2,1.6810547E1,2.5906963E3,6.520041E3,1.8079463E4,1.4091781E4,1.7914062E1,5.9256445E2,0E0,0E0,1.181075E4,2.8198828E3,0E0,6.9444844E3,5.4439844E3,0E0,8.323473E3,4.388326E3,0E0,4.4882248E1,0E0,0E0,0E0,0E0,0E0,0E0,0E0,0E0,0E0,0E0,0E0,0E0,0E0,0E0,0E0,0E0,0E0,0E0,0E0,0E0,0E0,0E0,0E0,0E0,0E0,0E0,0E0,0E0],"parents":[2147483647,0,0,1,1,2,2,3,3,4,4,5,5,6,6,7,7,8,8,11,11,13,13,14,14,15,15,16,16,17,17,18,18,19,19,20,20,21,21,22,22,23,23,24,24,25,25,26,26,27,27,28,28,29,29,30,30,33,33,34,34,36,36,37,37,39,39,40,40,42,42],"right_children":[2,4,6,8,10,12,14,16,18,-1,-1,20,-1,22,24,26,28,30,32,34,36,38,40,42,44,46,48,50,52,54,56,-1,-1,58,60,-1,62,64,-1,66,68,-1,70,-1,-1,-1,-1,-1,-1,-1,-1,-1,-1,-1,-1,-1,-1,-1,-1,-1,-1,-1,-1,-1,-1,-1,-1,-1,-1,-1,-1],"split_conditions":[2.014E3,1.713E3,1.084E3,1.41E3,9E0,1.266E3,1.2E1,1.174E3,1.256E3,3.2777548E0,1.1576498E0,2.021E3,3.768526E-1,2.021E3,1.003E3,3E0,1.2556666E3,1.228E3,4E0,1.098E3,9.9E2,1.243E3,1.229E3,2.017E3,9.9E2,1.276E3,1.226E3,1E1,2.011E3,2.013E3,6E0,8.4920716E-1,1.8630984E0,5E0,1.102E3,8.1233764E-1,9.37E2,1.086E3,2.1868896E-2,1.166E3,6E0,-8.060974E-2,2.019E3,1.8949218E-1,4.731972E-1,-4.584335E-1,-1.1642252E-2,7.421423E-1,9.600317E-2,5.062966E-1,-1.115067E-1,6.88061E-1,1.0977392E0,1.0602822E0,2.954065E-1,-5.479614E-2,2.0328552E-1,-1.965388E0,-1.3687723E0,-1.6562682E-1,-9.430383E-1,-9.397644E-2,-1.0537423E0,-1.7121337E-1,-1.1391481E0,-2.9136273E-1,1.136689E-1,-8.665161E-3,-7.5809234E-1,1.10979E-1,1.2957153E-2],"split_indices":[1,3,3,3,0,2,0,3,4,0,0,1,0,1,2,0,4,4,0,2,4,2,3,1,4,2,4,0,1,1,0,0,0,0,2,0,2,3,0,3,0,0,1,0,0,0,0,0,0,0,0,0,0,0,0,0,0,0,0,0,0,0,0,0,0,0,0,0,0,0,0],"split_type":[0,0,0,0,0,0,0,0,0,0,0,0,0,0,0,0,0,0,0,0,0,0,0,0,0,0,0,0,0,0,0,0,0,0,0,0,0,0,0,0,0,0,0,0,0,0,0,0,0,0,0,0,0,0,0,0,0,0,0,0,0,0,0,0,0,0,0,0,0,0,0],"sum_hessian":[2.61E2,1.2E2,1.41E2,1.08E2,1.2E1,7.9E1,6.2E1,8.5E1,2.3E1,1E1,2E0,7.7E1,2E0,5.1E1,1.1E1,1.1E1,7.4E1,6E0,1.7E1,5.7E1,2E1,2E1,3.1E1,3E0,8E0,5E0,6E0,2.3E1,5.1E1,4E0,2E0,3E0,1.4E1,4.8E1,9E0,1E0,1.9E1,1.9E1,1E0,2.7E1,4E0,1E0,2E0,2E0,6E0,3E0,2E0,2E0,4E0,1.7E1,6E0,3E1,2.1E1,3E0,1E0,1E0,1E0,1.3E1,3.5E1,1E0,8E0,1E0,1.8E1,1E0,1.8E1,2.1E1,6E0,1E0,3E0,1E0,1E0],"tree_param":{"num_deleted":"0","num_feature":"5","num_nodes":"71","size_leaf_vector":"1"}},{"base_weights":[3.785312E-1,1.06988976E2,-9.046825E1,8.282507E1,3.0136407E2,-1.2759631E2,-4.188549E1,6.294148E1,1.5062358E2,3.2479575E0,1.1499325E0,-1.3230779E2,3.743404E-1,-5.8312996E1,3.279082E1,3.235489E1,7.874938E1,7.275248E1,1.7253882E2,-1.4620375E2,-8.762808E1,-1.0350457E2,-2.6833744E1,2.155487E0,4.2763103E1,1.1633556E1,7.470634E1,8.831068E1,1.9005886E1,9.5943576E-1,9.8498125E0,6.9013757E-1,1.8116608E0,-1.5230334E2,-6.7956746E-1,8.0827576E-1,-1.0009224E2,-1.1151464E2,-1.8272583E1,-3.2194653E1,8.554102E0,-8.020691E-2,8.22111E0,1.8822916E-1,4.6914163E-1,3.6532977E-1,-2.8391492E-1,1.8360596E-2,8.2599026E-1,7.3622864E-1,1.0870022E0,8.7535924E-1,-1.3079259E-1,-5.4522093E-2,2.0226929E-1,-1.5771273E0,-8.3644265E-1,-9.350647E-2,-1.0437597E0,-1.6805542E-1,-1.1584262E0,2.1759642E-2,-2.9584837E-1,-4.862337E-1,-1.8704109E-1,2.7103353E-1,-1.2846516E-1,1.1042419E-1,1.2892456E-2],"categories":[],"categories_nodes":[],"categories_segments":[],"categories_sizes":[],"default_left":[0,0,0,0,0,0,0,0,0,0,0,0,0,0,0,0,0,0,0,0,0,0,0,0,0,0,0,0,0,0,0,0,0,0,0,0,0,0,0,0,0,0,0,0,0,0,0,0,0,0,0,0,0,0,0,0,0,0,0,0,0,0,0,0,0,0,0,0,0],"id":24,"left_children":[1,3,5,7,9,11,13,15,17,-1,-1,19,-1,21,23,25,27,29,31,33,35,37,39,41,43,45,47,49,51,-1,53,-1,-1,55,-1,-1,57,59,61,63,65,-1,67,-1,-1,-1,-1,-1,-1,-1,-1,-1,-1,-1,-1,-1,-1,-1,-1,-1,-1,-1,-1,-1,-1,-1,-1,-1,-1],"loss_changes":[2.5472055E6,5.433595E5,2.50793E5,1.3746E5,1.94215E4,6.7155625E4,7.919709E4,3.9033906E4,2.8404875E4,0E0,0E0,3.5616125E4,0E0,7.119764E4,3.573874E3,2.633583E4,3.0310188E4,9.266445E3,3.5735E3,1.7331875E4,5.2183047E4,1.2299328E4,6.3461504E3,3.128384E2,1.1333984E1,2.2962438E4,5.5997695E3,6.372125E3,2.0934072E4,0E0,5.8665405E2,0E0,0E0,6.492625E3,0E0,0E0,6.7982812E3,5.8412812E3,7.583331E2,5.296252E3,2.3330107E3,0E0,4.4434418E1,0E0,0E0,0E0,0E0,0E0,0E0,0E0,0E0,0E0,0E0,0E0,0E0,0E0,0E0,0E0,0E0,0E0,0E0,0E0,0E0,0E0,0E0,0E0,0E0,0E0,0E0],"parents":[2147483647,0,0,1,1,2,2,3,3,4,4,5,5,6,6,7,7,8,8,11,11,13,13,14,14,15,15,16,16,17,17,18,18,19,19,20,20,21,21,22,22,23,23,24,24,25,25,26,26,27,27,28,28,30,30,33,33,36,36,37,37,38,38,39,39,40,40,42,42],"right_children":[2,4,6,8,10,12,14,16,18,-1,-1,20,-1,22,24,26,28,30,32,34,36,38,40,42,44,46,48,50,52,-1,54,-1,-1,56,-1,-1,58,60,62,64,66,-1,68,-1,-1,-1,-1,-1,-1,-1,-1,-1,-1,-1,-1,-1,-1,-1,-1,-1,-1,-1,-1,-1,-1,-1,-1,-1,-1],"split_conditions":[2.014E3,1.713E3,1.084E3,1.41E3,9E0,1.266E3,1.2E1,5E0,1.256E3,3.2479575E0,1.1499325E0,2.021E3,3.743404E-1,2.021E3,1.003E3,1.3343334E3,1.365E3,1.228E3,3E0,1.12E3,9.9E2,1.222E3,1.19E3,2.017E3,9.9E2,1.2743334E3,1.104E3,2.011E3,2.007E3,9.5943576E-1,6E0,6.9013757E-1,1.8116608E0,1.068E3,-6.7956746E-1,8.0827576E-1,9.37E2,9.07E2,2.015E3,7E0,1.216E3,-8.020691E-2,2.019E3,1.8822916E-1,4.6914163E-1,3.6532977E-1,-2.8391492E-1,1.8360596E-2,8.2599026E-1,7.3622864E-1,1.0870022E0,8.7535924E-1,-1.3079259E-1,-5.4522093E-2,2.0226929E-1,-1.5771273E0,-8.3644265E-1,-9.350647E-2,-1.0437597E0,-1.6805542E-1,-1.1584262E0,2.1759642E-2,-2.9584837E-1,-4.862337E-1,-1.8704109E-1,2.7103353E-1,-1.2846516E-1,1.1042419E-1,1.2892456E-2],"split_indices":[1,3,3,3,0,2,0,0,4,0,0,1,0,1,2,4,3,4,0,2,4,2,4,1,4,4,3,1,1,0,0,0,0,3,0,0,2,2,1,0,2,0,1,0,0,0,0,0,0,0,0,0,0,0,0,0,0,0,0,0,0,0,0,0,0,0,0,0,0],"split_type":[0,0,0,0,0,0,0,0,0,0,0,0,0,0,0,0,0,0,0,0,0,0,0,0,0,0,0,0,0,0,0,0,0,0,0,0,0,0,0,0,0,0,0,0,0,0,0,0,0,0,0,0,