{"learner":{"attributes":{"scikit_learn":"{\"_estimator_type\": \"regressor\"}"},"feature_names":["mes","año","lag_1","lag_12","media_movil_3"],"feature_types":["int","int","float","float","float"],"gradient_booster":{"model":{"gbtree_model_param":{"num_parallel_tree":"1","num_trees":"1000"},"iteration_indptr":[0,1,2,3,4,5,6,7,8,9,10,11,12,13,14,15,16,17,18,19,20,21,22,23,24,25,26,27,28,29,30,31,32,33,34,35,36,37,38,39,40,41,42,43,44,45,46,47,48,49,50,51,52,53,54,55,56,57,58,59,60,61,62,63,64,65,66,67,68,69,70,71,72,73,74,75,76,77,78,79,80,81,82,83,84,85,86,87,88,89,90,91,92,93,94,95,96,97,98,99,100,101,102,103,104,105,106,107,108,109,110,111,112,113,114,115,116,117,118,119,120,121,122,123,124,125,126,127,128,129,130,131,132,133,134,135,136,137,138,139,140,141,142,143,144,145,146,147,148,149,150,151,152,153,154,155,156,157,158,159,160,161,162,163,164,165,166,167,168,169,170,171,172,173,174,175,176,177,178,179,180,181,182,183,184,185,186,187,188,189,190,191,192,193,194,195,196,197,198,199,200,201,202,203,204,205,206,207,208,209,210,211,212,213,214,215,216,217,218,219,220,221,222,223,224,225,226,227,228,229,230,231,232,233,234,235,236,237,238,239,240,241,242,243,244,245,246,247,248,249,250,251,252,253,254,255,256,257,258,259,260,261,262,263,264,265,266,267,268,269,270,271,272,273,274,275,276,277,278,279,280,281,282,283,284,285,286,287,288,289,290,291,292,293,294,295,296,297,298,299,300,301,302,303,304,305,306,307,308,309,310,311,312,313,314,315,316,317,318,319,320,321,322,323,324,325,326,327,328,329,330,331,332,333,334,335,336,337,338,339,340,341,342,343,344,345,346,347,348,349,350,351,352,353,354,355,356,357,358,359,360,361,362,363,364,365,366,367,368,369,370,371,372,373,374,375,376,377,378,379,380,381,382,383,384,385,386,387,388,389,390,391,392,393,394,395,396,397,398,399,400,401,402,403,404,405,406,407,408,409,410,411,412,413,414,415,416,417,418,419,420,421,422,423,424,425,426,427,428,429,430,431,432,433,434,435,436,437,438,439,440,441,442,443,444,445,446,447,448,449,450,451,452,453,454,455,456,457,458,459,460,461,462,463,464,465,466,467,468,469,470,471,472,473,474,475,476,477,478,479,480,481,482,483,484,485,486,487,488,489,490,491,492,493,494,495,496,497,498,499,500,501,502,503,504,505,506,507,508,509,510,511,512,513,514,515,516,517,518,519,520,521,522,523,524,525,526,527,528,529,530,531,532,533,534,535,536,537,538,539,540,541,542,543,544,545,546,547,548,549,550,551,552,553,554,555,556,557,558,559,560,561,562,563,564,565,566,567,568,569,570,571,572,573,574,575,576,577,578,579,580,581,582,583,584,585,586,587,588,589,590,591,592,593,594,595,596,597,598,599,600,601,602,603,604,605,606,607,608,609,610,611,612,613,614,615,616,617,618,619,620,621,622,623,624,625,626,627,628,629,630,631,632,633,634,635,636,637,638,639,640,641,642,643,644,645,646,647,648,649,650,651,652,653,654,655,656,657,658,659,660,661,662,663,664,665,666,667,668,669,670,671,672,673,674,675,676,677,678,679,680,681,682,683,684,685,686,687,688,689,690,691,692,693,694,695,696,697,698,699,700,701,702,703,704,705,706,707,708,709,710,711,712,713,714,715,716,717,718,719,720,721,722,723,724,725,726,727,728,729,730,731,732,733,734,735,736,737,738,739,740,741,742,743,744,745,746,747,748,749,750,751,752,753,754,755,756,757,758,759,760,761,762,763,764,765,766,767,768,769,770,771,772,773,774,775,776,777,778,779,780,781,782,783,784,785,786,787,788,789,790,791,792,793,794,795,796,797,798,799,800,801,802,803,804,805,806,807,808,809,810,811,812,813,814,815,816,817,818,819,820,821,822,823,824,825,826,827,828,829,830,831,832,833,834,835,836,837,838,839,840,841,842,843,844,845,846,847,848,849,850,851,852,853,854,855,856,857,858,859,860,861,862,863,864,865,866,867,868,869,870,871,872,873,874,875,876,877,878,879,880,881,882,883,884,885,886,887,888,889,890,891,892,893,894,895,896,897,898,899,900,901,902,903,904,905,906,907,908,909,910,911,912,913,914,915,916,917,918,919,920,921,922,923,924,925,926,927,928,929,930,931,932,933,934,935,936,937,938,939,940,941,942,943,944,945,946,947,948,949,950,951,952,953,954,955,956,957,958,959,960,961,962,963,964,965,966,967,968,969,970,971,972,973,974,975,976,977,978,979,980,981,982,983,984,985,986,987,988,989,990,991,992,993,994,995,996,997,998,999,1000],"tree_info":[0,0,0,0,0,0,0,0,0,0,0,0,0,0,0,0,0,0,0,0,0,0,0,0,0,0,0,0,0,0,0,0,0,0,0,0,0,0,0,0,0,0,0,0,0,0,0,0,0,0,0,0,0,0,0,0,0,0,0,0,0,0,0,0,0,0,0,0,0,0,0,0,0,0,0,0,0,0,0,0,0,0,0,0,0,0,0,0,0,0,0,0,0,0,0,0,0,0,0,0,0,0,0,0,0,0,0,0,0,0,0,0,0,0,0,0,0,0,0,0,0,0,0,0,0,0,0,0,0,0,0,0,0,0,0,0,0,0,0,0,0,0,0,0,0,0,0,0,0,0,0,0,0,0,0,0,0,0,0,0,0,0,0,0,0,0,0,0,0,0,0,0,0,0,0,0,0,0,0,0,0,0,0,0,0,0,0,0,0,0,0,0,0,0,0,0,0,0,0,0,0,0,0,0,0,0,0,0,0,0,0,0,0,0,0,0,0,0,0,0,0,0,0,0,0,0,0,0,0,0,0,0,0,0,0,0,0,0,0,0,0,0,0,0,0,0,0,0,0,0,0,0,0,0,0,0,0,0,0,0,0,0,0,0,0,0,0,0,0,0,0,0,0,0,0,0,0,0,0,0,0,0,0,0,0,0,0,0,0,0,0,0,0,0,0,0,0,0,0,0,0,0,0,0,0,0,0,0,0,0,0,0,0,0,0,0,0,0,0,0,0,0,0,0,0,0,0,0,0,0,0,0,0,0,0,0,0,0,0,0,0,0,0,0,0,0,0,0,0,0,0,0,0,0,0,0,0,0,0,0,0,0,0,0,0,0,0,0,0,0,0,0,0,0,0,0,0,0,0,0,0,0,0,0,0,0,0,0,0,0,0,0,0,0,0,0,0,0,0,0,0,0,0,0,0,0,0,0,0,0,0,0,0,0,0,0,0,0,0,0,0,0,0,0,0,0,0,0,0,0,0,0,0,0,0,0,0,0,0,0,0,0,0,0,0,0,0,0,0,0,0,0,0,0,0,0,0,0,0,0,0,0,0,0,0,0,0,0,0,0,0,0,0,0,0,0,0,0,0,0,0,0,0,0,0,0,0,0,0,0,0,0,0,0,0,0,0,0,0,0,0,0,0,0,0,0,0,0,0,0,0,0,0,0,0,0,0,0,0,0,0,0,0,0,0,0,0,0,0,0,0,0,0,0,0,0,0,0,0,0,0,0,0,0,0,0,0,0,0,0,0,0,0,0,0,0,0,0,0,0,0,0,0,0,0,0,0,0,0,0,0,0,0,0,0,0,0,0,0,0,0,0,0,0,0,0,0,0,0,0,0,0,0,0,0,0,0,0,0,0,0,0,0,0,0,0,0,0,0,0,0,0,0,0,0,0,0,0,0,0,0,0,0,0,0,0,0,0,0,0,0,0,0,0,0,0,0,0,0,0,0,0,0,0,0,0,0,0,0,0,0,0,0,0,0,0,0,0,0,0,0,0,0,0,0,0,0,0,0,0,0,0,0,0,0,0,0,0,0,0,0,0,0,0,0,0,0,0,0,0,0,0,0,0,0,0,0,0,0,0,0,0,0,0,0,0,0,0,0,0,0,0,0,0,0,0,0,0,0,0,0,0,0,0,0,0,0,0,0,0,0,0,0,0,0,0,0,0,0,0,0,0,0,0,0,0,0,0,0,0,0,0,0,0,0,0,0,0,0,0,0,0,0,0,0,0,0,0,0,0,0,0,0,0,0,0,0,0,0,0,0,0,0,0,0,0,0,0,0,0,0,0,0,0,0,0,0,0,0,0,0,0,0,0,0,0,0,0,0,0,0,0,0,0,0,0,0,0,0,0,0,0,0,0,0,0,0,0,0,0,0,0,0,0,0,0,0,0,0,0,0,0,0,0,0,0,0,0,0,0,0,0,0,0,0,0,0,0,0,0,0,0,0,0,0,0,0,0,0,0,0,0,0,0,0,0,0,0,0,0,0,0,0,0,0,0,0,0,0,0,0,0,0,0,0,0,0,0,0,0,0,0,0,0,0,0,0,0,0,0,0,0,0,0,0,0,0,0,0,0,0,0,0,0,0,0,0,0,0,0,0,0,0,0,0,0,0,0,0,0,0,0,0,0,0,0,0,0,0,0,0,0,0,0,0,0,0,0,0,0,0,0,0,0,0,0,0,0,0,0,0,0,0,0,0,0,0,0,0,0,0,0,0,0,0,0,0,0,0,0,0,0,0,0,0,0,0,0,0,0],"trees":[{"base_weights":[1.9084099E-4,-3.0588233E-1,2.1341464E-2,-6.7142856E-1,-4.5454543E-2,-4.625E-1,2.9218107E-2,-7.916666E-3,2.5E-4,4.4444445E-4,-2.9999998E-1,2.5E-4,-6.333333E-3,-1.0769231E-1,3.6796536E-2,-4.75E-3,2.5E-4,4.4444445E-4,-3.5999998E-1,-5.8928568E-2,4.97549E-4,3.3333333E-4,-6.333333E-3,8.000001E-3,-4.625E-1,4.7916666E-4,-4.75E-3,-6.333333E-3,2.5E-4],"categories":[],"categories_nodes":[],"categories_segments":[],"categories_sizes":[],"default_left":[0,0,0,0,0,0,0,0,0,0,0,0,0,0,0,0,0,0,0,0,0,0,0,0,0,0,0,0,0],"id":0,"left_children":[1,3,5,7,9,11,13,-1,-1,-1,15,-1,-1,17,19,-1,-1,-1,21,23,-1,-1,-1,25,27,-1,-1,-1,-1],"loss_changes":[1.7026213E0,1.5878533E0,9.5103085E-1,6.059525E-1,2.650505E-1,3.489583E-1,2.560912E-1,0E0,0E0,0E0,1.8249997E-1,0E0,0E0,5.1500857E-1,2.8947386E-1,0E0,0E0,0E0,5.586666E-1,7.5999284E-1,0E0,0E0,0E0,5.047541E-1,3.489583E-1,0E0,0E0,0E0,0E0],"parents":[2147483647,0,0,1,1,2,2,3,3,4,4,5,5,6,6,10,10,13,13,14,14,18,18,19,19,23,23,24,24],"right_children":[2,4,6,8,10,12,14,-1,-1,-1,16,-1,-1,18,20,-1,-1,-1,22,24,-1,-1,-1,26,28,-1,-1,-1,-1],"split_conditions":[9.53E2,2.018E3,8.83E2,1E1,9.29E2,4E0,9.56E2,-5.4099977E-1,5.890002E-1,9.000244E-3,3E0,1.1090002E0,-2.8209996E0,9.37E2,1.033E3,-3.3099976E-1,1.3390002E0,8.900024E-2,9.88E2,1.028E3,7.850002E-1,1.8900023E-1,-1.0109997E0,2.025E3,2.018E3,1.03000246E-1,-7.099976E-2,-1.1109997E0,3.9900023E-1],"split_indices":[3,1,2,0,3,0,2,0,0,0,0,0,0,2,3,0,0,0,3,3,0,0,0,1,1,0,0,0,0],"split_type":[0,0,0,0,0,0,0,0,0,0,0,0,0,0,0,0,0,0,0,0,0,0,0,0,0,0,0,0,0],"sum_hessian":[2.61E2,1.6E1,2.45E2,6E0,1E1,3E0,2.42E2,5E0,1E0,8E0,2E0,1E0,2E0,1.2E1,2.3E2,1E0,1E0,8E0,4E0,2.7E1,2.03E2,2E0,2E0,2.4E1,3E0,2.3E1,1E0,2E0,1E0],"tree_param":{"num_deleted":"0","num_feature":"5","num_nodes":"29","size_leaf_vector":"1"}},{"base_weights":[4.0076347E-3,-5.6E-1,1.4922482E-2,2.5E-4,-7.1249995E-3,-2.3928571E-1,2.9387755E-2,-5.6E-1,-5.5E-2,-1.0769231E-1,3.690987E-2,-7.1249995E-3,2.5E-4,4.4444445E-4,-4.75E-3,4.4444445E-4,-3.5999998E-1,-5.1666666E-2,4.97549E-4,3.3333333E-4,-6.333333E-3,1.1111112E-2,-4.625E-1,4.8076923E-4,-4.75E-3,-6.333333E-3,2.5E-4],"categories":[],"categories_nodes":[],"categories_segments":[],"categories_sizes":[],"default_left":[0,0,0,0,0,0,0,0,0,0,0,0,0,0,0,0,0,0,0,0,0,0,0,0,0,0,0],"id":1,"left_children":[1,3,5,-1,-1,7,9,11,13,15,17,-1,-1,-1,-1,-1,19,21,-1,-1,-1,23,25,-1,-1,-1,-1],"loss_changes":[1.6212436E0,4.6387494E-1,9.557474E-1,0E0,0E0,7.966428E-1,2.566023E-1,4.6387494E-1,4.3877774E-1,5.1500857E-1,2.6767066E-1,0E0,0E0,0E0,0E0,0E0,5.586666E-1,7.78875E-1,0E0,0E0,0E0,5.0801283E-1,3.489583E-1,0E0,0E0,0E0,0E0],"parents":[2147483647,0,0,1,1,2,2,5,5,6,6,7,7,8,8,9,9,10,10,16,16,17,17,21,21,22,22],"right_children":[2,4,6,-1,-1,8,10,12,14,16,18,-1,-1,-1,-1,-1,20,22,-1,-1,-1,24,26,-1,-1,-1,-1],"split_conditions":[8.87E2,2.016E3,9.4E2,1.0979102E0,-2.79279E0,2.018E3,9.56E2,1E1,9.29E2,9.37E2,1.033E3,-5.355896E-1,5.8311033E-1,8.910522E-3,-3.2768983E-1,8.811035E-2,9.88E2,1.028E3,7.7715045E-1,1.8710998E-1,-1.0008899E0,2.025E3,2.018E3,2.9478272E-2,-7.028992E-2,-1.0998895E0,3.9501038E-1],"split_indices":[2,1,3,0,0,1,2,0,3,2,3,0,0,0,0,0,3,3,0,0,0,1,1,0,0,0,0],"split_type":[0,0,0,0,0,0,0,0,0,0,0,0,0,0,0,0,0,0,0,0,0,0,0,0,0,0,0],"sum_hessian":[2.61E2,4E0,2.57E2,1E0,3E0,1.3E1,2.44E2,4E0,9E0,1.2E1,2.32E2,3E0,1E0,8E0,1E0,8E0,4E0,2.9E1,2.03E2,2E0,2E0,2.6E1,3E0,2.5E1,1E0,2E0,1E0],"tree_param":{"num_deleted":"0","num_feature":"5","num_nodes":"27","size_leaf_vector":"1"}},{"base_weights":[4.0076347E-3,-5.6E-1,1.4922482E-2,2.5E-4,-7.1249995E-3,-2.3928571E-1,2.9387755E-2,-5.6E-1,-5.5E-2,-1.0769231E-1,3.690987E-2,-7.1249995E-3,2.5E-4,4.4444445E-4,-4.75E-3,4.4444445E-4,-3.5999998E-1,-5.1666666E-2,4.97549E-4,3.3333333E-4,-6.333333E-3,1.1111112E-2,-4.625E-1,4.8076923E-4,-4.75E-3,-6.333333E-3,2.5E-4],"categories":[],"categories_nodes":[],"categories_segments":[],"categories_sizes":[],"default_left":[0,0,0,0,0,0,0,0,0,0,0,0,0,0,0,0,0,0,0,0,0,0,0,0,0,0,0],"id":2,"left_children":[1,3,5,-1,-1,7,9,11,13,15,17,-1,-1,-1,-1,-1,19,21,-1,-1,-1,23,25,-1,-1,-1,-1],"loss_changes":[1.6212436E0,4.6387494E-1,9.557474E-1,0E0,0E0,7.966428E-1,2.566023E-1,4.6387494E-1,4.3877774E-1,5.1500857E-1,2.6767066E-1,0E0,0E0,0E0,0E0,0E0,5.586666E-1,7.78875E-1,0E0,0E0,0E0,5.0801283E-1,3.489583E-1,0E0,0E0,0E0,0E0],"parents":[2147483647,0,0,1,1,2,2,5,5,6,6,7,7,8,8,9,9,10,10,16,16,17,17,21,21,22,22],"right_children":[2,4,6,-1,-1,8,10,12,14,16,18,-1,-1,-1,-1,-1,20,22,-1,-1,-1,24,26,-1,-1,-1,-1],"split_conditions":[8.87E2,2.016E3,9.4E2,1.0869311E0,-2.764862E0,2.018E3,9.56E2,1E1,9.29E2,9.37E2,1.033E3,-5.3023374E-1,5.7727903E-1,8.821411E-3,-3.2441282E-1,8.7229E-2,9.88E2,1.028E3,7.693789E-1,1.8523864E-1,-9.908807E-1,2.025E3,2.018E3,2.9183473E-2,-6.958679E-2,-1.0888903E0,3.9106017E-1],"split_indices":[2,1,3,0,0,1,2,0,3,2,3,0,0,0,0,0,3,3,0,0,0,1,1,0,0,0,0],"split_type":[0,0,0,0,0,0,0,0,0,0,0,0,0,0,0,0,0,0,0,0,0,0,0,0,0,0,0],"sum_hessian":[2.61E2,4E0,2.57E2,1E0,3E0,1.3E1,2.44E2,4E0,9E0,1.2E1,2.32E2,3E0,1E0,8E0,1E0,8E0,4E0,2.9E1,2.03E2,2E0,2E0,2.6E1,3E0,2.5E1,1E0,2E0,1E0],"tree_param":{"num_deleted":"0","num_feature":"5","num_nodes":"27","size_leaf_vector":"1"}},{"base_weights":[4.0076347E-3,-5.6E-1,1.4922482E-2,2.5E-4,-7.1249995E-3,-2.3928571E-1,2.9387755E-2,-5.6E-1,-5.5E-2,-1.0769231E-1,3.690987E-2,-7.1249995E-3,2.5E-4,4.4444445E-4,-4.75E-3,4.4444445E-4,-3.5999998E-1,-5.1666666E-2,4.97549E-4,3.3333333E-4,-6.333333E-3,1.1111112E-2,-4.625E-1,4.8076923E-4,-4.75E-3,-6.333333E-3,2.5E-4],"categories":[],"categories_nodes":[],"categories_segments":[],"categories_sizes":[],"default_left":[0,0,0,0,0,0,0,0,0,0,0,0,0,0,0,0,0,0,0,0,0,0,0,0,0,0,0],"id":3,"left_children":[1,3,5,-1,-1,7,9,11,13,15,17,-1,-1,-1,-1,-1,19,21,-1,-1,-1,23,25,-1,-1,-1,-1],"loss_changes":[1.6212436E0,4.6387494E-1,9.557474E-1,0E0,0E0,7.966428E-1,2.566023E-1,4.6387494E-1,4.3877774E-1,5.1500857E-1,2.6767066E-1,0E0,0E0,0E0,0E0,0E0,5.586666E-1,7.78875E-1,0E0,0E0,0E0,5.0801283E-1,3.489583E-1,0E0,0E0,0E0,0E0],"parents":[2147483647,0,0,1,1,2,2,5,5,6,6,7,7,8,8,9,9,10,10,16,16,17,17,21,21,22,22],"right_children":[2,4,6,-1,-1,8,10,12,14,16,18,-1,-1,-1,-1,-1,20,22,-1,-1,-1,24,26,-1,-1,-1,-1],"split_conditions":[8.87E2,2.016E3,9.4E2,1.076062E0,-2.7372131E0,2.018E3,9.56E2,1E1,9.29E2,9.37E2,1.033E3,-5.249316E-1,5.715063E-1,8.73291E-3,-3.211688E-1,8.635681E-2,9.88E2,1.028E3,7.616848E-1,1.8338622E-1,-9.8097163E-1,2.025E3,2.018E3,2.8891725E-2,-6.889099E-2,-1.0780017E0,3.8714966E-1],"split_indices":[2,1,3,0,0,1,2,0,3,2,3,0,0,0,0,0,3,3,0,0,0,1,1,0,0,0,0],"split_type":[0,0,0,0,0,0,0,0,0,0,0,0,0,0,0,0,0,0,0,0,0,0,0,0,0,0,0],"sum_hessian":[2.61E2,4E0,2.57E2,1E0,3E0,1.3E1,2.44E2,4E0,9E0,1.2E1,2.32E2,3E0,1E0,8E0,1E0,8E0,4E0,2.9E1,2.03E2,2E0,2E0,2.6E1,3E0,2.5E1,1E0,2E0,1E0],"tree_param":{"num_deleted":"0","num_feature":"5","num_nodes":"27","size_leaf_vector":"1"}},{"base_weights":[1.9084099E-4,-5.6E-1,1.1046513E-2,2.5E-4,-7.1249995E-3,-9.596774E-2,4.4670053E-2,-2.7045456E-1,1.2720504E-9,-1.6E-1,4.974093E-4,-7.1249995E-3,-1.631579E-1,2.3076924E-2,-2.9999998E-1,3.75E-4,-4.75E-3,-2.4999999E-2,-4.583333E-1,-5.5E-2,4.8333334E-4,-4.75E-3,2.5E-4,-2.9999998E-3,4.5833332E-4,2.5E-4,-5.6E-3,4.4444445E-4,-4.75E-3],"categories":[],"categories_nodes":[],"categories_segments":[],"categories_sizes":[],"default_left":[0,0,0,0,0,0,0,0,0,0,0,0,0,0,0,0,0,0,0,0,0,0,0,0,0,0,0,0,0],"id":4,"left_children":[1,3,5,-1,-1,7,9,11,13,15,-1,-1,17,19,21,-1,-1,23,25,27,-1,-1,-1,-1,-1,-1,-1,-1,-1],"loss_changes":[1.599473E0,4.6387494E-1,9.3262196E-1,0E0,0E0,1.0381964E0,2.1241653E-1,9.2720985E-1,2.9076925E-1,3.28875E-1,0E0,0E0,7.6337713E-1,7.95641E-2,1.8249997E-1,0E0,0E0,2.8645834E-1,3.0883336E-1,4.3877774E-1,0E0,0E0,0E0,0E0,0E0,0E0,0E0,0E0,0E0],"parents":[2147483647,0,0,1,1,2,2,5,5,6,6,7,7,8,8,9,9,12,12,13,13,14,14,17,17,18,18,19,19],"right_children":[2,4,6,-1,-1,8,10,12,14,16,-1,-1,18,20,22,-1,-1,24,26,28,-1,-1,-1,-1,-1,-1,-1,-1,-1],"split_conditions":[8.87E2,2.016E3,1.054E3,1.0653015E0,-2.7098413E0,2.018E3,9.56E2,3E0,2.025E3,2.02E3,9.0406823E-1,-1.0672216E0,1.028E3,9.4E2,3E0,1.3454931E0,-9.711621E-1,9.38E2,4E0,9.29E2,2.7018645E-1,-6.82019E-2,2.2554932E0,-2.796826E-1,3.5351561E-3,8.549316E-2,-3.8722166E-1,8.6456295E-3,-3.1795713E-1],"split_indices":[2,1,3,0,0,1,2,0,1,1,0,0,3,3,0,0,0,3,0,3,0,0,0,0,0,0,0,0,0],"split_type":[0,0,0,0,0,0,0,0,0,0,0,0,0,0,0,0,0,0,0,0,0,0,0,0,0,0,0,0,0],"sum_hessian":[2.61E2,4E0,2.57E2,1E0,3E0,6.1E1,1.96E2,2.1E1,4E1,4E0,1.92E2,3E0,1.8E1,3.8E1,2E0,3E0,1E0,1.3E1,5E0,9E0,2.9E1,1E0,1E0,2E0,1.1E1,1E0,4E0,8E0,1E0],"tree_param":{"num_deleted":"0","num_feature":"5","num_nodes":"29","size_leaf_vector":"1"}},{"base_weights":[4.0076347E-3,-5.6E-1,1.4922482E-2,2.5E-4,-7.1249995E-3,-2.3928571E-1,2.9387755E-2,-5.6E-1,-5.5E-2,-1.0769231E-1,3.690987E-2,-7.1249995E-3,2.5E-4,4.4444445E-4,-4.75E-3,4.4444445E-4,-3.5999998E-1,-5.1666666E-2,4.97549E-4,3.3333333E-4,-6.333333E-3,1.1111112E-2,-4.625E-1,4.8076923E-4,-4.75E-3,-6.333333E-3,2.5E-4],"categories":[],"categories_nodes":[],"categories_segments":[],"categories_sizes":[],"default_left":[0,0,0,0,0,0,0,0,0,0,0,0,0,0,0,0,0,0,0,0,0,0,0,0,0,0,0],"id":5,"left_children":[1,3,5,-1,-1,7,9,11,13,15,17,-1,-1,-1,-1,-1,19,21,-1,-1,-1,23,25,-1,-1,-1,-1],"loss_changes":[1.6212436E0,4.6387494E-1,9.557474E-1,0E0,0E0,7.966428E-1,2.566023E-1,4.6387494E-1,4.3877774E-1,5.1500857E-1,2.6767066E-1,0E0,0E0,0E0,0E0,0E0,5.586666E-1,7.78875E-1,0E0,0E0,0E0,5.0801283E-1,3.489583E-1,0E0,0E0,0E0,0E0],"parents":[2147483647,0,0,1,1,2,2,5,5,6,6,7,7,8,8,9,9,10,10,16,16,17,17,21,21,22,22],"right_children":[2,4,6,-1,-1,8,10,12,14,16,18,-1,-1,-1,-1,-1,20,22,-1,-1,-1,24,26,-1,-1,-1,-1],"split_conditions":[8.87E2,2.016E3,9.4E2,1.0546484E0,-2.6827428E0,2.018E3,9.56E2,1E1,9.29E2,9.37E2,1.033E3,-5.090106E-1,5.6858766E-1,8.55896E-3,-3.1477782E-1,8.463806E-2,9.88E2,1.028E3,7.4502766E-1,1.8151672E-1,-9.6145016E-1,2.025E3,2.018E3,2.8567629E-2,-6.752014E-2,-1.0565497E0,3.8057616E-1],"split_indices":[2,1,3,0,0,1,2,0,3,2,3,0,0,0,0,0,3,3,0,0,0,1,1,0,0,0,0],"split_type":[0,0,0,0,0,0,0,0,0,0,0,0,0,0,0,0,0,0,0,0,0,0,0,0,0,0,0],"sum_hessian":[2.61E2,4E0,2.57E2,1E0,3E0,1.3E1,2.44E2,4E0,9E0,1.2E1,2.32E2,3E0,1E0,8E0,1E0,8E0,4E0,2.9E1,2.03E2,2E0,2E0,2.6E1,3E0,2.5E1,1E0,2E0,1E0],"tree_param":{"num_deleted":"0","num_feature":"5","num_nodes":"27","size_leaf_vector":"1"}},{"base_weights":[1.9084099E-4,-5.6E-1,1.1046513E-2,2.5E-4,-7.1249995E-3,-9.596774E-2,4.4670053E-2,-2.7045456E-1,1.2720504E-9,-1.6E-1,4.974093E-4,-7.1249995E-3,-1.631579E-1,2.3076924E-2,-2.9999998E-1,3.75E-4,-4.75E-3,-2.4999999E-2,-4.583333E-1,-5.5E-2,4.8333334E-4,-4.75E-3,2.5E-4,-2.9999998E-3,4.5833332E-4,2.5E-4,-5.6E-3,4.4444445E-4,-4.75E-3],"categories":[],"categories_nodes":[],"categories_segments":[],"categories_sizes":[],"default_left":[0,0,0,0,0,0,0,0,0,0,0,0,0,0,0,0,0,0,0,0,0,0,0,0,0,0,0,0,0],"id":6,"left_children":[1,3,5,-1,-1,7,9,11,13,15,-1,-1,17,19,21,-1,-1,23,25,27,-1,-1,-1,-1,-1,-1,-1,-1,-1],"loss_changes":[1.599473E0,4.6387494E-1,9.3262196E-1,0E0,0E0,1.0381964E0,2.1241653E-1,9.2720985E-1,2.9076925E-1,3.28875E-1,0E0,0E0,7.6337713E-1,7.95641E-2,1.8249997E-1,0E0,0E0,2.8645834E-1,3.0883336E-1,4.3877774E-1,0E0,0E0,0E0,0E0,0E0,0E0,0E0,0E0,0E0],"parents":[2147483647,0,0,1,1,2,2,5,5,6,6,7,7,8,8,9,9,12,12,13,13,14,14,17,17,18,18,19,19],"right_children":[2,4,6,-1,-1,8,10,12,14,16,-1,-1,18,20,22,-1,-1,24,26,28,-1,-1,-1,-1,-1,-1,-1,-1,-1],"split_conditions":[8.87E2,2.016E3,1.054E3,1.0441022E0,-2.6559155E0,2.018E3,9.56E2,3E0,2.025E3,2.02E3,8.875771E-1,-1.0459839E0,1.028E3,9.4E2,3E0,1.3311914E0,-9.5183593E-1,9.38E2,4E0,9.29E2,2.6543882E-1,-6.684509E-2,2.2320917E0,-2.7179566E-1,3.2141113E-3,8.37915E-2,-3.727838E-1,8.473511E-3,-3.1163025E-1],"split_indices":[2,1,3,0,0,1,2,0,1,1,0,0,3,3,0,0,0,3,0,3,0,0,0,0,0,0,0,0,0],"split_type":[0,0,0,0,0,0,0,0,0,0,0,0,0,0,0,0,0,0,0,0,0,0,0,0,0,0,0,0,0],"sum_hessian":[2.61E2,4E0,2.57E2,1E0,3E0,6.1E1,1.96E2,2.1E1,4E1,4E0,1.92E2,3E0,1.8E1,3.8E1,2E0,3E0,1E0,1.3E1,5E0,9E0,2.9E1,1E0,1E0,2E0,1.1E1,1E0,4E0,8E0,1E0],"tree_param":{"num_deleted":"0","num_feature":"5","num_nodes":"29","size_leaf_vector":"1"}},{"base_weights":[1.9084099E-4,-5.6E-1,1.1046513E-2,2.5E-4,-7.1249995E-3,-9.596774E-2,4.4670053E-2,-2.7045456E-1,1.2720504E-9,-1.6E-1,4.974093E-4,-7.1249995E-3,-1.631579E-1,2.3076924E-2,-2.9999998E-1,3.75E-4,-4.75E-3,-2.4999999E-2,-4.583333E-1,-5.5E-2,4.8333334E-4,-4.75E-3,2.5E-4,-2.9999998E-3,4.5833332E-4,2.5E-4,-5.6E-3,4.4444445E-4,-4.75E-3],"categories":[],"categories_nodes":[],"categories_segments":[],"categories_sizes":[],"default_left":[0,0,0,0,0,0,0,0,0,0,0,0,0,0,0,0,0,0,0,0,0,0,0,0,0,0,0,0,0],"id":7,"left_children":[1,3,5,-1,-1,7,9,11,13,15,-1,-1,17,19,21,-1,-1,23,25,27,-1,-1,-1,-1,-1,-1,-1,-1,-1],"loss_changes":[1.599473E0,4.6387494E-1,9.3262196E-1,0E0,0E0,1.0381964E0,2.1241653E-1,9.2720985E-1,2.9076925E-1,3.28875E-1,0E0,0E0,7.6337713E-1,7.95641E-2,1.8249997E-1,0E0,0E0,2.8645834E-1,3.0883336E-1,4.3877774E-1,0E0,0E0,0E0,0E0,0E0,0E0,0E0,0E0,0E0],"parents":[2147483647,0,0,1,1,2,2,5,5,6,6,7,7,8,8,9,9,12,12,13,13,14,14,17,17,18,18,19,19],"right_children":[2,4,6,-1,-1,8,10,12,14,16,-1,-1,18,20,22,-1,-1,24,26,28,-1,-1,-1,-1,-1,-1,-1,-1,-1],"split_conditions":[8.87E2,2.016E3,1.054E3,1.0336609E0,-2.629356E0,2.018E3,9.56E2,3E0,2.025E3,2.02E3,8.787014E-1,-1.0355242E0,1.028E3,9.4E2,3E0,1.3178796E0,-9.423175E-1,9.38E2,4E0,9.29E2,2.6278442E-1,-6.617676E-2,2.2097704E0,-2.6907775E-1,3.1817625E-3,8.295349E-2,-3.6905578E-1,8.388672E-3,-3.085138E-1],"split_indices":[2,1,3,0,0,1,2,0,1,1,0,0,3,3,0,0,0,3,0,3,0,0,0,0,0,0,0,0,0],"split_type":[0,0,0,0,0,0,0,0,0,0,0,0,0,0,0,0,0,0,0,0,0,0,0,0,0,0,0,0,0],"sum_hessian":[2.61E2,4E0,2.57E2,1E0,3E0,6.1E1,1.96E2,2.1E1,4E1,4E0,1.92E2,3E0,1.8E1,3.8E1,2E0,3E0,1E0,1.3E1,5E0,9E0,2.9E1,1E0,1E0,2E0,1.1E1,1E0,4E0,8E0,1E0],"tree_param":{"num_deleted":"0","num_feature":"5","num_nodes":"29","size_leaf_vector":"1"}},{"base_weights":[4.0076347E-3,-5.6E-1,1.4922482E-2,2.5E-4,-7.1249995E-3,-2.3928571E-1,2.9387755E-2,-5.6E-1,-5.5E-2,-1.0769231E-1,3.690987E-2,-7.1249995E-3,2.5E-4,4.4444445E-4,-4.75E-3,4.4444445E-4,-3.5999998E-1,-5.1666666E-2,4.97549E-4,3.3333333E-4,-6.333333E-3,1.1111112E-2,-4.625E-1,4.8076923E-4,-4.75E-3,-6.333333E-3,2.5E-4],"categories":[],"categories_nodes":[],"categories_segments":[],"categories_sizes":[],"default_left":[0,0,0,0,0,0,0,0,0,0,0,0,0,0,0,0,0,0,0,0,0,0,0,0,0,0,0],"id":8,"left_children":[1,3,5,-1,-1,7,9,11,13,15,17,-1,-1,-1,-1,-1,19,21,-1,-1,-1,23,25,-1,-1,-1,-1],"loss_changes":[1.6212436E0,4.6387494E-1,9.557474E-1,0E0,0E0,7.966428E-1,2.566023E-1,4.6387494E-1,4.3877774E-1,5.1500857E-1,2.6767066E-1,0E0,0E0,0E0,0E0,0E0,5.586666E-1,7.78875E-1,0E0,0E0,0E0,5.0801283E-1,3.489583E-1,0E0,0E0,0E0,0E0],"parents":[2147483647,0,0,1,1,2,2,5,5,6,6,7,7,8,8,9,9,10,10,16,16,17,17,21,21,22,22],"right_children":[2,4,6,-1,-1,8,10,12,14,16,18,-1,-1,-1,-1,-1,20,22,-1,-1,-1,24,26,-1,-1,-1,-1],"split_conditions":[8.87E2,2.016E3,9.4E2,1.0233239E0,-2.6030626E0,2.018E3,9.56E2,1E1,9.29E2,9.37E2,1.033E3,-4.8310545E-1,5.6831056E-1,8.305053E-3,-3.0542845E-1,8.2124025E-2,9.88E2,1.028E3,7.1991414E-1,1.7963745E-1,-9.328943E-1,2.025E3,2.018E3,2.8217897E-2,-6.551514E-2,-1.025169E0,3.7148863E-1],"split_indices":[2,1,3,0,0,1,2,0,3,2,3,0,0,0,0,0,3,3,0,0,0,1,1,0,0,0,0],"split_type":[0,0,0,0,0,0,0,0,0,0,0,0,0,0,0,0,0,0,0,0,0,0,0,0,0,0,0],"sum_hessian":[2.61E2,4E0,2.57E2,1E0,3E0,1.3E1,2.44E2,4E0,9E0,1.2E1,2.32E2,3E0,1E0,8E0,1E0,8E0,4E0,2.9E1,2.03E2,2E0,2E0,2.6E1,3E0,2.5E1,1E0,2E0,1E0],"tree_param":{"num_deleted":"0","num_feature":"5","num_nodes":"27","size_leaf_vector":"1"}},{"base_weights":[1.9084099E-4,-5.6E-1,1.1046513E-2,2.5E-4,-7.1249995E-3,-9.596774E-2,4.4670053E-2,-2.7045456E-1,1.2720504E-9,-1.6E-1,4.974093E-4,-7.1249995E-3,-1.631579E-1,2.3076924E-2,-2.9999998E-1,3.75E-4,-4.75E-3,-2.4999999E-2,-4.583333E-1,-5.5E-2,4.8333334E-4,-4.75E-3,2.5E-4,-2.9999998E-3,4.5833332E-4,2.5E-4,-5.6E-3,4.4444445E-4,-4.75E-3],"categories":[],"categories_nodes":[],"categories_segments":[],"categories_sizes":[],"default_left":[0,0,0,0,0,0,0,0,0,0,0,0,0,0,0,0,0,0,0,0,0,0,0,0,0,0,0,0,0],"id":9,"left_children":[1,3,5,-1,-1,7,9,11,13,15,-1,-1,17,19,21,-1,-1,23,25,27,-1,-1,-1,-1,-1,-1,-1,-1,-1],"loss_changes":[1.599473E0,4.6387494E-1,9.3262196E-1,0E0,0E0,1.0381964E0,2.1241653E-1,9.2720985E-1,2.9076925E-1,3.28875E-1,0E0,0E0,7.6337713E-1,7.95641E-2,1.8249997E-1,0E0,0E0,2.8645834E-1,3.0883336E-1,4.3877774E-1,0E0,0E0,0E0,0E0,0E0,0E0,0E0,0E0,0E0],"parents":[2147483647,0,0,1,1,2,2,5,5,6,6,7,7,8,8,9,9,12,12,13,13,14,14,17,17,18,18,19,19],"right_children":[2,4,6,-1,-1,8,10,12,14,16,-1,-1,18,20,22,-1,-1,24,26,28,-1,-1,-1,-1,-1,-1,-1,-1,-1],"split_conditions":[8.87E2,2.016E3,1.054E3,1.0130908E0,-2.5770319E0,2.018E3,9.56E2,3E0,2.025E3,2.02E3,8.6271507E-1,-1.0149176E0,1.028E3,9.4E2,3E0,1.3038794E0,-9.2356503E-1,9.38E2,4E0,9.29E2,2.5815856E-1,-6.4860225E-2,2.1868513E0,-2.615558E-1,2.8680419E-3,8.130249E-2,-3.551135E-1,8.222045E-3,-3.0237427E-1],"split_indices":[2,1,3,0,0,1,2,0,1,1,0,0,3,3,0,0,0,3,0,3,0,0,0,0,0,0,0,0,0],"split_type":[0,0,0,0,0,0,0,0,0,0,0,0,0,0,0,0,0,0,0,0,0,0,0,0,0,0,0,0,0],"sum_hessian":[2.61E2,4E0,2.57E2,1E0,3E0,6.1E1,1.96E2,2.1E1,4E1,4E0,1.92E2,3E0,1.8E1,3.8E1,2E0,3E0,1E0,1.3E1,5E0,9E0,2.9E1,1E0,1E0,2E0,1.1E1,1E0,4E0,8E0,1E0],"tree_param":{"num_deleted":"0","num_feature":"5","num_nodes":"29","size_leaf_vector":"1"}},{"base_weights":[1.9084099E-4,-5.6E-1,1.1046513E-2,2.5E-4,-7.1249995E-3,-9.596774E-2,4.4670053E-2,-2.7045456E-1,1.2720504E-9,-1.6E-1,4.974093E-4,-7.1249995E-3,-1.631579E-1,2.3076924E-2,-2.9999998E-1,3.75E-4,-4.75E-3,-2.4999999E-2,-4.583333E-1,-5.5E-2,4.8333334E-4,-4.75E-3,2.5E-4,-2.9999998E-3,4.5833332E-4,2.5E-4,-5.6E-3,4.4444445E-4,-4.75E-3],"categories":[],"categories_nodes":[],"categories_segments":[],"categories_sizes":[],"default_left":[0,0,0,0,0,0,0,0,0,0,0,0,0,0,0,0,0,0,0,0,0,0,0,0,0,0,0,0,0],"id":10,"left_children":[1,3,5,-1,-1,7,9,11,13,15,-1,-1,17,19,21,-1,-1,23,25,27,-1,-1,-1,-1,-1,-1,-1,-1,-1],"loss_changes":[1.599473E0,4.6387494E-1,9.3262196E-1,0E0,0E0,1.0381964E0,2.1241653E-1,9.2720985E-1,2.9076925E-1,3.28875E-1,0E0,0E0,7.6337713E-1,7.95641E-2,1.8249997E-1,0E0,0E0,2.8645834E-1,3.0883336E-1,4.3877774E-1,0E0,0E0,0E0,0E0,0E0,0E0,0E0,0E0,0E0],"parents":[2147483647,0,0,1,1,2,2,5,5,6,6,7,7,8,8,9,9,12,12,13,13,14,14,17,17,18,18,19,19],"right_children":[2,4,6,-1,-1,8,10,12,14,16,-1,-1,18,20,22,-1,-1,24,26,28,-1,-1,-1,-1,-1,-1,-1,-1,-1],"split_conditions":[8.87E2,2.016E3,1.054E3,1.0029602E0,-2.5512614E0,2.018E3,9.56E2,3E0,2.025E3,2.02E3,8.540877E-1,-1.0047686E0,1.028E3,9.4E2,3E0,1.2908404E0,-9.1432923E-1,9.38E2,4E0,9.29E2,2.555768E-1,-6.421142E-2,2.1649828E0,-2.5894043E-1,2.8393555E-3,8.04895E-2,-3.515625E-1,8.1396485E-3,-2.993506E-1],"split_indices":[2,1,3,0,0,1,2,0,1,1,0,0,3,3,0,0,0,3,0,3,0,0,0,0,0,0,0,0,0],"split_type":[0,0,0,0,0,0,0,0,0,0,0,0,0,0,0,0,0,0,0,0,0,0,0,0,0,0,0,0,0],"sum_hessian":[2.61E2,4E0,2.57E2,1E0,3E0,6.1E1,1.96E2,2.1E1,4E1,4E0,1.92E2,3E0,1.8E1,3.8E1,2E0,3E0,1E0,1.3E1,5E0,9E0,2.9E1,1E0,1E0,2E0,1.1E1,1E0,4E0,8E0,1E0],"tree_param":{"num_deleted":"0","num_feature":"5","num_nodes":"29","size_leaf_vector":"1"}},{"base_weights":[7.824428E-3,-5.6E-1,1.879845E-2,2.5E-4,-7.1249995E-3,-6.3709676E-2,4.4670053E-2,-2.2E-1,-1.3541665E-2,-1.6E-1,4.974093E-4,-6.333333E-3,-1.0769231E-1,-1.5333334E-1,4.8529412E-4,3.75E-4,-4.75E-3,4.4444445E-4,-3.5999998E-1,-3.7499998E-2,-4.625E-1,2.5E-4,-4.625E-3,-2.1249999E-3,4.4444445E-4,-6.333333E-3,2.5E-4],"categories":[],"categories_nodes":[],"categories_segments":[],"categories_sizes":[],"default_left":[0,0,0,0,0,0,0,0,0,0,0,0,0,0,0,0,0,0,0,0,0,0,0,0,0,0,0],"id":11,"left_children":[1,3,5,-1,-1,7,9,11,13,15,-1,-1,17,19,-1,-1,-1,-1,21,23,25,-1,-1,-1,-1,-1,-1],"loss_changes":[1.6431323E0,4.6387494E-1,5.535771E-1,0E0,0E0,4.8314878E-1,2.1241653E-1,6.2810254E-1,4.2393813E-1,3.28875E-1,0E0,0E0,5.1500857E-1,5.1983327E-1,0E0,0E0,0E0,0E0,2.08875E-1,1.8152776E-1,3.489583E-1,0E0,0E0,0E0,0E0,0E0,0E0],"parents":[2147483647,0,0,1,1,2,2,5,5,6,6,7,7,8,8,9,9,12,12,13,13,18,18,19,19,20,20],"right_children":[2,4,6,-1,-1,8,10,12,14,16,-1,-1,18,20,-1,-1,-1,-1,22,24,26,-1,-1,-1,-1,-1,-1],"split_conditions":[8.87E2,2.016E3,1.054E3,9.929309E-1,-2.5257487E0,3E0,9.56E2,1.0816666E3,9.993333E2,2.02E3,8.455471E-1,-4.58078E-1,1.1303334E3,1.022E3,2.5003052E-3,1.277932E0,-9.051861E-1,1.921997E-3,9.78E2,9.38E2,2.018E3,7.0340574E-1,-9.9472106E-1,-2.5635132E-1,1.777838E-1,-3.4804687E-1,5.507037E-1],"split_indices":[2,1,3,0,0,0,2,4,4,1,0,0,4,3,0,0,0,0,3,3,1,0,0,0,0,0,0],"split_type":[0,0,0,0,0,0,0,0,0,0,0,0,0,0,0,0,0,0,0,0,0,0,0,0,0,0,0],"sum_hessian":[2.61E2,4E0,2.57E2,1E0,3E0,6.1E1,1.96E2,1.4E1,4.7E1,4E0,1.92E2,2E0,1.2E1,1.4E1,3.3E1,3E0,1E0,8E0,4E0,1.1E1,3E0,1E0,3E0,3E0,8E0,2E0,1E0],"tree_param":{"num_deleted":"0","num_feature":"5","num_nodes":"27","size_leaf_vector":"1"}},{"base_weights":[7.824428E-3,-5.6E-1,1.879845E-2,2.5E-4,-7.1249995E-3,-6.3709676E-2,4.4670053E-2,-2.2E-1,-1.3541665E-2,-1.6E-1,4.974093E-4,-6.333333E-3,-1.0769231E-1,-1.5333334E-1,4.8529412E-4,3.75E-4,-4.75E-3,4.4444445E-4,-3.5999998E-1,-3.7499998E-2,-4.625E-1,2.5E-4,-4.625E-3,-2.1249999E-3,4.4444445E-4,-6.333333E-3,2.5E-4],"categories":[],"categories_nodes":[],"categories_segments":[],"categories_sizes":[],"default_left":[0,0,0,0,0,0,0,0,0,0,0,0,0,0,0,0,0,0,0,0,0,0,0,0,0,0,0],"id":12,"left_children":[1,3,5,-1,-1,7,9,11,13,15,-1,-1,17,19,-1,-1,-1,-1,21,23,25,-1,-1,-1,-1,-1,-1],"loss_changes":[1.6431323E0,4.6387494E-1,5.535771E-1,0E0,0E0,4.8314878E-1,2.1241653E-1,6.2810254E-1,4.2393813E-1,3.28875E-1,0E0,0E0,5.1500857E-1,5.1983327E-1,0E0,0E0,0E0,0E0,2.08875E-1,1.8152776E-1,3.489583E-1,0E0,0E0,0E0,0E0,0E0,0E0],"parents":[2147483647,0,0,1,1,2,2,5,5,6,6,7,7,8,8,9,9,12,12,13,13,18,18,19,19,20,20],"right_children":[2,4,6,-1,-1,8,10,12,14,16,-1,-1,18,20,-1,-1,-1,-1,22,24,26,-1,-1,-1,-1,-1,-1],"split_conditions":[8.87E2,2.016E3,1.054E3,9.830017E-1,-2.5004914E0,3E0,9.56E2,1.0816666E3,9.993333E2,2.02E3,8.3709186E-1,-4.534973E-1,1.1303334E3,1.022E3,2.4752808E-3,1.2651526E0,-8.96134E-1,1.9030761E-3,9.78E2,9.38E2,2.018E3,6.9637144E-1,-9.847735E-1,-2.5378785E-1,1.7600586E-1,-3.4456664E-1,5.4519653E-1],"split_indices":[2,1,3,0,0,0,2,4,4,1,0,0,4,3,0,0,0,0,3,3,1,0,0,0,0,0,0],"split_type":[0,0,0,0,0,0,0,0,0,0,0,0,0,0,0,0,0,0,0,0,0,0,0,0,0,0,0],"sum_hessian":[2.61E2,4E0,2.57E2,1E0,3E0,6.1E1,1.96E2,1.4E1,4.7E1,4E0,1.92E2,2E0,1.2E1,1.4E1,3.3E1,3E0,1E0,8E0,4E0,1.1E1,3E0,1E0,3E0,3E0,8E0,2E0,1E0],"tree_param":{"num_deleted":"0","num_feature":"5","num_nodes":"27","size_leaf_vector":"1"}},{"base_weights":[1.1641223E-2,-5.6E-1,2.2674419E-2,2.5E-4,-7.1249995E-3,-7.87234E-2,4.504717E-2,-2.875E-1,-6.944443E-3,-6.666666E-2,4.97549E-4,3.75E-4,-4E-1,2.0000001E-2,-4.75E-3,4.3749998E-4,-4.75E-3,-7.1249995E-3,-1.25E-1,-9.9999994E-2,4.827586E-4,4E-4,-4.75E-3,4E-4,-2.9999998E-3],"categories":[],"categories_nodes":[],"categories_segments":[],"categories_sizes":[],"default_left":[0,0,0,0,0,0,0,0,0,0,0,0,0,0,0,0,0,0,0,0,0,0,0,0,0],"id":13,"left_children":[1,3,5,-1,-1,7,9,11,13,15,-1,-1,17,19,-1,-1,-1,-1,21,23,-1,-1,-1,-1,-1],"loss_changes":[1.6651396E0,4.6387494E-1,5.888317E-1,0E0,0E0,7.0233446E-1,1.1481178E-1,4.5375013E-1,4.6351388E-1,4.265625E-1,0E0,0E0,6.843748E-1,1.2358621E-1,0E0,0E0,0E0,0E0,3.6549997E-1,2.08E-1,0E0,0E0,0E0,0E0,0E0],"parents":[2147483647,0,0,1,1,2,2,5,5,6,6,7,7,8,8,9,9,12,12,13,13,18,18,19,19],"right_children":[2,4,6,-1,-1,8,10,12,14,16,-1,-1,18,20,-1,-1,-1,-1,22,24,-1,-1,-1,-1,-1],"split_conditions":[8.87E2,2.016E3,1.033E3,9.7317135E-1,-2.4754863E0,3E0,9.56E2,9.07E2,1.028E3,9.46E2,6.787209E-1,1.8841552E-3,2.02E3,9.53E2,-3.411212E-1,3.0645751E-3,-8.871728E-1,-9.749255E-1,2.025E3,9.4E2,4.036243E-2,3.8243225E-1,-4.3773804E-2,5.729333E-1,-2.5125E-1],"split_indices":[2,1,3,0,0,0,2,3,3,2,0,0,1,2,0,0,0,0,1,2,0,0,0,0,0],"split_type":[0,0,0,0,0,0,0,0,0,0,0,0,0,0,0,0,0,0,0,0,0,0,0,0,0],"sum_hessian":[2.61E2,4E0,2.57E2,1E0,3E0,4.6E1,2.11E2,1.1E1,3.5E1,8E0,2.03E2,3E0,8E0,3.4E1,1E0,7E0,1E0,3E0,5E0,6E0,2.8E1,4E0,1E0,4E0,2E0],"tree_param":{"num_deleted":"0","num_feature":"5","num_nodes":"25","size_leaf_vector":"1"}},{"base_weights":[1.1641223E-2,-4.625E-1,1.891892E-2,2.5E-4,-6.333333E-3,-7.589286E-2,4.4852942E-2,-2.025E-1,-5.405404E-3,-8.125E-2,4.9746194E-4,-7.058823E-2,-7.1249995E-3,2.0000001E-2,-2.9999998E-1,4.2857142E-4,-4.75E-3,-3.5999998E-1,4.6153847E-4,-5.5E-2,4.8076923E-4,-4.75E-3,2.5E-4,3.3333333E-4,-6.333333E-3,-4.75E-3,4.4444445E-4],"categories":[],"categories_nodes":[],"categories_segments":[],"categories_sizes":[],"default_left":[0,0,0,0,0,0,0,0,0,0,0,0,0,0,0,0,0,0,0,0,0,0,0,0,0,0,0],"id":14,"left_children":[1,3,5,-1,-1,7,9,11,13,15,-1,17,-1,19,21,-1,-1,23,-1,25,-1,-1,-1,-1,-1,-1,-1],"loss_changes":[9.1282195E-1,3.489583E-1,6.4024633E-1,0E0,0E0,4.986615E-1,1.2992078E-1,1.2952057E0,2.8291893E-1,4.1129464E-1,0E0,5.9098643E-1,0E0,7.634615E-2,1.8249997E-1,0E0,0E0,5.586666E-1,0E0,4.3877774E-1,0E0,0E0,0E0,0E0,0E0,0E0,0E0],"parents":[2147483647,0,0,1,1,2,2,5,5,6,6,7,7,8,8,9,9,11,11,13,13,14,14,17,17,19,19],"right_children":[2,4,6,-1,-1,8,10,12,14,16,-1,18,-1,20,22,-1,-1,24,-1,26,-1,-1,-1,-1,-1,-1,-1],"split_conditions":[8.83E2,4E0,1.042E3,9.6343994E-1,-2.4507318E0,2.018E3,9.56E2,1.028E3,2.025E3,9.46E2,8.299338E-1,9.38E2,-9.6517634E-1,3E0,3E0,3.0340576E-3,-8.783014E-1,2.017E3,2.3571777E-3,1.038E3,1.863481E-1,-4.333618E-2,2.1432526E0,1.8652343E-3,-4.3921325E-1,-2.7749205E-1,8.001708E-3],"split_indices":[2,0,3,0,0,1,2,3,1,2,0,3,0,0,0,0,0,1,0,2,0,0,0,0,0,0,0],"split_type":[0,0,0,0,0,0,0,0,0,0,0,0,0,0,0,0,0,0,0,0,0,0,0,0,0,0,0],"sum_hessian":[2.61E2,3E0,2.58E2,1E0,2E0,5.5E1,2.03E2,1.9E1,3.6E1,7E0,1.96E2,1.6E1,3E0,3.4E1,2E0,6E0,1E0,4E0,1.2E1,9E0,2.5E1,1E0,1E0,2E0,2E0,1E0,8E0],"tree_param":{"num_deleted":"0","num_feature":"5","num_nodes":"27","size_leaf_vector":"1"}},{"base_weights":[1.5458017E-2,-4.625E-1,2.2779923E-2,2.5E-4,-6.333333E-3,-7.604166E-2,4.504717E-2,-2.875E-1,-5.405404E-3,-6.666666E-2,4.97549E-4,3.75E-4,-4E-1,2.0833334E-2,-4.75E-3,4.3749998E-4,-4.75E-3,-7.1249995E-3,-1.25E-1,-9.9999994E-2,4.8333334E-4,4E-4,-4.75E-3,-4.75E-3,4.1666668E-4],"categories":[],"categories_nodes":[],"categories_segments":[],"categories_sizes":[],"default_left":[0,0,0,0,0,0,0,0,0,0,0,0,0,0,0,0,0,0,0,0,0,0,0,0,0],"id":15,"left_children":[1,3,5,-1,-1,7,9,11,13,15,-1,-1,17,19,-1,-1,-1,-1,21,23,-1,-1,-1,-1,-1],"loss_changes":[9.2742157E-1,3.489583E-1,5.73351E-1,0E0,0E0,7.15404E-1,1.1481178E-1,4.5375013E-1,4.657939E-1,4.265625E-1,0E0,0E0,6.843748E-1,1.2445834E-1,0E0,0E0,0E0,0E0,3.6549997E-1,3.9166665E-1,0E0,0E0,0E0,0E0,0E0],"parents":[2147483647,0,0,1,1,2,2,5,5,6,6,7,7,8,8,9,9,12,12,13,13,18,18,19,19],"right_children":[2,4,6,-1,-1,8,10,12,14,16,-1,-1,18,20,-1,-1,-1,-1,22,24,-1,-1,-1,-1,-1],"split_conditions":[8.83E2,4E0,1.033E3,9.538055E-1,-2.4262242E0,3E0,9.56E2,9.07E2,1.028E3,9.46E2,6.6363424E-1,1.8463135E-3,2.02E3,9.72E2,-3.2805845E-1,3.00354E-3,-8.695184E-1,-9.5552486E-1,2.025E3,9.38E2,9.388734E-3,3.7852782E-1,-4.290283E-2,-2.443457E-1,6.1437684E-1],"split_indices":[2,0,3,0,0,0,2,3,3,2,0,0,1,4,0,0,0,0,1,3,0,0,0,0,0],"split_type":[0,0,0,0,0,0,0,0,0,0,0,0,0,0,0,0,0,0,0,0,0,0,0,0,0],"sum_hessian":[2.61E2,3E0,2.58E2,1E0,2E0,4.7E1,2.11E2,1.1E1,3.6E1,8E0,2.03E2,3E0,8E0,3.5E1,1E0,7E0,1E0,3E0,5E0,6E0,2.9E1,4E0,1E0,1E0,5E0],"tree_param":{"num_deleted":"0","num_feature":"5","num_nodes":"25","size_leaf_vector":"1"}},{"base_weights":[1.1641223E-2,-4.625E-1,1.891892E-2,2.5E-4,-6.333333E-3,-7.589286E-2,4.4852942E-2,-2.025E-1,-5.405404E-3,-8.125E-2,4.9746194E-4,-7.058823E-2,-7.1249995E-3,2.0000001E-2,-2.9999998E-1,4.2857142E-4,-4.75E-3,-3.5999998E-1,4.6153847E-4,-5.5E-2,4.8076923E-4,-4.75E-3,2.5E-4,3.3333333E-4,-6.333333E-3,-4.75E-3,4.4444445E-4],"categories":[],"categories_nodes":[],"categories_segments":[],"categories_sizes":[],"default_left":[0,0,0,0,0,0,0,0,0,0,0,0,0,0,0,0,0,0,0,0,0,0,0,0,0,0,0],"id":16,"left_children":[1,3,5,-1,-1,7,9,11,13,15,-1,17,-1,19,21,-1,-1,23,-1,25,-1,-1,-1,-1,-1,-1,-1],"loss_changes":[9.1282195E-1,3.489583E-1,6.4024633E-1,0E0,0E0,4.986615E-1,1.2992078E-1,1.2952057E0,2.8291893E-1,4.1129464E-1,0E0,5.9098643E-1,0E0,7.634615E-2,1.8249997E-1,0E0,0E0,5.586666E-1,0E0,4.3877774E-1,0E0,0E0,0E0,0E0,0E0,0E0,0E0],"parents":[2147483647,0,0,1,1,2,2,5,5,6,6,7,7,8,8,9,9,11,11,13,13,14,14,17,17,19,19],"right_children":[2,4,6,-1,-1,8,10,12,14,16,-1,18,-1,20,22,-1,-1,24,-1,26,-1,-1,-1,-1,-1,-1,-1],"split_conditions":[8.83E2,4E0,1.042E3,9.442676E-1,-2.4019623E0,2.018E3,9.56E2,1.028E3,2.025E3,9.46E2,8.149979E-1,9.38E2,-9.459698E-1,3E0,3E0,2.9736327E-3,-8.6082333E-1,2.017E3,2.2393798E-3,1.038E3,1.843907E-1,-4.2473756E-2,2.1217902E0,1.8280029E-3,-4.2526612E-1,-2.6516235E-1,7.903442E-3],"split_indices":[2,0,3,0,0,1,2,3,1,2,0,3,0,0,0,0,0,1,0,2,0,0,0,0,0,0,0],"split_type":[0,0,0,0,0,0,0,0,0,0,0,0,0,0,0,0,0,0,0,0,0,0,0,0,0,0,0],"sum_hessian":[2.61E2,3E0,2.58E2,1E0,2E0,5.5E1,2.03E2,1.9E1,3.6E1,7E0,1.96E2,1.6E1,3E0,3.4E1,2E0,6E0,1E0,4E0,1.2E1,9E0,2.5E1,1E0,1E0,2E0,2E0,1E0,8E0],"tree_param":{"num_deleted":"0","num_feature":"5","num_nodes":"27","size_leaf_vector":"1"}},{"base_weights":[1.5458017E-2,-4.625E-1,2.2779923E-2,2.5E-4,-6.333333E-3,-7.604166E-2,4.504717E-2,-2.875E-1,-5.405404E-3,-6.666666E-2,4.97549E-4,3.75E-4,-4E-1,2.0833334E-2,-4.75E-3,4.3749998E-4,-4.75E-3,-7.1249995E-3,-1.25E-1,-9.9999994E-2,4.8333334E-4,4E-4,-4.75E-3,-4.75E-3,4.1666668E-4],"categories":[],"categories_nodes":[],"categories_segments":[],"categories_sizes":[],"default_left":[0,0,0,0,0,0,0,0,0,0,0,0,0,0,0,0,0,0,0,0,0,0,0,0,0],"id":17,"left_children":[1,3,5,-1,-1,7,9,11,13,15,-1,-1,17,19,-1,-1,-1,-1,21,23,-1,-1,-1,-1,-1],"loss_changes":[9.2742157E-1,3.489583E-1,5.73351E-1,0E0,0E0,7.15404E-1,1.1481178E-1,4.5375013E-1,4.657939E-1,4.265625E-1,0E0,0E0,6.843748E-1,1.2445834E-1,0E0,0E0,0E0,0E0,3.6549997E-1,3.9166665E-1,0E0,0E0,0E0,0E0,0E0],"parents":[2147483647,0,0,1,1,2,2,5,5,6,6,7,7,8,8,9,9,12,12,13,13,18,18,19,19],"right_children":[2,4,6,-1,-1,8,10,12,14,16,-1,-1,18,20,-1,-1,-1,-1,22,24,-1,-1,-1,-1,-1],"split_conditions":[8.83E2,4E0,1.033E3,9.348248E-1,-2.3779426E0,3E0,9.56E2,9.07E2,1.028E3,9.46E2,6.488479E-1,1.8096924E-3,2.02E3,9.72E2,-3.15318E-1,2.9437256E-3,-8.5221493E-1,-9.3650997E-1,2.025E3,9.38E2,9.272156E-3,3.7466368E-1,-4.204895E-2,-2.3764953E-1,6.0821044E-1],"split_indices":[2,0,3,0,0,0,2,3,3,2,0,0,1,4,0,0,0,0,1,3,0,0,0,0,0],"split_type":[0,0,0,0,0,0,0,0,0,0,0,0,0,0,0,0,0,0,0,0,0,0,0,0,0],"sum_hessian":[2.61E2,3E0,2.58E2,1E0,2E0,4.7E1,2.11E2,1.1E1,3.6E1,8E0,2.03E2,3E0,8E0,3.5E1,1E0,7E0,1E0,3E0,5E0,6E0,2.9E1,4E0,1E0,1E0,5E0],"tree_param":{"num_deleted":"0","num_feature":"5","num_nodes":"25","size_leaf_vector":"1"}},{"base_weights":[1.5458017E-2,-4.625E-1,2.2779923E-2,2.5E-4,-6.333333E-3,-7.604166E-2,4.504717E-2,-2.875E-1,-5.405404E-3,-6.666666E-2,4.97549E-4,3.75E-4,-4E-1,2.0833334E-2,-4.75E-3,4.3749998E-4,-4.75E-3,-7.1249995E-3,-1.25E-1,-9.9999994E-2,4.8333334E-4,4E-4,-4.75E-3,-4.75E-3,4.1666668E-4],"categories":[],"categories_nodes":[],"categories_segments":[],"categories_sizes":[],"default_left":[0,0,0,0,0,0,0,0,0,0,0,0,0,0,0,0,0,0,0,0,0,0,0,0,0],"id":18,"left_children":[1,3,5,-1,-1,7,9,11,13,15,-1,-1,17,19,-1,-1,-1,-1,21,23,-1,-1,-1,-1,-1],"loss_changes":[9.2742157E-1,3.489583E-1,5.73351E-1,0E0,0E0,7.15404E-1,1.1481178E-1,4.5375013E-1,4.657939E-1,4.265625E-1,0E0,0E0,6.843748E-1,1.2445834E-1,0E0,0E0,0E0,0E0,3.6549997E-1,3.9166665E-1,0E0,0E0,0E0,0E0,0E0],"parents":[2147483647,0,0,1,1,2,2,5,5,6,6,7,7,8,8,9,9,12,12,13,13,18,18,19,19],"right_children":[2,4,6,-1,-1,8,10,12,14,16,-1,-1,18,20,-1,-1,-1,-1,22,24,-1,-1,-1,-1,-1],"split_conditions":[8.83E2,4E0,1.033E3,9.254767E-1,-2.3541632E0,3E0,9.56E2,9.07E2,1.028E3,9.46E2,6.423592E-1,1.7913817E-3,2.02E3,9.72E2,-3.121649E-1,2.9144287E-3,-8.436926E-1,-9.2714477E-1,2.025E3,9.38E2,9.179383E-3,3.7091735E-1,-4.1628417E-2,-2.3527282E-1,6.0212827E-1],"split_indices":[2,0,3,0,0,0,2,3,3,2,0,0,1,4,0,0,0,0,1,3,0,0,0,0,0],"split_type":[0,0,0,0,0,0,0,0,0,0,0,0,0,0,0,0,0,0,0,0,0,0,0,0,0],"sum_hessian":[2.61E2,3E0,2.58E2,1E0,2E0,4.7E1,2.11E2,1.1E1,3.6E1,8E0,2.03E2,3E0,8E0,3.5E1,1E0,7E0,1E0,3E0,5E0,6E0,2.9E1,4E0,1E0,1E0,5E0],"tree_param":{"num_deleted":"0","num_feature":"5","num_nodes":"25","size_leaf_vector":"1"}},{"base_weights":[1.1641223E-2,-4.625E-1,1.891892E-2,2.5E-4,-6.333333E-3,-7.589286E-2,4.4852942E-2,-2.025E-1,-5.405404E-3,-8.125E-2,4.9746194E-4,-7.058823E-2,-7.1249995E-3,2.0000001E-2,-2.9999998E-1,4.2857142E-4,-4.75E-3,-3.5999998E-1,4.6153847E-4,-5.5E-2,4.8076923E-4,-4.75E-3,2.5E-4,3.3333333E-4,-6.333333E-3,-4.75E-3,4.4444445E-4],"categories":[],"categories_nodes":[],"categories_segments":[],"categories_sizes":[],"default_left":[0,0,0,0,0,0,0,0,0,0,0,0,0,0,0,0,0,0,0,0,0,0,0,0,0,0,0],"id":19,"left_children":[1,3,5,-1,-1,7,9,11,13,15,-1,17,-1,19,21,-1,-1,23,-1,25,-1,-1,-1,-1,-1,-1,-1],"loss_changes":[9.1282195E-1,3.489583E-1,6.4024633E-1,0E0,0E0,4.986615E-1,1.2992078E-1,1.2952057E0,2.8291893E-1,4.1129464E-1,0E0,5.9098643E-1,0E0,7.634615E-2,1.8249997E-1,0E0,0E0,5.586666E-1,0E0,4.3877774E-1,0E0,0E0,0E0,0E0,0E0,0E0,0E0],"parents":[2147483647,0,0,1,1,2,2,5,5,6,6,7,7,8,8,9,9,11,11,13,13,14,14,17,17,19,19],"right_children":[2,4,6,-1,-1,8,10,12,14,16,-1,18,-1,20,22,-1,-1,24,-1,26,-1,-1,-1,-1,-1,-1,-1],"split_conditions":[8.83E2,4E0,1.042E3,9.162219E-1,-2.3306212E0,2.018E3,9.56E2,1.028E3,2.025E3,9.46E2,7.939359E-1,9.38E2,-9.178735E-1,3E0,3E0,2.8851319E-3,-8.3525574E-1,2.017E3,2.0324707E-3,1.038E3,1.823625E-1,-4.1212156E-2,2.100514E0,1.7736816E-3,-4.023767E-1,-2.438745E-1,7.7886963E-3],"split_indices":[2,0,3,0,0,1,2,3,1,2,0,3,0,0,0,0,0,1,0,2,0,0,0,0,0,0,0],"split_type":[0,0,0,0,0,0,0,0,0,0,0,0,0,0,0,0,0,0,0,0,0,0,0,0,0,0,0],"sum_hessian":[2.61E2,3E0,2.58E2,1E0,2E0,5.5E1,2.03E2,1.9E1,3.6E1,7E0,1.96E2,1.6E1,3E0,3.4E1,2E0,6E0,1E0,4E0,1.2E1,9E0,2.5E1,1E0,1E0,2E0,2E0,1E0,8E0],"tree_param":{"num_deleted":"0","num_feature":"5","num_nodes":"27","size_leaf_vector":"1"}},{"base_weights":[1.927481E-2,-9.387755E-2,4.509346E-2,-2.875E-1,-3.0263156E-2,-4.5454543E-2,4.97549E-4,3.75E-4,-4E-1,-2.55E-1,4.827586E-4,4.5000002E-4,-4.75E-3,-7.1249995E-3,-1.25E-1,-9.9999994E-2,-4.625E-1,4E-4,-4.75E-3,-4.75E-3,4.1666668E-4,-6.333333E-3,2.5E-4],"categories":[],"categories_nodes":[],"categories_segments":[],"categories_sizes":[],"default_left":[0,0,0,0,0,0,0,0,0,0,0,0,0,0,0,0,0,0,0,0,0,0,0],"id":20,"left_children":[1,3,5,7,9,11,-1,-1,13,15,-1,-1,-1,-1,17,19,21,-1,-1,-1,-1,-1,-1],"loss_changes":[7.696509E-1,5.948409E-1,9.258762E-2,4.5375013E-1,6.830335E-1,4.487727E-1,0E0,0E0,6.843748E-1,2.75375E-1,0E0,0E0,0E0,0E0,3.6549997E-1,3.9166665E-1,3.489583E-1,0E0,0E0,0E0,0E0,0E0,0E0],"parents":[2147483647,0,0,1,1,2,2,3,3,4,4,5,5,8,8,9,9,14,14,15,15,16,16],"right_children":[2,4,6,8,10,12,-1,-1,14,16,-1,-1,-1,-1,18,20,22,-1,-1,-1,-1,-1,-1],"split_conditions":[1.033E3,3E0,9.56E2,9.07E2,9.83E2,9.46E2,6.2799644E-1,1.7559814E-3,2.02E3,9.616667E2,8.362153E-3,2.8564453E-3,-8.2690305E-1,-9.0869504E-1,2.025E3,8.83E2,1E1,3.6713013E-1,-4.080017E-2,-2.307315E0,5.9608704E-1,-2.998645E-1,7.3405576E-1],"split_indices":[3,0,2,3,4,2,0,0,1,4,0,0,0,0,1,2,0,0,0,0,0,0,0],"split_type":[0,0,0,0,0,0,0,0,0,0,0,0,0,0,0,0,0,0,0,0,0,0,0],"sum_hessian":[2.61E2,4.8E1,2.13E2,1.1E1,3.7E1,1E1,2.03E2,3E0,8E0,9E0,2.8E1,9E0,1E0,3E0,5E0,6E0,3E0,4E0,1E0,1E0,5E0,2E0,1E0],"tree_param":{"num_deleted":"0","num_feature":"5","num_nodes":"23","size_leaf_vector":"1"}},{"base_weights":[1.5458017E-2,-9.122807E-2,4.4902913E-2,-2.3928571E-1,-4.204545E-2,-5.5E-2,4.9746194E-4,-6.333333E-3,-1.2083333E-1,-2.55E-1,2.0000001E-2,4.4444445E-4,-4.75E-3,4.3749998E-4,-3.5999998E-1,-9.9999994E-2,-4.625E-1,-2.1249999E-1,4.8437502E-4,2.5E-4,-4.625E-3,-4.75E-3,4.1666668E-4,-6.333333E-3,2.5E-4,3.3333333E-4,-4.75E-3],"categories":[],"categories_nodes":[],"categories_segments":[],"categories_sizes":[],"default_left":[0,0,0,0,0,0,0,0,0,0,0,0,0,0,0,0,0,0,0,0,0,0,0,0,0,0,0],"id":21,"left_children":[1,3,5,7,9,11,-1,-1,13,15,17,-1,-1,-1,19,21,23,25,-1,-1,-1,-1,-1,-1,-1,-1,-1],"loss_changes":[8.271329E-1,4.0500525E-1,1.0241079E-1,5.7693446E-1,5.864659E-1,4.3877774E-1,0E0,0E0,4.8810416E-1,2.75375E-1,2.4170312E-1,0E0,0E0,0E0,2.08875E-1,3.9166665E-1,3.489583E-1,2.7395833E-1,0E0,0E0,0E0,0E0,0E0,0E0,0E0,0E0,0E0],"parents":[2147483647,0,0,1,1,2,2,3,3,4,4,5,5,8,8,9,9,10,10,14,14,15,15,16,16,17,17],"right_children":[2,4,6,8,10,12,-1,-1,14,16,18,-1,-1,-1,20,22,24,26,-1,-1,-1,-1,-1,-1,-1,-1,-1],"split_conditions":[1.042E3,3E0,9.56E2,1.0816666E3,9.83E2,9.46E2,7.7971655E-1,-3.8926575E-1,1.1303334E3,9.616667E2,2.016E3,2.8277587E-3,-8.1863403E-1,1.7382812E-3,9.78E2,8.83E2,1E1,9E0,1.0395141E-2,6.7043453E-1,-8.9960814E-1,-2.284242E0,5.9012634E-1,-2.9686585E-1,7.267151E-1,2.9200011E-1,-2.5994873E-3],"split_indices":[3,0,2,4,4,2,0,0,4,4,1,0,0,0,3,2,0,0,0,0,0,0,0,0,0,0,0],"split_type":[0,0,0,0,0,0,0,0,0,0,0,0,0,0,0,0,0,0,0,0,0,0,0,0,0,0,0],"sum_hessian":[2.61E2,5.6E1,2.05E2,1.3E1,4.3E1,9E0,1.96E2,2E0,1.1E1,9E0,3.4E1,8E0,1E0,7E0,4E0,6E0,3E0,3E0,3.1E1,1E0,3E0,1E0,5E0,2E0,1E0,2E0,1E0],"tree_param":{"num_deleted":"0","num_feature":"5","num_nodes":"27","size_leaf_vector":"1"}},{"base_weights":[1.5458017E-2,-9.122807E-2,4.4902913E-2,-2.3928571E-1,-4.204545E-2,-5.5E-2,4.9746194E-4,-6.333333E-3,-1.2083333E-1,-2.55E-1,2.0000001E-2,4.4444445E-4,-4.75E-3,4.3749998E-4,-3.5999998E-1,-9.9999994E-2,-4.625E-1,-2.1249999E-1,4.8437502E-4,2.5E-4,-4.625E-3,-4.75E-3,4.1666668E-4,-6.333333E-3,2.5E-4,3.3333333E-4,-4.75E-3],"categories":[],"categories_nodes":[],"categories_segments":[],"categories_sizes":[],"default_left":[0,0,0,0,0,0,0,0,0,0,0,0,0,0,0,0,0,0,0,0,0,0,0,0,0,0,0],"id":22,"left_children":[1,3,5,7,9,11,-1,-1,13,15,17,-1,-1,-1,19,21,23,25,-1,-1,-1,-1,-1,-1,-1,-1,-1],"loss_changes":[8.271329E-1,4.0500525E-1,1.0241079E-1,5.7693446E-1,5.864659E-1,4.3877774E-1,0E0,0E0,4.8810416E-1,2.75375E-1,2.4170312E-1,0E0,0E0,0E0,2.08875E-1,3.9166665E-1,3.489583E-1,2.7395833E-1,0E0,0E0,0E0,0E0,0E0,0E0,0E0,0E0,0E0],"parents":[2147483647,0,0,1,1,2,2,3,3,4,4,5,5,8,8,9,9,10,10,14,14,15,15,16,16,17,17],"right_children":[2,4,6,8,10,12,-1,-1,14,16,18,-1,-1,-1,20,22,24,26,-1,-1,-1,-1,-1,-1,-1,-1,-1],"split_conditions":[1.042E3,3E0,9.56E2,1.0816666E3,9.83E2,9.46E2,7.719193E-1,-3.853729E-1,1.1303334E3,9.616667E2,2.016E3,2.7996826E-3,-8.10448E-1,1.7211913E-3,9.78E2,8.83E2,1E1,9E0,1.0291382E-2,6.6373044E-1,-8.906122E-1,-2.2613995E0,5.842248E-1,-2.938971E-1,7.194482E-1,2.890802E-1,-2.5732422E-3],"split_indices":[3,0,2,4,4,2,0,0,4,4,1,0,0,0,3,2,0,0,0,0,0,0,0,0,0,0,0],"split_type":[0,0,0,0,0,0,0,0,0,0,0,0,0,0,0,0,0,0,0,0,0,0,0,0,0,0,0],"sum_hessian":[2.61E2,5.6E1,2.05E2,1.3E1,4.3E1,9E0,1.96E2,2E0,1.1E1,9E0,3.4E1,8E0,1E0,7E0,4E0,6E0,3E0,3E0,3.1E1,1E0,3E0,1E0,5E0,2E0,1E0,2E0,1E0],"tree_param":{"num_deleted":"0","num_feature":"5","num_nodes":"27","size_leaf_vector":"1"}},{"base_weights":[1.5458017E-2,-9.122807E-2,4.4902913E-2,-2.3928571E-1,-4.204545E-2,-5.5E-2,4.9746194E-4,-6.333333E-3,-1.2083333E-1,-2.55E-1,2.0000001E-2,4.4444445E-4,-4.75E-3,4.3749998E-4,-3.5999998E-1,-9.9999994E-2,-4.625E-1,-2.1249999E-1,4.8437502E-4,2.5E-4,-4.625E-3,-4.75E-3,4.1666668E-4,-6.333333E-3,2.5E-4,3.3333333E-4,-4.75E-3],"categories":[],"categories_nodes":[],"categories_segments":[],"categories_sizes":[],"default_left":[0,0,0,0,0,0,0,0,0,0,0,0,0,0,0,0,0,0,0,0,0,0,0,0,0,0,0],"id":23,"left_children":[1,3,5,7,9,11,-1,-1,13,15,17,-1,-1,-1,19,21,23,25,-1,-1,-1,-1,-1,-1,-1,-1,-1],"loss_changes":[8.271329E-1,4.0500525E-1,1.0241079E-1,5.7693446E-1,5.864659E-1,4.3877774E-1,0E0,0E0,4.8810416E-1,2.75375E-1,2.4170312E-1,0E0,0E0,0E0,2.08875E-1,3.9166665E-1,3.489583E-1,2.7395833E-1,0E0,0E0,0E0,0E0,0E0,0E0,0E0,0E0,0E0],"parents":[2147483647,0,0,1,1,2,2,3,3,4,4,5,5,8,8,9,9,10,10,14,14,15,15,16,16,17,17],"right_children":[2,4,6,8,10,12,-1,-1,14,16,18,-1,-1,-1,20,22,24,26,-1,-1,-1,-1,-1,-1,-1,-1,-1],"split_conditions":[1.042E3,3E0,9.56E2,1.0816666E3,9.83E2,9.46E2,7.642002E-1,-3.8151917E-1,1.1303334E3,9.616667E2,2.016E3,2.7716064E-3,-8.023437E-1,1.7041016E-3,9.78E2,8.83E2,1E1,9E0,1.0188232E-2,6.5709287E-1,-8.8170594E-1,-2.2387853E0,5.7838255E-1,-2.9095826E-1,7.12254E-1,2.8618956E-1,-2.5476073E-3],"split_indices":[3,0,2,4,4,2,0,0,4,4,1,0,0,0,3,2,0,0,0,0,0,0,0,0,0,0,0],"split_type":[0,0,0,0,0,0,0,0,0,0,0,0,0,0,0,0,0,0,0,0,0,0,0,0,0,0,0],"sum_hessian":[2.61E2,5.6E1,2.05E2,1.3E1,4.3E1,9E0,1.96E2,2E0,1.1E1,9E0,3.4E1,8E0,1E0,7E0,4E0,6E0,3E0,3E0,3.1E1,1E0,3E0,1E0,5E0,2E0,1E0,2E0,1E0],"tree_param":{"num_deleted":"0","num_feature":"5","num_nodes":"27","size_leaf_vector":"1"}},{"base_weights":[1.5458017E-2,-9.122807E-2,4.4902913E-2,-2.3928571E-1,-4.204545E-2,-5.5E-2,4.9746194E-4,-6.333333E-3,-1.2083333E-1,-2.55E-1,2.0000001E-2,4.4444445E-4,-4.75E-3,4.3749998E-4,-3.5999998E-1,-9.9999994E-2,-4.625E-1,-2.1249999E-1,4.8437502E-4,2.5E-4,-4.625E-3,-4.75E-3,4.1666668E-4,-6.333333E-3,2.5E-4,3.3333333E-4,-4.75E-3],"categories":[],"categories_nodes":[],"categories_segments":[],"categories_sizes":[],"default_left":[0,0,0,0,0,0,0,0,0,0,0,0,0,0,0,0,0,0,0,0,0,0,0,0,0,0,0],"id":24,"left_children":[1,3,5,7,9,11,-1,-1,13,15,17,-1,-1,-1,19,21,23,25,-1,-1,-1,-1,-1,-1,-1,-1,-1],"loss_changes":[8.271329E-1,4.0500525E-1,1.0241079E-1,5.7693446E-1,5.864659E-1,4.3877774E-1,0E0,0E0,4.8810416E-1,2.75375E-1,2.4170312E-1,0E0,0E0,0E0,2.08875E-1,3.9166665E-1,3.489583E-1,2.7395833E-1,0E0,0E0,0E0,0E0,0E0,0E0,0E0,0E0,0E0],"parents":[2147483647,0,0,1,1,2,2,3,3,4,4,5,5,8,8,9,9,10,10,14,14,15,15,16,16,17,17],"right_children":[2,4,6,8,10,12,-1,-1,14,16,18,-1,-1,-1,20,22,24,26,-1,-1,-1,-1,-1,-1,-1,-1,-1],"split_conditions":[1.042E3,3E0,9.56E2,1.0816666E3,9.83E2,9.46E2,7.56558E-1,-3.7770385E-1,1.1303334E3,9.616667E2,2.016E3,2.7441406E-3,-7.9432005E-1,1.6870117E-3,9.78E2,8.83E2,1E1,9E0,1.0086304E-2,6.505218E-1,-8.728888E-1,-2.2163978E0,5.725989E-1,-2.880487E-1,7.0513123E-1,2.8332764E-1,-2.5219726E-3],"split_indices":[3,0,2,4,4,2,0,0,4,4,1,0,0,0,3,2,0,0,0,0,0,0,0,0,0,0,0],"split_type":[0,0,0,0,0,0,0,0,0,0,0,0,0,0,0,0,0,0,0,0,0,0,0,0,0,0,0],"sum_hessian":[2.61E2,5.6E1,2.05E2,1.3E1,4.3E1,9E0,1.96E2,2E0,1.1E1,9E0,3.4E1,8E0,1E0,7E0,4E0,6E0,3E0,3E0,3.1E1,1E0,3E0,1E0,5E0,2E0,1E0,2E0,1E0],"tree_param":{"num_deleted":"0","num_feature":"5","num_nodes":"27","size_leaf_vector":"1"}},{"base_weights":[1.5458017E-2,-9.122807E-2,4.4902913E-2,-2.3928571E-1,-4.204545E-2,-5.5E-2,4.9746194E-4,-6.333333E-3,-1.2083333E-1,-2.55E-1,2.0000001E-2,4.4444445E-4,-4.75E-3,4.3749998E-4,-3.5999998E-1,-9.9999994E-2,-4.625E-1,-2.1249999E-1,4.8437502E-4,2.5E-4,-4.625E-3,-4.75E-3,4.1666668E-4,-6.333333E-3,2.5E-4,3.3333333E-4,-4.75E-3],"categories":[],"categories_nodes":[],"categories_segments":[],"categories_sizes":[],"default_left":[0,0,0,0,0,0,0,0,0,0,0,0,0,0,0,0,0,0,0,0,0,0,0,0,0,0,0],"id":25,"left_children":[1,3,5,7,9,11,-1,-1,13,15,17,-1,-1,-1,19,21,23,25,-1,-1,-1,-1,-1,-1,-1,-1,-1],"loss_changes":[8.271329E-1,4.0500525E-1,1.0241079E-1,5.7693446E-1,5.864659E-1,4.3877774E-1,0E0,0E0,4.8810416E-1,2.75375E-1,2.4170312E-1,0E0,0E0,0E0,2.08875E-1,3.9166665E-1,3.489583E-1,2.7395833E-1,0E0,0E0,0E0,0E0,0E0,0E0,0E0,0E0,0E0],"parents":[2147483647,0,0,1,1,2,2,3,3,4,4,5,5,8,8,9,9,10,10,14,14,15,15,16,16,17,17],"right_children":[2,4,6,8,10,12,-1,-1,14,16,18,-1,-1,-1,20,22,24,26,-1,-1,-1,-1,-1,-1,-1,-1,-1],"split_conditions":[1.042E3,3E0,9.56E2,1.0816666E3,9.83E2,9.46E2,7.489927E-1,-3.73927E-1,1.1303334E3,9.616667E2,2.016E3,2.7166747E-3,-7.8637695E-1,1.6699218E-3,9.78E2,8.83E2,1E1,9E0,9.985596E-3,6.440167E-1,-8.641601E-1,-2.194234E0,5.6687313E-1,-2.8516844E-1,6.980798E-1,2.804944E-1,-2.4969482E-3],"split_indices":[3,0,2,4,4,2,0,0,4,4,1,0,0,0,3,2,0,0,0,0,0,0,0,0,0,0,0],"split_type":[0,0,0,0,0,0,0,0,0,0,0,0,0,0,0,0,0,0,0,0,0,0,0,0,0,0,0],"sum_hessian":[2.61E2,5.6E1,2.05E2,1.3E1,4.3E1,9E0,1.96E2,2E0,1.1E1,9E0,3.4E1,8E0,1E0,7E0,4E0,6E0,3E0,3E0,3.1E1,1E0,3E0,1E0,5E0,2E0,1E0,2E0,1E0],"tree_param":{"num_deleted":"0","num_feature":"5","num_nodes":"27","size_leaf_vector":"1"}},{"base_weights":[1.927481E-2,-7.368421E-2,4.4902913E-2,-2.025E-1,-3.947367E-3,-5.5E-2,4.9746194E-4,-7.058823E-2,-7.1249995E-3,-4.75E-3,2.1621622E-2,4.4444445E-4,-4.75E-3,-3.5999998E-1,4.6153847E-4,-5.5E-2,4.8214284E-4,3.3333333E-4,-6.333333E-3,4.4444445E-4,-4.75E-3],"categories":[],"categories_nodes":[],"categories_segments":[],"categories_sizes":[],"default_left":[0,0,0,0,0,0,0,0,0,0,0,0,0,0,0,0,0,0,0,0,0],"id":26,"left_children":[1,3,5,7,9,11,-1,13,-1,-1,15,-1,-1,17,-1,19,-1,-1,-1,-1,-1],"loss_changes":[6.2748784E-1,5.1124346E-1,1.0241079E-1,1.2952057E0,4.6795517E-1,4.3877774E-1,0E0,5.9098643E-1,0E0,0E0,7.804199E-2,0E0,0E0,5.586666E-1,0E0,4.3877774E-1,0E0,0E0,0E0,0E0,0E0],"parents":[2147483647,0,0,1,1,2,2,3,3,4,4,5,5,7,7,10,10,13,13,15,15],"right_children":[2,4,6,8,10,12,-1,14,-1,-1,16,-1,-1,18,-1,20,-1,-1,-1,-1,-1],"split_conditions":[1.042E3,2.018E3,9.56E2,1.028E3,8.83E2,9.46E2,7.4150306E-1,9.38E2,-8.5551876E-1,-2.1722918E0,9.4E2,2.6892088E-3,-7.785132E-1,2.017E3,1.4190674E-3,9.29E2,5.6838017E-2,1.6534424E-3,-3.7018797E-1,7.608032E-3,-2.1327087E-1],"split_indices":[3,1,2,3,2,2,0,3,0,0,3,0,0,1,0,3,0,0,0,0,0],"split_type":[0,0,0,0,0,0,0,0,0,0,0,0,0,0,0,0,0,0,0,0,0],"sum_hessian":[2.61E2,5.6E1,2.05E2,1.9E1,3.7E1,9E0,1.96E2,1.6E1,3E0,1E0,3.6E1,8E0,1E0,4E0,1.2E1,9E0,2.7E1,2E0,2E0,8E0,1E0],"tree_param":{"num_deleted":"0","num_feature":"5","num_nodes":"21","size_leaf_vector":"1"}},{"base_weights":[2.3091605E-2,-7.3469386E-2,4.509346E-2,-3.8043477E-2,-4.625E-1,-4.5454543E-2,4.97549E-4,-4.75E-3,-1.7777776E-2,-6.333333E-3,2.5E-4,4.5000002E-4,-4.75E-3,-1.6785714E-1,4.8437502E-4,4.5000002E-4,-5.6E-1,-7.1249995E-3,2.5E-4],"categories":[],"categories_nodes":[],"categories_segments":[],"categories_sizes":[],"default_left":[0,0,0,0,0,0,0,0,0,0,0,0,0,0,0,0,0,0,0],"id":27,"left_children":[1,3,5,7,9,11,-1,-1,13,-1,-1,-1,-1,15,-1,-1,17,-1,-1],"loss_changes":[5.599375E-1,6.5771127E-1,9.258762E-2,3.9889616E-1,3.489583E-1,4.487727E-1,0E0,0E0,4.5532018E-1,0E0,0E0,0E0,0E0,1.1937857E0,0E0,0E0,4.6387494E-1,0E0,0E0],"parents":[2147483647,0,0,1,1,2,2,3,3,4,4,5,5,8,8,13,13,16,16],"right_children":[2,4,6,8,10,12,-1,-1,14,-1,-1,-1,-1,16,-1,-1,18,-1,-1],"split_conditions":[1.033E3,1.028E3,9.56E2,8.83E2,2.018E3,9.46E2,5.7683593E-1,-2.1505687E0,9.4E2,-8.4696347E-1,4.0697998E-1,2.6623535E-3,-7.707281E-1,9.29E2,2.439209E-3,1.6369629E-3,1E1,-3.664862E-1,5.66261E-1],"split_indices":[3,3,2,2,1,2,0,0,3,0,0,0,0,3,0,0,0,0,0],"split_type":[0,0,0,0,0,0,0,0,0,0,0,0,0,0,0,0,0,0,0],"sum_hessian":[2.61E2,4.8E1,2.13E2,4.5E1,3E0,1E1,2.03E2,1E0,4.4E1,2E0,1E0,9E0,1E0,1.3E1,3.1E1,9E0,4E0,3E0,1E0],"tree_param":{"num_deleted":"0","num_feature":"5","num_nodes":"19","size_leaf_vector":"1"}},{"base_weights":[2.3091605E-2,-7.3469386E-2,4.509346E-2,-3.8043477E-2,-4.625E-1,-4.5454543E-2,4.97549E-4,-4.75E-3,-1.7777776E-2,-6.333333E-3,2.5E-4,4.5000002E-4,-4.75E-3,-1.6785714E-1,4.8437502E-4,4.5000002E-4,-5.6E-1,-7.1249995E-3,2.5E-4],"categories":[],"categories_nodes":[],"categories_segments":[],"categories_sizes":[],"default_left":[0,0,0,0,0,0,0,0,0,0,0,0,0,0,0,0,0,0,0],"id":28,"left_children":[1,3,5,7,9,11,-1,-1,13,-1,-1,-1,-1,15,-1,-1,17,-1,-1],"loss_changes":[5.599375E-1,6.5771127E-1,9.258762E-2,3.9889616E-1,3.489583E-1,4.487727E-1,0E0,0E0,4.5532018E-1,0E0,0E0,0E0,0E0,1.1937857E0,0E0,0E0,4.6387494E-1,0E0,0E0],"parents":[2147483647,0,0,1,1,2,2,3,3,4,4,5,5,8,8,13,13,16,16],"right_children":[2,4,6,8,10,12,-1,-1,14,-1,-1,-1,-1,16,-1,-1,18,-1,-1],"split_conditions":[1.033E3,1.028E3,9.56E2,8.83E2,2.018E3,9.46E2,5.710675E-1,-2.1290631E0,9.4E2,-8.3849365E-1,4.0291014E-1,2.635498E-3,-7.6302063E-1,9.29E2,2.4147949E-3,1.6204834E-3,1E1,-3.6282104E-1,5.6059813E-1],"split_indices":[3,3,2,2,1,2,0,0,3,0,0,0,0,3,0,0,0,0,0],"split_type":[0,0,0,0,0,0,0,0,0,0,0,0,0,0,0,0,0,0,0],"sum_hessian":[2.61E2,4.8E1,2.13E2,4.5E1,3E0,1E1,2.03E2,1E0,4.4E1,2E0,1E0,9E0,1E0,1.3E1,3.1E1,9E0,4E0,3E0,1E0],"tree_param":{"num_deleted":"0","num_feature":"5","num_nodes":"19","size_leaf_vector":"1"}},{"base_weights":[1.927481E-2,-7.368421E-2,4.4902913E-2,-2.025E-1,-3.947367E-3,-5.5E-2,4.9746194E-4,-7.058823E-2,-7.1249995E-3,-4.75E-3,2.1621622E-2,4.4444445E-4,-4.75E-3,-3.5999998E-1,4.6153847E-4,-5.5E-2,4.8214284E-4,3.3333333E-4,-6.333333E-3,4.4444445E-4,-4.75E-3],"categories":[],"categories_nodes":[],"categories_segments":[],"categories_sizes":[],"default_left":[0,0,0,0,0,0,0,0,0,0,0,0,0,0,0,0,0,0,0,0,0],"id":29,"left_children":[1,3,5,7,9,11,-1,13,-1,-1,15,-1,-1,17,-1,19,-1,-1,-1,-1,-1],"loss_changes":[6.2748784E-1,5.1124346E-1,1.0241079E-1,1.2952057E0,4.6795517E-1,4.3877774E-1,0E0,5.9098643E-1,0E0,0E0,7.804199E-2,0E0,0E0,5.586666E-1,0E0,4.3877774E-1,0E0,0E0,0E0,0E0,0E0],"parents":[2147483647,0,0,1,1,2,2,3,3,4,4,5,5,7,7,10,10,13,13,15,15],"right_children":[2,4,6,8,10,12,-1,14,-1,-1,16,-1,-1,18,-1,20,-1,-1,-1,-1,-1],"split_conditions":[1.042E3,2.018E3,9.56E2,1.028E3,8.83E2,9.46E2,7.22609E-1,9.38E2,-8.3010864E-1,-2.107772E0,9.4E2,2.609253E-3,-7.553906E-1,2.017E3,1.3562011E-3,9.29E2,5.622095E-2,1.6040038E-3,-3.5919312E-1,7.4987793E-3,-2.038452E-1],"split_indices":[3,1,2,3,2,2,0,3,0,0,3,0,0,1,0,3,0,0,0,0,0],"split_type":[0,0,0,0,0,0,0,0,0,0,0,0,0,0,0,0,0,0,0,0,0],"sum_hessian":[2.61E2,5.6E1,2.05E2,1.9E1,3.7E1,9E0,1.96E2,1.6E1,3E0,1E0,3.6E1,8E0,1E0,4E0,1.2E1,9E0,2.7E1,2E0,2E0,8E0,1E0],"tree_param":{"num_deleted":"0","num_feature":"5","num_nodes":"21","size_leaf_vector":"1"}},{"base_weights":[2.3091605E-2,-7.3469386E-2,4.509346E-2,-3.8043477E-2,-4.625E-1,-4.5454543E-2,4.97549E-4,-4.75E-3,-1.7777776E-2,-6.333333E-3,2.5E-4,4.5000002E-4,-4.75E-3,-1.6785714E-1,4.8437502E-4,4.5000002E-4,-5.6E-1,-7.1249995E-3,2.5E-4],"categories":[],"categories_nodes":[],"categories_segments":[],"categories_sizes":[],"default_left":[0,0,0,0,0,0,0,0,0,0,0,0,0,0,0,0,0,0,0],"id":30,"left_children":[1,3,5,7,9,11,-1,-1,13,-1,-1,-1,-1,15,-1,-1,17,-1,-1],"loss_changes":[5.599375E-1,6.5771127E-1,9.258762E-2,3.9889616E-1,3.489583E-1,4.487727E-1,0E0,0E0,4.5532018E-1,0E0,0E0,0E0,0E0,1.1937857E0,0E0,0E0,4.6387494E-1,0E0,0E0],"parents":[2147483647,0,0,1,1,2,2,3,3,4,4,5,5,8,8,13,13,16,16],"right_children":[2,4,6,8,10,12,-1,-1,14,-1,-1,-1,-1,16,-1,-1,18,-1,-1],"split_conditions":[1.033E3,1.028E3,9.56E2,8.83E2,2.018E3,9.46E2,5.634622E-1,-2.0866942E0,9.4E2,-8.2180786E-1,3.983191E-1,2.5830078E-3,-7.478369E-1,9.29E2,2.0477294E-3,1.5881347E-3,1E1,-3.556012E-1,5.5497617E-1],"split_indices":[3,3,2,2,1,2,0,0,3,0,0,0,0,3,0,0,0,0,0],"split_type":[0,0,0,0,0,0,0,0,0,0,0,0,0,0,0,0,0,0,0],"sum_hessian":[2.61E2,4.8E1,2.13E2,4.5E1,3E0,1E1,2.03E2,1E0,4.4E1,2E0,1E0,9E0,1E0,1.3E1,3.1E1,9E0,4E0,3E0,1E0],"tree_param":{"num_deleted":"0","num_feature":"5","num_nodes":"19","size_leaf_vector":"1"}},{"base_weights":[1.927481E-2,-7.368421E-2,4.4902913E-2,-2.025E-1,-3.947367E-3,-5.5E-2,4.9746194E-4,-7.058823E-2,-7.1249995E-3,-4.75E-3,2.1621622E-2,4.4444445E-4,-4.75E-3,-3.5999998E-1,4.6153847E-4,-5.5E-2,4.8214284E-4,3.3333333E-4,-6.333333E-3,4.4444445E-4,-4.75E-3],"categories":[],"categories_nodes":[],"categories_segments":[],"categories_sizes":[],"default_left":[0,0,0,0,0,0,0,0,0,0,0,0,0,0,0,0,0,0,0,0,0],"id":31,"left_children":[1,3,5,7,9,11,-1,13,-1,-1,15,-1,-1,17,-1,19,-1,-1,-1,-1,-1],"loss_changes":[6.2748784E-1,5.1124346E-1,1.0241079E-1,1.2952057E0,4.6795517E-1,4.3877774E-1,0E0,5.9098643E-1,0E0,0E0,7.804199E-2,0E0,0E0,5.586666E-1,0E0,4.3877774E-1,0E0,0E0,0E0,0E0,0E0],"parents":[2147483647,0,0,1,1,2,2,3,3,4,4,5,5,7,7,10,10,13,13,15,15],"right_children":[2,4,6,8,10,12,-1,14,-1,-1,16,-1,-1,18,-1,20,-1,-1,-1,-1,-1],"split_conditions":[1.042E3,2.018E3,9.56E2,1.028E3,8.83E2,9.46E2,7.0974827E-1,9.38E2,-8.1359005E-1,-2.0658276E0,9.4E2,2.557373E-3,-7.4035823E-1,2.017E3,1.3220215E-3,9.29E2,5.5638064E-2,1.5722656E-3,-3.5204527E-1,7.4078366E-3,-1.9825073E-1],"split_indices":[3,1,2,3,2,2,0,3,0,0,3,0,0,1,0,3,0,0,0,0,0],"split_type":[0,0,0,0,0,0,0,0,0,0,0,0,0,0,0,0,0,0,0,0,0],"sum_hessian":[2.61E2,5.6E1,2.05E2,1.9E1,3.7E1,9E0,1.96E2,1.6E1,3E0,1E0,3.6E1,8E0,1E0,4E0,1.2E1,9E0,2.7E1,2E0,2E0,8E0,1E0],"tree_param":{"num_deleted":"0","num_feature":"5","num_nodes":"21","size_leaf_vector":"1"}},{"base_weights":[2.3091605E-2,-7.3469386E-2,4.509346E-2,-3.8043477E-2,-4.625E-1,-4.5454543E-2,4.97549E-4,-4.75E-3,-1.7777776E-2,-6.333333E-3,2.5E-4,4.5000002E-4,-4.75E-3,-1.6785714E-1,4.8437502E-4,4.5000002E-4,-5.6E-1,-7.1249995E-3,2.5E-4],"categories":[],"categories_nodes":[],"categories_segments":[],"categories_sizes":[],"default_left":[0,0,0,0,0,0,0,0,0,0,0,0,0,0,0,0,0,0,0],"id":32,"left_children":[1,3,5,7,9,11,-1,-1,13,-1,-1,-1,-1,15,-1,-1,17,-1,-1],"loss_changes":[5.599375E-1,6.5771127E-1,9.258762E-2,3.9889616E-1,3.489583E-1,4.487727E-1,0E0,0E0,4.5532018E-1,0E0,0E0,0E0,0E0,1.1937857E0,0E0,0E0,4.6387494E-1,0E0,0E0],"parents":[2147483647,0,0,1,1,2,2,3,3,4,4,5,5,8,8,13,13,16,16],"right_children":[2,4,6,8,10,12,-1,-1,14,-1,-1,-1,-1,16,-1,-1,18,-1,-1],"split_conditions":[1.033E3,1.028E3,9.56E2,8.83E2,2.018E3,9.46E2,5.559625E-1,-2.045169E0,9.4E2,-8.054541E-1,3.9377928E-1,2.5317383E-3,-7.329547E-1,9.29E2,1.687622E-3,1.5563965E-3,1E1,-3.4852478E-1,5.494104E-1],"split_indices":[3,3,2,2,1,2,0,0,3,0,0,0,0,3,0,0,0,0,0],"split_type":[0,0,0,0,0,0,0,0,0,0,0,0,0,0,0,0,0,0,0],"sum_hessian":[2.61E2,4.8E1,2.13E2,4.5E1,3E0,1E1,2.03E2,1E0,4.4E1,2E0,1E0,9E0,1E0,1.3E1,3.1E1,9E0,4E0,3E0,1E0],"tree_param":{"num_deleted":"0","num_feature":"5","num_nodes":"19","size_leaf_vector":"1"}},{"base_weights":[1.927481E-2,-7.368421E-2,4.4902913E-2,-2.025E-1,-3.947367E-3,-5.5E-2,4.9746194E-4,-7.058823E-2,-7.1249995E-3,-4.75E-3,2.1621622E-2,4.4444445E-4,-4.75E-3,-3.5999998E-1,4.6153847E-4,-5.5E-2,4.8214284E-4,3.3333333E-4,-6.333333E-3,4.4444445E-4,-4.75E-3],"categories":[],"categories_nodes":[],"categories_segments":[],"categories_sizes":[],"default_left":[0,0,0,0,0,0,0,0,0,0,0,0,0,0,0,0,0,0,0,0,0],"id":33,"left_children":[1,3,5,7,9,11,-1,13,-1,-1,15,-1,-1,17,-1,19,-1,-1,-1,-1,-1],"loss_changes":[6.2748784E-1,5.1124346E-1,1.0241079E-1,1.2952057E0,4.6795517E-1,4.3877774E-1,0E0,5.9098643E-1,0E0,0E0,7.804199E-2,0E0,0E0,5.586666E-1,0E0,4.3877774E-1,0E0,0E0,0E0,0E0,0E0],"parents":[2147483647,0,0,1,1,2,2,3,3,4,4,5,5,7,7,10,10,13,13,15,15],"right_children":[2,4,6,8,10,12,-1,14,-1,-1,16,-1,-1,18,-1,20,-1,-1,-1,-1,-1],"split_conditions":[1.042E3,2.018E3,9.56E2,1.028E3,8.83E2,9.46E2,6.970908E-1,9.38E2,-7.973993E-1,-2.0247173E0,9.4E2,2.5067138E-3,-7.25625E-1,2.017E3,1.2915039E-3,9.29E2,5.5064335E-2,1.5405273E-3,-3.4503967E-1,7.318115E-3,-1.9278319E-1],"split_indices":[3,1,2,3,2,2,0,3,0,0,3,0,0,1,0,3,0,0,0,0,0],"split_type":[0,0,0,0,0,0,0,0,0,0,0,0,0,0,0,0,0,0,0,0,0],"sum_hessian":[2.61E2,5.6E1,2.05E2,1.9E1,3.7E1,9E0,1.96E2,1.6E1,3E0,1E0,3.6E1,8E0,1E0,4E0,1.2E1,9E0,2.7E1,2E0,2E0,8E0,1E0],"tree_param":{"num_deleted":"0","num_feature":"5","num_nodes":"21","size_leaf_vector":"1"}},{"base_weights":[2.3091605E-2,-7.3469386E-2,4.509346E-2,-3.8043477E-2,-4.625E-1,-4.5454543E-2,4.97549E-4,-4.75E-3,-1.7777776E-2,-6.333333E-3,2.5E-4,4.5000002E-4,-4.75E-3,-1.6785714E-1,4.8437502E-4,4.5000002E-4,-5.6E-1,-7.1249995E-3,2.5E-4],"categories":[],"categories_nodes":[],"categories_segments":[],"categories_sizes":[],"default_left":[0,0,0,0,0,0,0,0,0,0,0,0,0,0,0,0,0,0,0],"id":34,"left_children":[1,3,5,7,9,11,-1,-1,13,-1,-1,-1,-1,15,-1,-1,17,-1,-1],"loss_changes":[5.599375E-1,6.5771127E-1,9.258762E-2,3.9889616E-1,3.489583E-1,4.487727E-1,0E0,0E0,4.5532018E-1,0E0,0E0,0E0,0E0,1.1937857E0,0E0,0E0,4.6387494E-1,0E0,0E0],"parents":[2147483647,0,0,1,1,2,2,3,3,4,4,5,5,8,8,13,13,16,16],"right_children":[2,4,6,8,10,12,-1,-1,14,-1,-1,-1,-1,16,-1,-1,18,-1,-1],"split_conditions":[1.033E3,1.028E3,9.56E2,8.83E2,2.018E3,9.46E2,5.485682E-1,-2.00447E0,9.4E2,-7.89425E-1,3.8929075E-1,2.4816894E-3,-7.1836853E-1,9.29E2,1.3350829E-3,1.5252685E-3,1E1,-3.4158936E-1,5.439007E-1],"split_indices":[3,3,2,2,1,2,0,0,3,0,0,0,0,3,0,0,0,0,0],"split_type":[0,0,0,0,0,0,0,0,0,0,0,0,0,0,0,0,0,0,0],"sum_hessian":[2.61E2,4.8E1,2.13E2,4.5E1,3E0,1E1,2.03E2,1E0,4.4E1,2E0,1E0,9E0,1E0,1.3E1,3.1E1,9E0,4E0,3E0,1E0],"tree_param":{"num_deleted":"0","num_feature":"5","num_nodes":"19","size_leaf_vector":"1"}},{"base_weights":[2.3091605E-2,-7.3469386E-2,4.509346E-2,-3.8043477E-2,-4.625E-1,-4.5454543E-2,4.97549E-4,-4.75E-3,-1.7777776E-2,-6.333333E-3,2.5E-4,4.5000002E-4,-4.75E-3,-1.6785714E-1,4.8437502E-4,4.5000002E-4,-5.6E-1,-7.1249995E-3,2.5E-4],"categories":[],"categories_nodes":[],"categories_segments":[],"categories_sizes":[],"default_left":[0,0,0,0,0,0,0,0,0,0,0,0,0,0,0,0,0,0,0],"id":35,"left_children":[1,3,5,7,9,11,-1,-1,13,-1,-1,-1,-1,15,-1,-1,17,-1,-1],"loss_changes":[5.599375E-1,6.5771127E-1,9.258762E-2,3.9889616E-1,3.489583E-1,4.487727E-1,0E0,0E0,4.5532018E-1,0E0,0E0,0E0,0E0,1.1937857E0,0E0,0E0,4.6387494E-1,0E0,0E0],"parents":[2147483647,0,0,1,1,2,2,3,3,4,4,5,5,8,8,13,13,16,16],"right_children":[2,4,6,8,10,12,-1,-1,14,-1,-1,-1,-1,16,-1,-1,18,-1,-1],"split_conditions":[1.033E3,1.028E3,9.56E2,8.83E2,2.018E3,9.46E2,5.4308236E-1,-1.9844257E0,9.4E2,-7.8153074E-1,3.8539794E-1,2.456665E-3,-7.111847E-1,9.29E2,1.3216552E-3,1.5100098E-3,1E1,-3.381732E-1,5.384619E-1],"split_indices":[3,3,2,2,1,2,0,0,3,0,0,0,0,3,0,0,0,0,0],"split_type":[0,0,0,0,0,0,0,0,0,0,0,0,0,0,0,0,0,0,0],"sum_hessian":[2.61E2,4.8E1,2.13E2,4.5E1,3E0,1E1,2.03E2,1E0,4.4E1,2E0,1E0,9E0,1E0,1.3E1,3.1E1,9E0,4E0,3E0,1E0],"tree_param":{"num_deleted":"0","num_feature":"5","num_nodes":"19","size_leaf_vector":"1"}},{"base_weights":[1.927481E-2,-7.368421E-2,4.4902913E-2,-2.025E-1,-3.947367E-3,-5.5E-2,4.9746194E-4,-7.058823E-2,-7.1249995E-3,-4.75E-3,2.1621622E-2,4.4444445E-4,-4.75E-3,-3.5999998E-1,4.6153847E-4,-5.5E-2,4.8214284E-4,3.3333333E-4,-6.333333E-3,4.4444445E-4,-4.75E-3],"categories":[],"categories_nodes":[],"categories_segments":[],"categories_sizes":[],"default_left":[0,0,0,0,0,0,0,0,0,0,0,0,0,0,0,0,0,0,0,0,0],"id":36,"left_children":[1,3,5,7,9,11,-1,13,-1,-1,15,-1,-1,17,-1,19,-1,-1,-1,-1,-1],"loss_changes":[6.2748784E-1,5.1124346E-1,1.0241079E-1,1.2952057E0,4.6795517E-1,4.3877774E-1,0E0,5.9098643E-1,0E0,0E0,7.804199E-2,0E0,0E0,5.586666E-1,0E0,4.3877774E-1,0E0,0E0,0E0,0E0,0E0],"parents":[2147483647,0,0,1,1,2,2,3,3,4,4,5,5,7,7,10,10,13,13,15,15],"right_children":[2,4,6,8,10,12,-1,14,-1,-1,16,-1,-1,18,-1,20,-1,-1,-1,-1,-1],"split_conditions":[1.042E3,2.018E3,9.56E2,1.028E3,8.83E2,9.46E2,6.792033E-1,9.38E2,-7.737152E-1,-1.9645813E0,9.4E2,2.4322509E-3,-7.0407283E-1,2.017E3,1.2518311E-3,9.29E2,5.448694E-2,1.494751E-3,-3.3479124E-1,7.2143553E-3,-1.84057E-1],"split_indices":[3,1,2,3,2,2,0,3,0,0,3,0,0,1,0,3,0,0,0,0,0],"split_type":[0,0,0,0,0,0,0,0,0,0,0,0,0,0,0,0,0,0,0,0,0],"sum_hessian":[2.61E2,5.6E1,2.05E2,1.9E1,3.7E1,9E0,1.96E2,1.6E1,3E0,1E0,3.6E1,8E0,1E0,4E0,1.2E1,9E0,2.7E1,2E0,2E0,8E0,1E0],"tree_param":{"num_deleted":"0","num_feature":"5","num_nodes":"21","size_leaf_vector":"1"}},{"base_weights":[2.3091605E-2,-7.3469386E-2,4.509346E-2,-3.8043477E-2,-4.625E-1,-4.5454543E-2,4.97549E-4,-4.75E-3,-1.7777776E-2,-6.333333E-3,2.5E-4,4.5000002E-4,-4.75E-3,-1.6785714E-1,4.8437502E-4,4.5000002E-4,-5.6E-1,-7.1249995E-3,2.5E-4],"categories":[],"categories_nodes":[],"categories_segments":[],"categories_sizes":[],"default_left":[0,0,0,0,0,0,0,0,0,0,0,0,0,0,0,0,0,0,0],"id":37,"left_children":[1,3,5,7,9,11,-1,-1,13,-1,-1,-1,-1,15,-1,-1,17,-1,-1],"loss_changes":[5.599375E-1,6.5771127E-1,9.258762E-2,3.9889616E-1,3.489583E-1,4.487727E-1,0E0,0E0,4.5532018E-1,0E0,0E0,0E0,0E0,1.1937857E0,0E0,0E0,4.6387494E-1,0E0,0E0],"parents":[2147483647,0,0,1,1,2,2,3,3,4,4,5,5,8,8,13,13,16,16],"right_children":[2,4,6,8,10,12,-1,-1,14,-1,-1,-1,-1,16,-1,-1,18,-1,-1],"split_conditions":[1.033E3,1.028E3,9.56E2,8.83E2,2.018E3,9.46E2,5.35857E-1,-1.9449352E0,9.4E2,-7.6597774E-1,3.8099915E-1,2.407837E-3,-6.9703186E-1,9.29E2,1.0637207E-3,1.4801025E-3,1E1,-3.314435E-1,5.3306276E-1],"split_indices":[3,3,2,2,1,2,0,0,3,0,0,0,0,3,0,0,0,0,0],"split_type":[0,0,0,0,0,0,0,0,0,0,0,0,0,0,0,0,0,0,0],"sum_hessian":[2.61E2,4.8E1,2.13E2,4.5E1,3E0,1E1,2.03E2,1E0,4.4E1,2E0,1E0,9E0,1E0,1.3E1,3.1E1,9E0,4E0,3E0,1E0],"tree_param":{"num_deleted":"0","num_feature":"5","num_nodes":"19","size_leaf_vector":"1"}},{"base_weights":[1.927481E-2,-7.368421E-2,4.4902913E-2,-2.025E-1,-3.947367E-3,-5.5E-2,4.9746194E-4,-7.058823E-2,-7.1249995E-3,-4.75E-3,2.1621622E-2,4.4444445E-4,-4.75E-3,-3.5999998E-1,4.6153847E-4,-5.5E-2,4.8214284E-4,3.3333333E-4,-6.333333E-3,4.4444445E-4,-4.75E-3],"categories":[],"categories_nodes":[],"categories_segments":[],"categories_sizes":[],"default_left":[0,0,0,0,0,0,0,0,0,0,0,0,0,0,0,0,0,0,0,0,0],"id":38,"left_children":[1,3,5,7,9,11,-1,13,-1,-1,15,-1,-1,17,-1,19,-1,-1,-1,-1,-1],"loss_changes":[6.2748784E-1,5.1124346E-1,1.0241079E-1,1.2952057E0,4.6795517E-1,4.3877774E-1,0E0,5.9098643E-1,0E0,0E0,7.804199E-2,0E0,0E0,5.586666E-1,0E0,4.3877774E-1,0E0,0E0,0E0,0E0,0E0],"parents":[2147483647,0,0,1,1,2,2,3,3,4,4,5,5,7,7,10,10,13,13,15,15],"right_children":[2,4,6,8,10,12,-1,14,-1,-1,16,-1,-1,18,-1,20,-1,-1,-1,-1,-1],"split_conditions":[1.042E3,2.018E3,9.56E2,1.028E3,8.83E2,9.46E2,6.67053E-1,9.38E2,-7.583178E-1,-1.9254858E0,9.4E2,2.384033E-3,-6.900616E-1,2.017E3,1.2286376E-3,9.29E2,5.393152E-2,1.4654541E-3,-3.2812926E-1,7.1276855E-3,-1.7890197E-1],"split_indices":[3,1,2,3,2,2,0,3,0,0,3,0,0,1,0,3,0,0,0,0,0],"split_type":[0,0,0,0,0,0,0,0,0,0,0,0,0,0,0,0,0,0,0,0,0],"sum_hessian":[2.61E2,5.6E1,2.05E2,1.9E1,3.7E1,9E0,1.96E2,1.6E1,3E0,1E0,3.6E1,8E0,1E0,4E0,1.2E1,9E0,2.7E1,2E0,2E0,8E0,1E0],"tree_param":{"num_deleted":"0","num_feature":"5","num_nodes":"21","size_leaf_vector":"1"}},{"base_weights":[2.3091605E-2,-7.3469386E-2,4.509346E-2,-3.8043477E-2,-4.625E-1,-4.5454543E-2,4.97549E-4,-4.75E-3,-1.7777776E-2,-6.333333E-3,2.5E-4,4.5000002E-4,-4.75E-3,-1.6785714E-1,4.8437502E-4,4.5000002E-4,-5.6E-1,-7.1249995E-3,2.5E-4],"categories":[],"categories_nodes":[],"categories_segments":[],"categories_sizes":[],"default_left":[0,0,0,0,0,0,0,0,0,0,0,0,0,0,0,0,0,0,0],"id":39,"left_children":[1,3,5,7,9,11,-1,-1,13,-1,-1,-1,-1,15,-1,-1,17,-1,-1],"loss_changes":[5.599375E-1,6.5771127E-1,9.258762E-2,3.9889616E-1,3.489583E-1,4.487727E-1,0E0,0E0,4.5532018E-1,0E0,0E0,0E0,0E0,1.1937857E0,0E0,0E0,4.6387494E-1,0E0,0E0],"parents":[2147483647,0,0,1,1,2,2,3,3,4,4,5,5,8,8,13,13,16,16],"right_children":[2,4,6,8,10,12,-1,-1,14,-1,-1,-1,-1,16,-1,-1,18,-1,-1],"split_conditions":[1.033E3,1.028E3,9.56E2,8.83E2,2.018E3,9.46E2,5.28733E-1,-1.906231E0,9.4E2,-7.5073487E-1,3.7664977E-1,2.3602294E-3,-6.83161E-1,9.29E2,8.302002E-4,1.4508056E-3,1E1,-3.2484803E-1,5.277173E-1],"split_indices":[3,3,2,2,1,2,0,0,3,0,0,0,0,3,0,0,0,0,0],"split_type":[0,0,0,0,0,0,0,0,0,0,0,0,0,0,0,0,0,0,0],"sum_hessian":[2.61E2,4.8E1,2.13E2,4.5E1,3E0,1E1,2.03E2,1E0,4.4E1,2E0,1E0,9E0,1E0,1.3E1,3.1E1,9E0,4E0,3E0,1E0],"tree_param":{"num_deleted":"0","num_feature":"5","num_nodes":"19","size_leaf_vector":"1"}},{"base_weights":[2.3091605E-2,-7.3469386E-2,4.509346E-2,-3.8043477E-2,-4.625E-1,-4.5454543E-2,4.97549E-4,-4.75E-3,-1.7777776E-2,-6.333333E-3,2.5E-4,4.5000002E-4,-4.75E-3,-1.6785714E-1,4.8437502E-4,4.5000002E-4,-5.6E-1,-7.1249995E-3,2.5E-4],"categories":[],"categories_nodes":[],"categories_segments":[],"categories_sizes":[],"default_left":[0,0,0,0,0,0,0,0,0,0,0,0,0,0,0,0,0,0,0],"id":40,"left_children":[1,3,5,7,9,11,-1,-1,13,-1,-1,-1,-1,15,-1,-1,17,-1,-1],"loss_changes":[5.599375E-1,6.5771127E-1,9.258762E-2,3.9889616E-1,3.489583E-1,4.487727E-1,0E0,0E0,4.5532018E-1,0E0,0E0,0E0,0E0,1.1937857E0,0E0,0E0,4.6387494E-1,0E0,0E0],"parents":[2147483647,0,0,1,1,2,2,3,3,4,4,5,5,8,8,13,13,16,16],"right_children":[2,4,6,8,10,12,-1,-1,14,-1,-1,-1,-1,16,-1,-1,18,-1,-1],"split_conditions":[1.033E3,1.028E3,9.56E2,8.83E2,2.018E3,9.46E2,5.2344555E-1,-1.8871685E0,9.4E2,-7.4322754E-1,3.728833E-1,2.3364257E-3,-6.763293E-1,9.29E2,8.216553E-4,1.4361572E-3,1E1,-3.2159972E-1,5.224402E-1],"split_indices":[3,3,2,2,1,2,0,0,3,0,0,0,0,3,0,0,0,0,0],"split_type":[0,0,0,0,0,0,0,0,0,0,0,0,0,0,0,0,0,0,0],"sum_hessian":[2.61E2,4.8E1,2.13E2,4.5E1,3E0,1E1,2.03E2,1E0,4.4E1,2E0,1E0,9E0,1E0,1.3E1,3.1E1,9E0,4E0,3E0,1E0],"tree_param":{"num_deleted":"0","num_feature":"5","num_nodes":"19","size_leaf_vector":"1"}},{"base_weights":[1.5458017E-2,-8.416666E-2,4.4827588E-2,-4.625E-1,-5.614035E-2,4.3478273E-3,4.972376E-4,-6.333333E-3,2.5E-4,-1.631579E-1,-2.5641012E-3,4.7619047E-4,-2.9999998E-1,-3.0769229E-2,-3.857143E-1,4.7619047E-4,-5.7894737E-2,-4.75E-3,2.5E-4,-2.9999998E-1,4.5454546E-4,3.3333333E-4,-5.6E-3,-4.75E-3,-8.333332E-3,2.5E-4,-4.75E-3,4.6153847E-4,-1.25E-3],"categories":[],"categories_nodes":[],"categories_segments":[],"categories_sizes":[],"default_left":[0,0,0,0,0,0,0,0,0,0,0,0,0,0,0,0,0,0,0,0,0,0,0,0,0,0,0,0,0],"id":41,"left_children":[1,3,5,7,9,11,-1,-1,-1,13,15,-1,17,19,21,-1,23,-1,-1,25,-1,-1,-1,-1,27,-1,-1,-1,-1],"loss_changes":[7.7036774E-1,6.1023235E-1,4.0017545E-2,3.489583E-1,3.2639676E-1,3.1718427E-1,0E0,0E0,0E0,5.4794675E-1,1.1104684E-1,0E0,1.8249997E-1,2.804196E-1,5.299047E-1,0E0,3.888158E-1,0E0,0E0,1.8249997E-1,0E0,0E0,0E0,0E0,1.2019231E-1,0E0,0E0,0E0,0E0],"parents":[2147483647,0,0,1,1,2,2,3,3,4,4,5,5,9,9,10,10,12,12,13,13,14,14,16,16,19,19,24,24],"right_children":[2,4,6,8,10,12,-1,-1,-1,14,16,-1,18,20,22,-1,24,-1,-1,26,-1,-1,-1,-1,28,-1,-1,-1,-1],"split_conditions":[1.044E3,3E0,1.033E3,2.02E3,9.83E2,1.028E3,7.0886064E-1,-3.1838378E-1,1.7702697E-1,9.703333E2,1.039E3,2.937317E-4,2.016E3,5E0,9.29E2,1.2556151E-3,1.0456666E3,-7.3579526E-1,3.6915466E-1,2.018E3,1.2141723E-2,6.908801E-1,-1.6259338E-1,-3.6553955E-3,1.102E3,5.609851E-1,-1.8682971E0,7.888305E-2,-6.6956604E-1],"split_indices":[2,0,3,1,4,3,0,0,0,4,4,0,1,0,2,0,4,0,0,1,0,0,0,0,3,0,0,0,0],"split_type":[0,0,0,0,0,0,0,0,0,0,0,0,0,0,0,0,0,0,0,0,0,0,0,0,0,0,0,0,0],"sum_hessian":[2.61E2,5.9E1,2.02E2,3E0,5.6E1,2.2E1,1.8E2,2E0,1E0,1.8E1,3.8E1,2E1,2E0,1.2E1,6E0,2E1,1.8E1,1E0,1E0,2E0,1E1,2E0,4E0,1E0,1.7E1,1E0,1E0,1.2E1,5E0],"tree_param":{"num_deleted":"0","num_feature":"5","num_nodes":"29","size_leaf_vector":"1"}},{"base_weights":[1.5458017E-2,-8.416666E-2,4.4827588E-2,-4.625E-1,-5.614035E-2,4.3478273E-3,4.972376E-4,-6.333333E-3,2.5E-4,-1.631579E-1,-2.5641012E-3,4.7619047E-4,-2.9999998E-1,-3.0769229E-2,-3.857143E-1,4.7619047E-4,-5.7894737E-2,-4.75E-3,2.5E-4,-2.9999998E-1,4.5454546E-4,3.3333333E-4,-5.6E-3,-4.75E-3,-8.333332E-3,2.5E-4,-4.75E-3,4.6153847E-4,-1.25E-3],"categories":[],"categories_nodes":[],"categories_segments":[],"categories_sizes":[],"default_left":[0,0,0,0,0,0,0,0,0,0,0,0,0,0,0,0,0,0,0,0,0,0,0,0,0,0,0,0,0],"id":42,"left_children":[1,3,5,7,9,11,-1,-1,-1,13,15,-1,17,19,21,-1,23,-1,-1,25,-1,-1,-1,-1,27,-1,-1,-1,-1],"loss_changes":[7.7036774E-1,6.1023235E-1,4.0017545E-2,3.489583E-1,3.2639676E-1,3.1718427E-1,0E0,0E0,0E0,5.4794675E-1,1.1104684E-1,0E0,1.8249997E-1,2.804196E-1,5.299047E-1,0E0,3.888158E-1,0E0,0E0,1.8249997E-1,0E0,0E0,0E0,0E0,1.2019231E-1,0E0,0E0,0E0,0E0],"parents":[2147483647,0,0,1,1,2,2,3,3,4,4,5,5,9,9,10,10,12,12,13,13,14,14,16,16,19,19,24,24],"right_children":[2,4,6,8,10,12,-1,-1,-1,14,16,-1,18,20,22,-1,24,-1,-1,26,-1,-1,-1,-1,28,-1,-1,-1,-1],"split_conditions":[1.044E3,3E0,1.033E3,2.02E3,9.83E2,1.028E3,7.01772E-1,-3.1520018E-1,1.7525695E-1,9.703333E2,1.039E3,2.9067995E-4,2.016E3,5E0,9.29E2,1.2427978E-3,1.0456666E3,-7.284375E-1,3.6546326E-1,2.018E3,1.2020264E-2,6.839715E-1,-1.6096741E-1,-3.6187742E-3,1.102E3,5.5537534E-1,-1.8496143E0,7.809448E-2,-6.6287047E-1],"split_indices":[2,0,3,1,4,3,0,0,0,4,4,0,1,0,2,0,4,0,0,1,0,0,0,0,3,0,0,0,0],"split_type":[0,0,0,0,0,0,0,0,0,0,0,0,0,0,0,0,0,0,0,0,0,0,0,0,0,0,0,0,0],"sum_hessian":[2.61E2,5.9E1,2.02E2,3E0,5.6E1,2.2E1,1.8E2,2E0,1E0,1.8E1,3.8E1,2E1,2E0,1.2E1,6E0,2E1,1.8E1,1E0,1E0,2E0,1E1,2E0,4E0,1E0,1.7E1,1E0,1E0,1.2E1,5E0],"tree_param":{"num_deleted":"0","num_feature":"5","num_nodes":"29","size_leaf_vector":"1"}},{"base_weights":[1.5458017E-2,-8.416666E-2,4.4827588E-2,-4.625E-1,-5.614035E-2,4.3478273E-3,4.972376E-4,-6.333333E-3,2.5E-4,-1.631579E-1,-2.5641012E-3,4.7619047E-4,-2.9999998E-1,-3.0769229E-2,-3.857143E-1,4.7619047E-4,-5.7894737E-2,-4.75E-3,2.5E-4,-2.9999998E-1,4.5454546E-4,3.3333333E-4,-5.6E-3,-4.75E-3,-8.333332E-3,2.5E-4,-4.75E-3,4.6153847E-4,-1.25E-3],"categories":[],"categories_nodes":[],"categories_segments":[],"categories_sizes":[],"default_left":[0,0,0,0,0,0,0,0,0,0,0,0,0,0,0,0,0,0,0,0,0,0,0,0,0,0,0,0,0],"id":43,"left_children":[1,3,5,7,9,11,-1,-1,-1,13,15,-1,17,19,21,-1,23,-1,-1,25,-1,-1,-1,-1,27,-1,-1,-1,-1],"loss_changes":[7.7036774E-1,6.1023235E-1,4.0017545E-2,3.489583E-1,3.2639676E-1,3.1718427E-1,0E0,0E0,0E0,5.4794675E-1,1.1104684E-1,0E0,1.8249997E-1,2.804196E-1,5.299047E-1,0E0,3.888158E-1,0E0,0E0,1.8249997E-1,0E0,0E0,0E0,0E0,1.2019231E-1,0E0,0E0,0E0,0E0],"parents":[2147483647,0,0,1,1,2,2,3,3,4,4,5,5,9,9,10,10,12,12,13,13,14,14,16,16,19,19,24,24],"right_children":[2,4,6,8,10,12,-1,-1,-1,14,16,-1,18,20,22,-1,24,-1,-1,26,-1,-1,-1,-1,28,-1,-1,-1,-1],"split_conditions":[1.044E3,3E0,1.033E3,2.02E3,9.83E2,1.028E3,6.947542E-1,-3.1204835E-1,1.7350464E-1,9.703333E2,1.039E3,2.8762818E-4,2.016E3,5E0,9.29E2,1.2305909E-3,1.0456666E3,-7.2115296E-1,3.6180845E-1,2.018E3,1.19000245E-2,6.7713195E-1,-1.593579E-1,-3.5827635E-3,1.102E3,5.498218E-1,-1.8311181E0,7.731323E-2,-6.562421E-1],"split_indices":[2,0,3,1,4,3,0,0,0,4,4,0,1,0,2,0,4,0,0,1,0,0,0,0,3,0,0,0,0],"split_type":[0,0,0,0,0,0,0,0,0,0,0,0,0,0,0,0,0,0,0,0,0,0,0,0,0,0,0,0,0],"sum_hessian":[2.61E2,5.9E1,2.02E2,3E0,5.6E1,2.2E1,1.8E2,2E0,1E0,1.8E1,3.8E1,2E1,2E0,1.2E1,6E0,2E1,1.8E1,1E0,1E0,2E0,1E1,2E0,4E0,1E0,1.7E1,1E0,1E0,1.2E1,5E0],"tree_param":{"num_deleted":"0","num_feature":"5","num_nodes":"29","size_leaf_vector":"1"}},{"base_weights":[1.927481E-2,-7.368421E-2,4.4902913E-2,-2.025E-1,-3.947367E-3,-5.5E-2,4.9746194E-4,-7.058823E-2,-7.1249995E-3,-4.75E-3,2.1621622E-2,4.4444445E-4,-4.75E-3,-3.5999998E-1,4.6153847E-4,-5.5E-2,4.8214284E-4,3.3333333E-4,-6.333333E-3,4.4444445E-4,-4.75E-3],"categories":[],"categories_nodes":[],"categories_segments":[],"categories_sizes":[],"default_left":[0,0,0,0,0,0,0,0,0,0,0,0,0,0,0,0,0,0,0,0,0],"id":44,"left_children":[1,3,5,7,9,11,-1,13,-1,-1,15,-1,-1,17,-1,19,-1,-1,-1,-1,-1],"loss_changes":[6.2748784E-1,5.1124346E-1,1.0241079E-1,1.2952057E0,4.6795517E-1,4.3877774E-1,0E0,5.9098643E-1,0E0,0E0,7.804199E-2,0E0,0E0,5.586666E-1,0E0,4.3877774E-1,0E0,0E0,0E0,0E0,0E0],"parents":[2147483647,0,0,1,1,2,2,3,3,4,4,5,5,7,7,10,10,13,13,15,15],"right_children":[2,4,6,8,10,12,-1,14,-1,-1,16,-1,-1,18,-1,20,-1,-1,-1,-1,-1],"split_conditions":[1.042E3,2.018E3,9.56E2,1.028E3,8.83E2,9.46E2,6.3268894E-1,9.38E2,-7.1394163E-1,-1.812807E0,9.4E2,2.276001E-3,-6.4967954E-1,2.017E3,1.1627197E-3,9.29E2,5.3355105E-2,1.4123535E-3,-3.089276E-1,7.017822E-3,-1.6119263E-1],"split_indices":[3,1,2,3,2,2,0,3,0,0,3,0,0,1,0,3,0,0,0,0,0],"split_type":[0,0,0,0,0,0,0,0,0,0,0,0,0,0,0,0,0,0,0,0,0],"sum_hessian":[2.61E2,5.6E1,2.05E2,1.9E1,3.7E1,9E0,1.96E2,1.6E1,3E0,1E0,3.6E1,8E0,1E0,4E0,1.2E1,9E0,2.7E1,2E0,2E0,8E0,1E0],"tree_param":{"num_deleted":"0","num_feature":"5","num_nodes":"21","size_leaf_vector":"1"}},{"base_weights":[1.5458017E-2,-9.387755E-2,4.0420562E-2,-2.875E-1,-3.0263156E-2,-5.25E-2,4.9743586E-4,3.75E-4,-4E-1,-2.55E-1,4.827586E-4,4.6428572E-4,-2.4285714E-1,-7.1249995E-3,-1.25E-1,-9.9999994E-2,-4.625E-1,-4.625E-1,3.75E-4,4E-4,-4.75E-3,-4.75E-3,4.1666668E-4,-6.333333E-3,2.5E-4,2.5E-4,-6.333333E-3],"categories":[],"categories_nodes":[],"categories_segments":[],"categories_sizes":[],"default_left":[0,0,0,0,0,0,0,0,0,0,0,0,0,0,0,0,0,0,0,0,0,0,0,0,0,0,0],"id":45,"left_children":[1,3,5,7,9,11,-1,-1,13,15,-1,-1,17,-1,19,21,23,25,-1,-1,-1,-1,-1,-1,-1,-1,-1],"loss_changes":[7.188696E-1,5.948409E-1,1.8799996E-1,4.5375013E-1,6.830335E-1,3.879107E-1,0E0,0E0,6.843748E-1,2.75375E-1,0E0,0E0,4.4839287E-1,0E0,3.6549997E-1,3.9166665E-1,3.489583E-1,3.489583E-1,0E0,0E0,0E0,0E0,0E0,0E0,0E0,0E0,0E0],"parents":[2147483647,0,0,1,1,2,2,3,3,4,4,5,5,8,8,9,9,12,12,14,14,15,15,16,16,17,17],"right_children":[2,4,6,8,10,12,-1,-1,14,16,-1,-1,18,-1,20,22,24,26,-1,-1,-1,-1,-1,-1,-1,-1,-1],"split_conditions":[1.033E3,3E0,1E3,9.07E2,9.83E2,1.083E3,6.359796E-1,1.3983154E-3,2.02E3,9.616667E2,7.5009465E-3,2.2534179E-3,1.127E3,-7.0680237E-1,2.025E3,8.83E2,1E1,9.07E2,3.2949644E-1,3.5765687E-1,-3.0822752E-4,-1.7946789E0,5.443121E-1,-1.5162598E-1,6.703491E-1,1.7893847E0,-6.43183E-1],"split_indices":[3,0,2,3,4,3,0,0,1,4,0,0,3,0,1,2,0,2,0,0,0,0,0,0,0,0,0],"split_type":[0,0,0,0,0,0,0,0,0,0,0,0,0,0,0,0,0,0,0,0,0,0,0,0,0,0,0],"sum_hessian":[2.61E2,4.8E1,2.13E2,1.1E1,3.7E1,1.9E1,1.94E2,3E0,8E0,9E0,2.8E1,1.3E1,6E0,3E0,5E0,6E0,3E0,3E0,3E0,4E0,1E0,1E0,5E0,2E0,1E0,1E0,2E0],"tree_param":{"num_deleted":"0","num_feature":"5","num_nodes":"27","size_leaf_vector":"1"}},{"base_weights":[1.927481E-2,-9.387755E-2,4.509346E-2,-2.875E-1,-3.0263156E-2,-4.5454543E-2,4.97549E-4,3.75E-4,-4E-1,-2.55E-1,4.827586E-4,4.5000002E-4,-4.75E-3,-7.1249995E-3,-1.25E-1,-9.9999994E-2,-4.625E-1,4E-4,-4.75E-3,-4.75E-3,4.1666668E-4,-6.333333E-3,2.5E-4],"categories":[],"categories_nodes":[],"categories_segments":[],"categories_sizes":[],"default_left":[0,0,0,0,0,0,0,0,0,0,0,0,0,0,0,0,0,0,0,0,0,0,0],"id":46,"left_children":[1,3,5,7,9,11,-1,-1,13,15,-1,-1,-1,-1,17,19,21,-1,-1,-1,-1,-1,-1],"loss_changes":[7.696509E-1,5.948409E-1,9.258762E-2,4.5375013E-1,6.830335E-1,4.487727E-1,0E0,0E0,6.843748E-1,2.75375E-1,0E0,0E0,0E0,0E0,3.6549997E-1,3.9166665E-1,3.489583E-1,0E0,0E0,0E0,0E0,0E0,0E0],"parents":[2147483647,0,0,1,1,2,2,3,3,4,4,5,5,8,8,9,9,14,14,15,15,16,16],"right_children":[2,4,6,8,10,12,-1,-1,14,16,-1,-1,-1,-1,18,20,22,-1,-1,-1,-1,-1,-1],"split_conditions":[1.033E3,3E0,9.56E2,9.07E2,9.83E2,9.46E2,4.891051E-1,1.3842774E-3,2.02E3,9.616667E2,7.425873E-3,2.230835E-3,-6.3675106E-1,-6.997345E-1,2.025E3,8.83E2,1E1,3.540802E-1,-3.0517578E-4,-1.7767321E0,5.38869E-1,-1.5010986E-1,6.636456E-1],"split_indices":[3,0,2,3,4,2,0,0,1,4,0,0,0,0,1,2,0,0,0,0,0,0,0],"split_type":[0,0,0,0,0,0,0,0,0,0,0,0,0,0,0,0,0,0,0,0,0,0,0],"sum_hessian":[2.61E2,4.8E1,2.13E2,1.1E1,3.7E1,1E1,2.03E2,3E0,8E0,9E0,2.8E1,9E0,1E0,3E0,5E0,6E0,3E0,4E0,1E0,1E0,5E0,2E0,1E0],"tree_param":{"num_deleted":"0","num_feature":"5","num_nodes":"23","size_leaf_vector":"1"}},{"base_weights":[1.1641223E-2,-9.122807E-2,4.0048543E-2,-2.3928571E-1,-4.204545E-2,-6.3888885E-2,4.973545E-4,-6.333333E-3,-1.2083333E-1,-2.55E-1,2.0000001E-2,-1.1764704E-2,-4.75E-3,4.3749998E-4,-3.5999998E-1,-9.9999994E-2,-4.625E-1,-2.1249999E-1,4.8437502E-4,4.6666665E-4,-2.9999998E-1,2.5E-4,-4.625E-3,-4.75E-3,4.1666668E-4,-6.333333E-3,2.5E-4,3.3333333E-4,-4.75E-3,-4.75E-3,2.5E-4],"categories":[],"categories_nodes":[],"categories_segments":[],"categories_sizes":[],"default_left":[0,0,0,0,0,0,0,0,0,0,0,0,0,0,0,0,0,0,0,0,0,0,0,0,0,0,0,0,0,0,0],"id":47,"left_children":[1,3,5,7,9,11,-1,-1,13,15,17,19,-1,-1,21,23,25,27,-1,-1,29,-1,-1,-1,-1,-1,-1,-1,-1,-1,-1],"loss_changes":[7.6928073E-1,4.0500525E-1,2.1058497E-1,5.7693446E-1,5.864659E-1,3.801307E-1,0E0,0E0,4.8810416E-1,2.75375E-1,2.4170312E-1,3.003137E-1,0E0,0E0,2.08875E-1,3.9166665E-1,3.489583E-1,2.7395833E-1,0E0,0E0,1.8249997E-1,0E0,0E0,0E0,0E0,0E0,0E0,0E0,0E0,0E0,0E0],"parents":[2147483647,0,0,1,1,2,2,3,3,4,4,5,5,8,8,9,9,10,10,11,11,14,14,15,15,16,16,17,17,20,20],"right_children":[2,4,6,8,10,12,-1,-1,14,16,18,20,-1,-1,22,24,26,28,-1,-1,30,-1,-1,-1,-1,-1,-1,-1,-1,-1,-1],"split_conditions":[1.042E3,3E0,1E3,1.0816666E3,9.83E2,9.94E2,6.801489E-1,-2.9177368E-1,1.1303334E3,9.616667E2,2.016E3,1.076E3,-4.0960694E-3,1.3702392E-3,9.78E2,8.83E2,1E1,9E0,9.468017E-3,2.208252E-3,2.021E3,6.264538E-1,-6.927374E-1,-1.7589648E0,5.334802E-1,-1.4860901E-1,6.5700924E-1,2.772998E-1,-1.3208007E-3,-6.303833E-1,1.1522772E0],"split_indices":[3,0,2,4,4,2,0,0,4,4,1,4,0,0,3,2,0,0,0,0,1,0,0,0,0,0,0,0,0,0,0],"split_type":[0,0,0,0,0,0,0,0,0,0,0,0,0,0,0,0,0,0,0,0,0,0,0,0,0,0,0,0,0,0,0],"sum_hessian":[2.61E2,5.6E1,2.05E2,1.3E1,4.3E1,1.7E1,1.88E2,2E0,1.1E1,9E0,3.4E1,1.6E1,1E0,7E0,4E0,6E0,3E0,3E0,3.1E1,1.4E1,2E0,1E0,3E0,1E0,5E0,2E0,1E0,2E0,1E0,1E0,1E0],"tree_param":{"num_deleted":"0","num_feature":"5","num_nodes":"31","size_leaf_vector":"1"}},{"base_weights":[1.5458017E-2,-8.416666E-2,4.4827588E-2,-4.625E-1,-5.614035E-2,4.3478273E-3,4.972376E-4,-6.333333E-3,2.5E-4,-1.631579E-1,-2.5641012E-3,4.7619047E-4,-2.9999998E-1,-3.0769229E-2,-3.857143E-1,4.7619047E-4,-5.7894737E-2,-4.75E-3,2.5E-4,-2.9999998E-1,4.5454546E-4,3.3333333E-4,-5.6E-3,-4.75E-3,-8.333332E-3,2.5E-4,-4.75E-3,4.6153847E-4,-1.25E-3],"categories":[],"categories_nodes":[],"categories_segments":[],"categories_sizes":[],"default_left":[0,0,0,0,0,0,0,0,0,0,0,0,0,0,0,0,0,0,0,0,0,0,0,0,0,0,0,0,0],"id":48,"left_children":[1,3,5,7,9,11,-1,-1,-1,13,15,-1,17,19,21,-1,23,-1,-1,25,-1,-1,-1,-1,27,-1,-1,-1,-1],"loss_changes":[7.7036774E-1,6.1023235E-1,4.0017545E-2,3.489583E-1,3.2639676E-1,3.1718427E-1,0E0,0E0,0E0,5.4794675E-1,1.1104684E-1,0E0,1.8249997E-1,2.804196E-1,5.299047E-1,0E0,3.888158E-1,0E0,0E0,1.8249997E-1,0E0,0E0,0E0,0E0,1.2019231E-1,0E0,0E0,0E0,0E0],"parents":[2147483647,0,0,1,1,2,2,3,3,4,4,5,5,9,9,10,10,12,12,13,13,14,14,16,16,19,19,24,24],"right_children":[2,4,6,8,10,12,-1,-1,-1,14,16,-1,18,20,22,-1,24,-1,-1,26,-1,-1,-1,-1,28,-1,-1,-1,-1],"split_conditions":[1.044E3,3E0,1.033E3,2.02E3,9.83E2,1.028E3,6.6342723E-1,-2.888562E-1,1.7165771E-1,9.703333E2,1.039E3,1.6202392E-3,2.016E3,5E0,9.29E2,9.7094727E-4,1.0456666E3,-6.858099E-1,3.5746703E-1,2.018E3,1.1691284E-2,6.5043944E-1,-1.471228E-1,-1.307373E-3,1.102E3,5.2814513E-1,-1.7413751E0,7.645019E-2,-6.240796E-1],"split_indices":[2,0,3,1,4,3,0,0,0,4,4,0,1,0,2,0,4,0,0,1,0,0,0,0,3,0,0,0,0],"split_type":[0,0,0,0,0,0,0,0,0,0,0,0,0,0,0,0,0,0,0,0,0,0,0,0,0,0,0,0,0],"sum_hessian":[2.61E2,5.9E1,2.02E2,3E0,5.6E1,2.2E1,1.8E2,2E0,1E0,1.8E1,3.8E1,2E1,2E0,1.2E1,6E0,2E1,1.8E1,1E0,1E0,2E0,1E1,2E0,4E0,1E0,1.7E1,1E0,1E0,1.2E1,5E0],"tree_param":{"num_deleted":"0","num_feature":"5","num_nodes":"29","size_leaf_vector":"1"}},{"base_weights":[1.5458017E-2,-8.416666E-2,4.4827588E-2,-4.625E-1,-5.614035E-2,4.3478273E-3,4.972376E-4,-6.333333E-3,2.5E-4,-1.631579E-1,-2.5641012E-3,4.7619047E-4,-2.9999998E-1,-3.0769229E-2,-3.857143E-1,4.7619047E-4,-5.7894737E-2,-4.75E-3,2.5E-4,-2.9999998E-1,4.5454546E-4,3.3333333E-4,-5.6E-3,-4.75E-3,-8.333332E-3,2.5E-4,-4.75E-3,4.6153847E-4,-1.25E-3],"categories":[],"categories_nodes":[],"categories_segments":[],"categories_sizes":[],"default_left":[0,0,0,0,0,0,0,0,0,0,0,0,0,0,0,0,0,0,0,0,0,0,0,0,0,0,0,0,0],"id":49,"left_children":[1,3,5,7,9,11,-1,-1,-1,13,15,-1,17,19,21,-1,23,-1,-1,25,-1,-1,-1,-1,27,-1,-1,-1,-1],"loss_changes":[7.7036774E-1,6.1023235E-1,4.0017545E-2,3.489583E-1,3.2639676E-1,3.1718427E-1,0E0,0E0,0E0,5.4794675E-1,1.1104684E-1,0E0,1.8249997E-1,2.804196E-1,5.299047E-1,0E0,3.888158E-1,0E0,0E0,1.8249997E-1,0E0,0E0,0E0,0E0,1.2019231E-1,0E0,0E0,0E0,0E0],"parents":[2147483647,0,0,1,1,2,2,3,3,4,4,5,5,9,9,10,10,12,12,13,13,14,14,16,16,19,19,24,24],"right_children":[2,4,6,8,10,12,-1,-1,-1,14,16,-1,18,20,22,-1,24,-1,-1,26,-1,-1,-1,-1,28,-1,-1,-1,-1],"split_conditions":[1.044E3,3E0,1.033E3,2.02E3,9.83E2,1.028E3,6.5679276E-1,-2.859674E-1,1.699414E-1,9.703333E2,1.039E3,1.6037598E-3,2.016E3,5E0,9.29E2,9.6118165E-4,1.0456666E3,-6.7895204E-1,3.538922E-1,2.018E3,1.1574096E-2,6.439349E-1,-1.4565185E-1,-1.2945556E-3,1.102E3,5.2286375E-1,-1.7239611E0,7.568543E-2,-6.1783874E-1],"split_indices":[2,0,3,1,4,3,0,0,0,4,4,0,1,0,2,0,4,0,0,1,0,0,0,0,3,0,0,0,0],"split_type":[0,0,0,0,0,0,0,0,0,0,0,0,0,0,0,0,0,0,0,0,0,0,0,0,0,0,0,0,0],"sum_hessian":[2.61E2,5.9E1,2.02E2,3E0,5.6E1,2.2E1,1.8E2,2E0,1E0,1.8E1,3.8E1,2E1,2E0,1.2E1,6E0,2E1,1.8E1,1E0,1E0,2E0,1E1,2E0,4E0,1E0,1.7E1,1E0,1E0,1.2E1,5E0],"tree_param":{"num_deleted":"0","num_feature":"5","num_nodes":"29","size_leaf_vector":"1"}},{"base_weights":[1.5458017E-2,-8.416666E-2,4.4827588E-2,-4.625E-1,-5.614035E-2,4.3478273E-3,4.972376E-4,-6.333333E-3,2.5E-4,-1.631579E-1,-2.5641012E-3,4.7619047E-4,-2.9999998E-1,-3.0769229E-2,-3.857143E-1,4.7619047E-4,-5.7894737E-2,-4.75E-3,2.5E-4,-2.9999998E-1,4.5454546E-4,3.3333333E-4,-5.6E-3,-4.75E-3,-8.333332E-3,2.5E-4,-4.75E-3,4.6153847E-4,-1.25E-3],"categories":[],"categories_nodes":[],"categories_segments":[],"categories_sizes":[],"default_left":[0,0,0,0,0,0,0,0,0,0,0,0,0,0,0,0,0,0,0,0,0,0,0,0,0,0,0,0,0],"id":50,"left_children":[1,3,5,7,9,11,-1,-1,-1,13,15,-1,17,19,21,-1,23,-1,-1,25,-1,-1,-1,-1,27,-1,-1,-1,-1],"loss_changes":[7.7036774E-1,6.1023235E-1,4.0017545E-2,3.489583E-1,3.2639676E-1,3.1718427E-1,0E0,0E0,0E0,5.4794675E-1,1.1104684E-1,0E0,1.8249997E-1,2.804196E-1,5.299047E-1,0E0,3.888158E-1,0E0,0E0,1.8249997E-1,0E0,0E0,0E0,0E0,1.2019231E-1,0E0,0E0,0E0,0E0],"parents":[2147483647,0,0,1,1,2,2,3,3,4,4,5,5,9,9,10,10,12,12,13,13,14,14,16,16,19,19,24,24],"right_children":[2,4,6,8,10,12,-1,-1,-1,14,16,-1,18,20,22,-1,24,-1,-1,26,-1,-1,-1,-1,28,-1,-1,-1,-1],"split_conditions":[1.044E3,3E0,1.033E3,2.02E3,9.83E2,1.028E3,6.5022475E-1,-2.831079E-1,1.6824219E-1,9.703333E2,1.039E3,1.5878907E-3,2.016E3,5E0,9.29E2,9.5141603E-4,1.0456666E3,-6.721625E-1,3.503534E-1,2.018E3,1.145813E-2,6.374957E-1,-1.4419556E-1,-1.2817383E-3,1.102E3,5.1763487E-1,-1.7067218E0,7.492859E-2,-6.116601E-1],"split_indices":[2,0,3,1,4,3,0,0,0,4,4,0,1,0,2,0,4,0,0,1,0,0,0,0,3,0,0,0,0],"split_type":[0,0,0,0,0,0,0,0,0,0,0,0,0,0,0,0,0,0,0,0,0,0,0,0,0,0,0,0,0],"sum_hessian":[2.61E2,5.9E1,2.02E2,3E0,5.6E1,2.2E1,1.8E2,2E0,1E0,1.8E1,3.8E1,2E1,2E0,1.2E1,6E0,2E1,1.8E1,1E0,1E0,2E0,1E1,2E0,4E0,1E0,1.7E1,1E0,1E0,1.2E1,5E0],"tree_param":{"num_deleted":"0","num_feature":"5","num_nodes":"29","size_leaf_vector":"1"}},{"base_weights":[1.927481E-2,-7.368421E-2,4.4902913E-2,-2.025E-1,-3.947367E-3,-5.5E-2,4.9746194E-4,-7.058823E-2,-7.1249995E-3,-4.75E-3,2.1621622E-2,4.4444445E-4,-4.75E-3,-3.5999998E-1,4.6153847E-4,-5.5E-2,4.8214284E-4,3.3333333E-4,-6.333333E-3,4.4444445E-4,-4.75E-3],"categories":[],"categories_nodes":[],"categories_segments":[],"categories_sizes":[],"default_left":[0,0,0,0,0,0,0,0,0,0,0,0,0,0,0,0,0,0,0,0,0],"id":51,"left_children":[1,3,5,7,9,11,-1,13,-1,-1,15,-1,-1,17,-1,19,-1,-1,-1,-1,-1],"loss_changes":[6.2748784E-1,5.1124346E-1,1.0241079E-1,1.2952057E0,4.6795517E-1,4.3877774E-1,0E0,5.9098643E-1,0E0,0E0,7.804199E-2,0E0,0E0,5.586666E-1,0E0,4.3877774E-1,0E0,0E0,0E0,0E0,0E0],"parents":[2147483647,0,0,1,1,2,2,3,3,4,4,5,5,7,7,10,10,13,13,15,15],"right_children":[2,4,6,8,10,12,-1,14,-1,-1,16,-1,-1,18,-1,20,-1,-1,-1,-1,-1],"split_conditions":[1.042E3,2.018E3,9.56E2,1.028E3,8.83E2,9.46E2,5.991863E-1,9.38E2,-6.654407E-1,-1.6896545E0,9.4E2,2.1569824E-3,-6.055438E-1,2.017E3,8.7768555E-4,9.29E2,5.6843508E-2,1.3085937E-3,-2.802771E-1,6.85791E-3,-1.3401917E-1],"split_indices":[3,1,2,3,2,2,0,3,0,0,3,0,0,1,0,3,0,0,0,0,0],"split_type":[0,0,0,0,0,0,0,0,0,0,0,0,0,0,0,0,0,0,0,0,0],"sum_hessian":[2.61E2,5.6E1,2.05E2,1.9E1,3.7E1,9E0,1.96E2,1.6E1,3E0,1E0,3.6E1,8E0,1E0,4E0,1.2E1,9E0,2.7E1,2E0,2E0,8E0,1E0],"tree_param":{"num_deleted":"0","num_feature":"5","num_nodes":"21","size_leaf_vector":"1"}},{"base_weights":[1.927481E-2,-1.631579E-1,3.3401642E-2,-3.0769229E-2,-3.857143E-1,-1.0769231E-1,4.1163795E-2,-2.9999998E-1,4.5454546E-4,3.3333333E-4,-5.6E-3,4.5000002E-4,-4.625E-1,-5.5E-2,4.529148E-2,2.5E-4,-4.75E-3,-6.333333E-3,2.5E-4,4.4444445E-4,-4.75E-3,8.000001E-3,4.9748743E-4,4.782609E-4,-2.9999998E-1,-4.75E-3,2.5E-4],"categories":[],"categories_nodes":[],"categories_segments":[],"categories_sizes":[],"default_left":[0,0,0,0,0,0,0,0,0,0,0,0,0,0,0,0,0,0,0,0,0,0,0,0,0,0,0],"id":52,"left_children":[1,3,5,7,9,11,13,15,-1,-1,-1,-1,17,19,21,-1,-1,-1,-1,-1,-1,23,-1,-1,25,-1,-1],"loss_changes":[6.80675E-1,5.4794675E-1,2.7166015E-1,2.804196E-1,5.299047E-1,7.2510576E-1,9.45797E-2,1.8249997E-1,0E0,0E0,0E0,0E0,3.489583E-1,4.3877774E-1,3.666863E-2,0E0,0E0,0E0,0E0,0E0,0E0,3.210087E-1,0E0,0E0,1.8249997E-1,0E0,0E0],"parents":[2147483647,0,0,1,1,2,2,3,3,4,4,5,5,6,6,7,7,12,12,13,13,14,14,21,21,24,24],"right_children":[2,4,6,8,10,12,14,16,-1,-1,-1,-1,18,20,22,-1,-1,-1,-1,-1,-1,24,-1,-1,26,-1,-1],"split_conditions":[9.83E2,9.703333E2,9.4E2,5E0,9.29E2,9.29E2,9.56E2,2.018E3,1.13220215E-2,6.3111204E-1,-1.3995117E-1,1.2957763E-3,3E0,9.55E2,1.033E3,5.124499E-1,-1.6727581E0,-2.7747437E-1,5.1687807E-1,2.13562E-3,-5.994885E-1,1.028E3,5.797308E-1,1.6401062E-3,2.016E3,-6.58786E-1,3.4628174E-1],"split_indices":[4,4,3,0,2,3,2,1,0,0,0,0,0,2,3,0,0,0,0,0,0,3,0,0,1,0,0],"split_type":[0,0,0,0,0,0,0,0,0,0,0,0,0,0,0,0,0,0,0,0,0,0,0,0,0,0,0],"sum_hessian":[2.61E2,1.8E1,2.43E2,1.2E1,6E0,1.2E1,2.31E2,2E0,1E1,2E0,4E0,9E0,3E0,9E0,2.22E2,1E0,1E0,2E0,1E0,8E0,1E0,2.4E1,1.98E2,2.2E1,2E0,1E0,1E0],"tree_param":{"num_deleted":"0","num_feature":"5","num_nodes":"27","size_leaf_vector":"1"}},{"base_weights":[1.5458017E-2,-8.416666E-2,4.4827588E-2,-4.625E-1,-5.614035E-2,4.3478273E-3,4.972376E-4,-6.333333E-3,2.5E-4,-1.631579E-1,-2.5641012E-3,4.7619047E-4,-2.9999998E-1,-3.0769229E-2,-3.857143E-1,4.7619047E-4,-5.7894737E-2,-4.75E-3,2.5E-4,-2.9999998E-1,4.5454546E-4,3.3333333E-4,-5.6E-3,-4.75E-3,-8.333332E-3,2.5E-4,-4.75E-3,4.6153847E-4,-1.25E-3],"categories":[],"categories_nodes":[],"categories_segments":[],"categories_sizes":[],"default_left":[0,0,0,0,0,0,0,0,0,0,0,0,0,0,0,0,0,0,0,0,0,0,0,0,0,0,0,0,0],"id":53,"left_children":[1,3,5,7,9,11,-1,-1,-1,13,15,-1,17,19,21,-1,23,-1,-1,25,-1,-1,-1,-1,27,-1,-1,-1,-1],"loss_changes":[7.7036774E-1,6.1023235E-1,4.0017545E-2,3.489583E-1,3.2639676E-1,3.1718427E-1,0E0,0E0,0E0,5.4794675E-1,1.1104684E-1,0E0,1.8249997E-1,2.804196E-1,5.299047E-1,0E0,3.888158E-1,0E0,0E0,1.8249997E-1,0E0,0E0,0E0,0E0,1.2019231E-1,0E0,0E0,0E0,0E0],"parents":[2147483647,0,0,1,1,2,2,3,3,4,4,5,5,9,9,10,10,12,12,13,13,14,14,16,16,19,19,24,24],"right_children":[2,4,6,8,10,12,-1,-1,-1,14,16,-1,18,20,22,-1,24,-1,-1,26,-1,-1,-1,-1,28,-1,-1,-1,-1],"split_conditions":[1.044E3,3E0,1.033E3,2.02E3,9.83E2,1.028E3,6.319337E-1,-2.746997E-1,1.6647887E-1,9.703333E2,1.039E3,1.5184326E-3,2.016E3,5E0,9.29E2,9.157409E-4,1.0456666E3,-6.5219784E-1,3.428192E-1,2.018E3,1.1208496E-2,6.2480104E-1,-1.3855164E-1,-4.1137694E-4,1.102E3,5.073254E-1,-1.6560309E0,7.4136354E-2,-5.9349364E-1],"split_indices":[2,0,3,1,4,3,0,0,0,4,4,0,1,0,2,0,4,0,0,1,0,0,0,0,3,0,0,0,0],"split_type":[0,0,0,0,0,0,0,0,0,0,0,0,0,0,0,0,0,0,0,0,0,0,0,0,0,0,0,0,0],"sum_hessian":[2.61E2,5.9E1,2.02E2,3E0,5.6E1,2.2E1,1.8E2,2E0,1E0,1.8E1,3.8E1,2E1,2E0,1.2E1,6E0,2E1,1.8E1,1E0,1E0,2E0,1E1,2E0,4E0,1E0,1.7E1,1E0,1E0,1.2E1,5E0],"tree_param":{"num_deleted":"0","num_feature":"5","num_nodes":"29","size_leaf_vector":"1"}},{"base_weights":[1.5458017E-2,-8.416666E-2,4.4827588E-2,-4.625E-1,-5.614035E-2,4.3478273E-3,4.972376E-4,-6.333333E-3,2.5E-4,-1.631579E-1,-2.5641012E-3,4.7619047E-4,-2.9999998E-1,-3.0769229E-2,-3.857143E-1,4.7619047E-4,-5.7894737E-2,-4.75E-3,2.5E-4,-2.9999998E-1,4.5454546E-4,3.3333333E-4,-5.6E-3,-4.75E-3,-8.333332E-3,2.5E-4,-4.75E-3,4.6153847E-4,-1.25E-3],"categories":[],"categories_nodes":[],"categories_segments":[],"categories_sizes":[],"default_left":[0,0,0,0,0,0,0,0,0,0,0,0,0,0,0,0,0,0,0,0,0,0,0,0,0,0,0,0,0],"id":54,"left_children":[1,3,5,7,9,11,-1,-1,-1,13,15,-1,17,19,21,-1,23,-1,-1,25,-1,-1,-1,-1,27,-1,-1,-1,-1],"loss_changes":[7.7036774E-1,6.1023235E-1,4.0017545E-2,3.489583E-1,3.2639676E-1,3.1718427E-1,0E0,0E0,0E0,5.4794675E-1,1.1104684E-1,0E0,1.8249997E-1,2.804196E-1,5.299047E-1,0E0,3.888158E-1,0E0,0E0,1.8249997E-1,0E0,0E0,0E0,0E0,1.2019231E-1,0E0,0E0,0E0,0E0],"parents":[2147483647,0,0,1,1,2,2,3,3,4,4,5,5,9,9,10,10,12,12,13,13,14,14,16,16,19,19,24,24],"right_children":[2,4,6,8,10,12,-1,-1,-1,14,16,-1,18,20,22,-1,24,-1,-1,26,-1,-1,-1,-1,28,-1,-1,-1,-1],"split_conditions":[1.044E3,3E0,1.033E3,2.02E3,9.83E2,1.028E3,6.256141E-1,-2.719525E-1,1.6481385E-1,9.703333E2,1.039E3,1.5031738E-3,2.016E3,5E0,9.29E2,9.0658566E-4,1.0456666E3,-6.4567566E-1,3.3939087E-1,2.018E3,1.1096192E-2,6.1855286E-1,-1.3716613E-1,-4.071045E-4,1.102E3,5.0225216E-1,-1.6394708E0,7.3394775E-2,-5.8755857E-1],"split_indices":[2,0,3,1,4,3,0,0,0,4,4,0,1,0,2,0,4,0,0,1,0,0,0,0,3,0,0,0,0],"split_type":[0,0,0,0,0,0,0,0,0,0,0,0,0,0,0,0,0,0,0,0,0,0,0,0,0,0,0,0,0],"sum_hessian":[2.61E2,5.9E1,2.02E2,3E0,5.6E1,2.2E1,1.8E2,2E0,1E0,1.8E1,3.8E1,2E1,2E0,1.2E1,6E0,2E1,1.8E1,1E0,1E0,2E0,1E1,2E0,4E0,1E0,1.7E1,1E0,1E0,1.2E1,5E0],"tree_param":{"num_deleted":"0","num_feature":"5","num_nodes":"29","size_leaf_vector":"1"}},{"base_weights":[1.5458017E-2,-8.416666E-2,4.4827588E-2,-4.625E-1,-5.614035E-2,4.3478273E-3,4.972376E-4,-6.333333E-3,2.5E-4,-1.631579E-1,-2.5641012E-3,4.7619047E-4,-2.9999998E-1,-3.0769229E-2,-3.857143E-1,4.7619047E-4,-5.7894737E-2,-4.75E-3,2.5E-4,-2.9999998E-1,4.5454546E-4,3.3333333E-4,-5.6E-3,-4.75E-3,-8.333332E-3,2.5E-4,-4.75E-3,4.6153847E-4,-1.25E-3],"categories":[],"categories_nodes":[],"categories_segments":[],"categories_sizes":[],"default_left":[0,0,0,0,0,0,0,0,0,0,0,0,0,0,0,0,0,0,0,0,0,0,0,0,0,0,0,0,0],"id":55,"left_children":[1,3,5,7,9,11,-1,-1,-1,13,15,-1,17,19,21,-1,23,-1,-1,25,-1,-1,-1,-1,27,-1,-1,-1,-1],"loss_changes":[7.7036774E-1,6.1023235E-1,4.0017545E-2,3.489583E-1,3.2639676E-1,3.1718427E-1,0E0,0E0,0E0,5.4794675E-1,1.1104684E-1,0E0,1.8249997E-1,2.804196E-1,5.299047E-1,0E0,3.888158E-1,0E0,0E0,1.8249997E-1,0E0,0E0,0E0,0E0,1.2019231E-1,0E0,0E0,0E0,0E0],"parents":[2147483647,0,0,1,1,2,2,3,3,4,4,5,5,9,9,10,10,12,12,13,13,14,14,16,16,19,19,24,24],"right_children":[2,4,6,8,10,12,-1,-1,-1,14,16,-1,18,20,22,-1,24,-1,-1,26,-1,-1,-1,-1,28,-1,-1,-1,-1],"split_conditions":[1.044E3,3E0,1.033E3,2.02E3,9.83E2,1.028E3,6.19358E-1,-2.6923278E-1,1.631659E-1,9.703333E2,1.039E3,1.487915E-3,2.016E3,5E0,9.29E2,8.974304E-4,1.0456666E3,-6.3921875E-1,3.359967E-1,2.018E3,1.0985107E-2,6.123675E-1,-1.3579467E-1,-4.0283203E-4,1.102E3,4.972296E-1,-1.6230761E0,7.266113E-2,-5.8168274E-1],"split_indices":[2,0,3,1,4,3,0,0,0,4,4,0,1,0,2,0,4,0,0,1,0,0,0,0,3,0,0,0,0],"split_type":[0,0,0,0,0,0,0,0,0,0,0,0,0,0,0,0,0,0,0,0,0,0,0,0,0,0,0,0,0],"sum_hessian":[2.61E2,5.9E1,2.02E2,3E0,5.6E1,2.2E1,1.8E2,2E0,1E0,1.8E1,3.8E1,2E1,2E0,1.2E1,6E0,2E1,1.8E1,1E0,1E0,2E0,1E1,2E0,4E0,1E0,1.7E1,1E0,1E0,1.2E1,5E0],"tree_param":{"num_deleted":"0","num_feature":"5","num_nodes":"29","size_leaf_vector":"1"}},{"base_weights":[1.5458017E-2,-8.416666E-2,4.4827588E-2,-4.625E-1,-5.614035E-2,4.3478273E-3,4.972376E-4,-6.333333E-3,2.5E-4,-1.631579E-1,-2.5641012E-3,4.7619047E-4,-2.9999998E-1,-3.0769229E-2,-3.857143E-1,4.7619047E-4,-5.7894737E-2,-4.75E-3,2.5E-4,-2.9999998E-1,4.5454546E-4,3.3333333E-4,-5.6E-3,-4.75E-3,-8.333332E-3,2.5E-4,-4.75E-3,4.6153847E-4,-1.25E-3],"categories":[],"categories_nodes":[],"categories_segments":[],"categories_sizes":[],"default_left":[0,0,0,0,0,0,0,0,0,0,0,0,0,0,0,0,0,0,0,0,0,0,0,0,0,0,0,0,0],"id":56,"left_children":[1,3,5,7,9,11,-1,-1,-1,13,15,-1,17,19,21,-1,23,-1,-1,25,-1,-1,-1,-1,27,-1,-1,-1,-1],"loss_changes":[7.7036774E-1,6.1023235E-1,4.0017545E-2,3.489583E-1,3.2639676E-1,3.1718427E-1,0E0,0E0,0E0,5.4794675E-1,1.1104684E-1,0E0,1.8249997E-1,2.804196E-1,5.299047E-1,0E0,3.888158E-1,0E0,0E0,1.8249997E-1,0E0,0E0,0E0,0E0,1.2019231E-1,0E0,0E0,0E0,0E0],"parents":[2147483647,0,0,1,1,2,2,3,3,4,4,5,5,9,9,10,10,12,12,13,13,14,14,16,16,19,19,24,24],"right_children":[2,4,6,8,10,12,-1,-1,-1,14,16,-1,18,20,22,-1,24,-1,-1,26,-1,-1,-1,-1,28,-1,-1,-1,-1],"split_conditions":[1.044E3,3E0,1.033E3,2.02E3,9.83E2,1.028E3,6.131642E-1,-2.6654053E-1,1.6153441E-1,9.703333E2,1.039E3,1.4732666E-3,2.016E3,5E0,9.29E2,8.882751E-4,1.0456666E3,-6.328265E-1,3.326367E-1,2.018E3,1.0875244E-2,6.062439E-1,-1.3443664E-1,-3.9855955E-4,1.102E3,4.9225706E-1,-1.6068456E0,7.193481E-2,-5.758661E-1],"split_indices":[2,0,3,1,4,3,0,0,0,4,4,0,1,0,2,0,4,0,0,1,0,0,0,0,3,0,0,0,0],"split_type":[0,0,0,0,0,0,0,0,0,0,0,0,0,0,0,0,0,0,0,0,0,0,0,0,0,0,0,0,0],"sum_hessian":[2.61E2,5.9E1,2.02E2,3E0,5.6E1,2.2E1,1.8E2,2E0,1E0,1.8E1,3.8E1,2E1,2E0,1.2E1,6E0,2E1,1.8E1,1E0,1E0,2E0,1E1,2E0,4E0,1E0,1.7E1,1E0,1E0,1.2E1,5E0],"tree_param":{"num_deleted":"0","num_feature":"5","num_nodes":"29","size_leaf_vector":"1"}},{"base_weights":[1.927481E-2,-7.368421E-2,4.4902913E-2,-2.025E-1,-3.947367E-3,-5.5E-2,4.9746194E-4,-7.058823E-2,-7.1249995E-3,-4.75E-3,2.1621622E-2,4.4444445E-4,-4.75E-3,-3.5999998E-1,4.6153847E-4,-5.5E-2,4.8214284E-4,3.3333333E-4,-6.333333E-3,4.4444445E-4,-4.75E-3],"categories":[],"categories_nodes":[],"categories_segments":[],"categories_sizes":[],"default_left":[0,0,0,0,0,0,0,0,0,0,0,0,0,0,0,0,0,0,0,0,0],"id":57,"left_children":[1,3,5,7,9,11,-1,13,-1,-1,15,-1,-1,17,-1,19,-1,-1,-1,-1,-1],"loss_changes":[6.2748784E-1,5.1124346E-1,1.0241079E-1,1.2952057E0,4.6795517E-1,4.3877774E-1,0E0,5.9098643E-1,0E0,0E0,7.804199E-2,0E0,0E0,5.586666E-1,0E0,4.3877774E-1,0E0,0E0,0E0,0E0,0E0],"parents":[2147483647,0,0,1,1,2,2,3,3,4,4,5,5,7,7,10,10,13,13,15,15],"right_children":[2,4,6,8,10,12,-1,14,-1,-1,16,-1,-1,18,-1,20,-1,-1,-1,-1,-1],"split_conditions":[1.042E3,2.018E3,9.56E2,1.028E3,8.83E2,9.46E2,5.6253254E-1,9.38E2,-6.264984E-1,-1.5907769E0,9.4E2,2.0776368E-3,-5.701074E-1,2.017E3,8.1604003E-4,9.29E2,5.6208253E-2,1.2231445E-3,-2.6387513E-1,6.7169187E-3,-1.1907959E-1],"split_indices":[3,1,2,3,2,2,0,3,0,0,3,0,0,1,0,3,0,0,0,0,0],"split_type":[0,0,0,0,0,0,0,0,0,0,0,0,0,0,0,0,0,0,0,0,0],"sum_hessian":[2.61E2,5.6E1,2.05E2,1.9E1,3.7E1,9E0,1.96E2,1.6E1,3E0,1E0,3.6E1,8E0,1E0,4E0,1.2E1,9E0,2.7E1,2E0,2E0,8E0,1E0],"tree_param":{"num_deleted":"0","num_feature":"5","num_nodes":"21","size_leaf_vector":"1"}},{"base_weights":[1.927481E-2,-1.631579E-1,3.3401642E-2,-3.0769229E-2,-3.857143E-1,-1.0769231E-1,4.1163795E-2,-2.9999998E-1,4.5454546E-4,3.3333333E-4,-5.6E-3,4.5000002E-4,-4.625E-1,-5.5E-2,4.529148E-2,2.5E-4,-4.75E-3,-6.333333E-3,2.5E-4,4.4444445E-4,-4.75E-3,8.000001E-3,4.9748743E-4,4.782609E-4,-2.9999998E-1,-4.75E-3,2.5E-4],"categories":[],"categories_nodes":[],"categories_segments":[],"categories_sizes":[],"default_left":[0,0,0,0,0,0,0,0,0,0,0,0,0,0,0,0,0,0,0,0,0,0,0,0,0,0,0],"id":58,"left_children":[1,3,5,7,9,11,13,15,-1,-1,-1,-1,17,19,21,-1,-1,-1,-1,-1,-1,23,-1,-1,25,-1,-1],"loss_changes":[6.80675E-1,5.4794675E-1,2.7166015E-1,2.804196E-1,5.299047E-1,7.2510576E-1,9.45797E-2,1.8249997E-1,0E0,0E0,0E0,0E0,3.489583E-1,4.3877774E-1,3.666863E-2,0E0,0E0,0E0,0E0,0E0,0E0,3.210087E-1,0E0,0E0,1.8249997E-1,0E0,0E0],"parents":[2147483647,0,0,1,1,2,2,3,3,4,4,5,5,6,6,7,7,12,12,13,13,14,14,21,21,24,24],"right_children":[2,4,6,8,10,12,14,16,-1,-1,-1,-1,18,20,22,-1,-1,-1,-1,-1,-1,24,-1,-1,26,-1,-1],"split_conditions":[9.83E2,9.703333E2,9.4E2,5E0,9.29E2,9.29E2,9.56E2,2.018E3,1.0745849E-2,6.0017335E-1,-1.3045348E-1,1.2109375E-3,3E0,9.55E2,1.033E3,4.8732665E-1,-1.5748694E0,-2.6123658E-1,5.1166016E-1,2.0568848E-3,-5.644061E-1,1.028E3,5.4340696E-1,1.4924622E-3,2.016E3,-6.202331E-1,3.2874817E-1],"split_indices":[4,4,3,0,2,3,2,1,0,0,0,0,0,2,3,0,0,0,0,0,0,3,0,0,1,0,0],"split_type":[0,0,0,0,0,0,0,0,0,0,0,0,0,0,0,0,0,0,0,0,0,0,0,0,0,0,0],"sum_hessian":[2.61E2,1.8E1,2.43E2,1.2E1,6E0,1.2E1,